{"learner":{"attributes":{},"feature_names":[],"feature_types":[],"gradient_booster":{"model":{"cats":{"enc":[],"feature_segments":[],"sorted_idx":[]},"gbtree_model_param":{"num_parallel_tree":"1","num_trees":"200"},"iteration_indptr":[0,1,2,3,4,5,6,7,8,9,10,11,12,13,14,15,16,17,18,19,20,21,22,23,24,25,26,27,28,29,30,31,32,33,34,35,36,37,38,39,40,41,42,43,44,45,46,47,48,49,50,51,52,53,54,55,56,57,58,59,60,61,62,63,64,65,66,67,68,69,70,71,72,73,74,75,76,77,78,79,80,81,82,83,84,85,86,87,88,89,90,91,92,93,94,95,96,97,98,99,100,101,102,103,104,105,106,107,108,109,110,111,112,113,114,115,116,117,118,119,120,121,122,123,124,125,126,127,128,129,130,131,132,133,134,135,136,137,138,139,140,141,142,143,144,145,146,147,148,149,150,151,152,153,154,155,156,157,158,159,160,161,162,163,164,165,166,167,168,169,170,171,172,173,174,175,176,177,178,179,180,181,182,183,184,185,186,187,188,189,190,191,192,193,194,195,196,197,198,199,200],"tree_info":[0,0,0,0,0,0,0,0,0,0,0,0,0,0,0,0,0,0,0,0,0,0,0,0,0,0,0,0,0,0,0,0,0,0,0,0,0,0,0,0,0,0,0,0,0,0,0,0,0,0,0,0,0,0,0,0,0,0,0,0,0,0,0,0,0,0,0,0,0,0,0,0,0,0,0,0,0,0,0,0,0,0,0,0,0,0,0,0,0,0,0,0,0,0,0,0,0,0,0,0,0,0,0,0,0,0,0,0,0,0,0,0,0,0,0,0,0,0,0,0,0,0,0,0,0,0,0,0,0,0,0,0,0,0,0,0,0,0,0,0,0,0,0,0,0,0,0,0,0,0,0,0,0,0,0,0,0,0,0,0,0,0,0,0,0,0,0,0,0,0,0,0,0,0,0,0,0,0,0,0,0,0,0,0,0,0,0,0,0,0,0,0,0,0,0,0,0,0,0,0],"trees":[{"base_weights":[-8.4465843E-1,-9.616241E-1,-9.503381E-2,-8.754933E-1,-1.4481996E0,-1.8852979E-1,1.5695264E0,-1.0306201E0,-6.888236E-1,-1.6002657E0,-1.0737077E0,-3.317333E-1,1.3868222E-1,1.062948E0,2.025475E-1,-1.4693302E-1,-9.2839494E-2,-7.2917216E-2,-3.246997E-3,-1.4273454E-1,-1.9393128E-1,-1.1746087E-1,-3.5597812E-2,-4.3905072E-2,-1.1958527E-2,3.7879214E-1,1.0498496E-2,4.1748386E-2,1.2693058E-1],"categories":[],"categories_nodes":[],"categories_segments":[],"categories_sizes":[],"default_left":[0,0,0,0,0,0,0,0,0,0,0,0,0,0,0,0,0,0,0,0,0,0,0,0,0,0,0,0,0],"id":0,"left_children":[1,3,5,7,9,11,13,15,17,19,21,23,25,27,-1,-1,-1,-1,-1,-1,-1,-1,-1,-1,-1,-1,-1,-1,-1],"loss_changes":[7.43E2,3.0596826E2,1.7849191E2,1.7972412E2,6.0980957E1,5.0886833E1,1.1936417E1,1.5116138E2,7.494934E1,4.3020386E1,2.2828583E1,1.7136711E1,4.0305187E1,3.5991783E0,0E0,0E0,0E0,0E0,0E0,0E0,0E0,0E0,0E0,0E0,0E0,0E0,0E0,0E0,0E0],"parents":[2147483647,0,0,1,1,2,2,3,3,4,4,5,5,6,6,7,7,8,8,9,9,10,10,11,11,12,12,13,13],"right_children":[2,4,6,8,10,12,14,16,18,20,22,24,26,28,-1,-1,-1,-1,-1,-1,-1,-1,-1,-1,-1,-1,-1,-1,-1],"split_conditions":[9.350961E-1,1.6529499E0,2.1857088E0,-3.1551662E-1,3.4654945E-2,-2.8043532E-1,-3.9135054E-1,-8.0403674E-1,1.1614624E0,1.1614624E0,2.0487843E0,1.5604025E0,-8.0403674E-1,-6.13181E-1,2.025475E-1,-1.4693302E-1,-9.2839494E-2,-7.2917216E-2,-3.246997E-3,-1.4273454E-1,-1.9393128E-1,-1.1746087E-1,-3.5597812E-2,-4.3905072E-2,-1.1958527E-2,3.7879214E-1,1.0498496E-2,4.1748386E-2,1.2693058E-1],"split_indices":[2,0,2,2,2,1,1,0,1,1,1,2,0,1,0,0,0,0,0,0,0,0,0,0,0,0,0,0,0],"split_type":[0,0,0,0,0,0,0,0,0,0,0,0,0,0,0,0,0,0,0,0,0,0,0,0,0,0,0,0,0],"sum_hessian":[8.474E3,7.33E3,1.144E3,6.23E3,1.1E3,1.084E3,6E1,3.4E3,2.83E3,7.8E2,3.2E2,7.54E2,3.3E2,3E1,3E1,6.4E2,2.76E3,2.666E3,1.64E2,5.2E2,2.6E2,2.8E2,4E1,5E2,2.54E2,2E0,3.28E2,8E0,2.2E1],"tree_param":{"num_deleted":"0","num_feature":"3","num_nodes":"29","size_leaf_vector":"1"}},{"base_weights":[-7.57006E-1,-8.655716E-1,-8.2449414E-2,-7.879946E-1,-1.3038244E0,-1.6405976E-1,1.4186594E0,-9.276286E-1,-6.199681E-1,-1.4406703E0,-9.6681374E-1,-2.9863396E-1,1.1323611E-1,9.6209437E-1,1.8294613E-1,-1.3226263E-1,-8.355891E-2,-6.562822E-2,-2.9242653E-3,-1.2848848E-1,-1.7461245E-1,-1.05756596E-1,-3.212486E-2,-3.9523326E-2,-1.0767363E-2,-1.1648725E-3,1.0071154E-1,3.8037416E-2,1.1478939E-1],"categories":[],"categories_nodes":[],"categories_segments":[],"categories_sizes":[],"default_left":[0,0,0,0,0,0,0,0,0,0,0,0,0,0,0,0,0,0,0,0,0,0,0,0,0,0,0,0,0],"id":1,"left_children":[1,3,5,7,9,11,13,15,17,19,21,23,25,27,-1,-1,-1,-1,-1,-1,-1,-1,-1,-1,-1,-1,-1,-1,-1],"loss_changes":[6.232197E2,2.4821484E2,1.4491234E2,1.4561768E2,4.9383667E1,4.1866024E1,9.680916E0,1.22539795E2,6.071045E1,3.4920532E1,1.8466522E1,1.3884651E1,4.098066E1,2.9139519E0,0E0,0E0,0E0,0E0,0E0,0E0,0E0,0E0,0E0,0E0,0E0,0E0,0E0,0E0,0E0],"parents":[2147483647,0,0,1,1,2,2,3,3,4,4,5,5,6,6,7,7,8,8,9,9,10,10,11,11,12,12,13,13],"right_children":[2,4,6,8,10,12,14,16,18,20,22,24,26,28,-1,-1,-1,-1,-1,-1,-1,-1,-1,-1,-1,-1,-1,-1,-1],"split_conditions":[9.350961E-1,1.6529499E0,2.1857088E0,-3.1551662E-1,3.4654945E-2,-2.8043532E-1,-3.9135054E-1,-8.0403674E-1,1.1614624E0,1.1614624E0,2.0487843E0,1.5604025E0,1.5604025E0,-6.13181E-1,1.8294613E-1,-1.3226263E-1,-8.355891E-2,-6.562822E-2,-2.9242653E-3,-1.2848848E-1,-1.7461245E-1,-1.05756596E-1,-3.212486E-2,-3.9523326E-2,-1.0767363E-2,-1.1648725E-3,1.0071154E-1,3.8037416E-2,1.1478939E-1],"split_indices":[2,0,2,2,2,1,1,0,1,1,1,2,2,1,0,0,0,0,0,0,0,0,0,0,0,0,0,0,0],"split_type":[0,0,0,0,0,0,0,0,0,0,0,0,0,0,0,0,0,0,0,0,0,0,0,0,0,0,0,0,0],"sum_hessian":[8.51E3,7.33E3,1.18E3,6.23E3,1.1E3,1.12E3,6E1,3.4E3,2.83E3,7.8E2,3.2E2,7.54E2,3.66E2,3E1,3E1,6.4E2,2.76E3,2.666E3,1.64E2,5.2E2,2.6E2,2.8E2,4E1,5E2,2.54E2,3.22E2,4.4E1,8E0,2.2E1],"tree_param":{"num_deleted":"0","num_feature":"3","num_nodes":"29","size_leaf_vector":"1"}},{"base_weights":[-6.8435913E-1,-7.811569E-1,-7.5101726E-2,-7.1144366E-1,-1.1738425E0,-1.5010288E-1,1.282298E0,-8.022011E-1,-4.9210885E-1,-1.1104094E0,-1.790899E0,-1.9680671E-1,5.3151894E-1,8.7081486E-1,1.6524167E-1,-1.0921246E-1,-7.4450366E-2,-5.1320244E-2,2.0817745E-1,-1.2218348E-1,-8.705619E-2,-2.117111E-1,-1.2618788E-1,-1.2241077E-2,-5.4169275E-2,1.9925174E-1,7.0273587E-3,3.4656312E-2,1.03809536E-1],"categories":[],"categories_nodes":[],"categories_segments":[],"categories_sizes":[],"default_left":[0,0,0,0,0,0,0,0,0,0,0,0,0,0,0,0,0,0,0,0,0,0,0,0,0,0,0,0,0],"id":2,"left_children":[1,3,5,7,9,11,13,15,17,19,21,23,25,27,-1,-1,-1,-1,-1,-1,-1,-1,-1,-1,-1,-1,-1,-1,-1],"loss_changes":[4.9975244E2,1.9936084E2,1.18593506E2,1.2328296E2,4.1106567E1,3.5217888E1,7.851204E0,7.267236E1,9.993497E1,2.568811E1,1.475827E1,2.6438526E1,4.7705364E1,2.3588448E0,0E0,0E0,0E0,0E0,0E0,0E0,0E0,0E0,0E0,0E0,0E0,0E0,0E0,0E0,0E0],"parents":[2147483647,0,0,1,1,2,2,3,3,4,4,5,5,6,6,7,7,8,8,9,9,10,10,11,11,12,12,13,13],"right_children":[2,4,6,8,10,12,14,16,18,20,22,24,26,28,-1,-1,-1,-1,-1,-1,-1,-1,-1,-1,-1,-1,-1,-1,-1],"split_conditions":[9.350961E-1,1.6529499E0,2.1857088E0,3.4654945E-2,3.2688515E0,2.7414075E-1,-3.9135054E-1,-8.0403674E-1,1.3832929E0,3.4654945E-2,-7.657372E-1,2.744944E0,5.609559E-1,-6.13181E-1,1.6524167E-1,-1.0921246E-1,-7.4450366E-2,-5.1320244E-2,2.0817745E-1,-1.2218348E-1,-8.705619E-2,-2.117111E-1,-1.2618788E-1,-1.2241077E-2,-5.4169275E-2,1.9925174E-1,7.0273587E-3,3.4656312E-2,1.03809536E-1],"split_indices":[2,0,2,2,1,1,1,0,1,2,2,0,0,1,0,0,0,0,0,0,0,0,0,0,0,0,0,0,0],"split_type":[0,0,0,0,0,0,0,0,0,0,0,0,0,0,0,0,0,0,0,0,0,0,0,0,0,0,0,0,0],"sum_hessian":[8.474E3,7.312E3,1.162E3,6.212E3,1.1E3,1.102E3,6E1,4.392E3,1.82E3,1E3,1E2,1.032E3,7E1,3E1,3E1,7.26E2,3.666E3,1.806E3,1.4E1,6.8E2,3.2E2,6E1,4E1,8.5E2,1.82E2,1.6E1,5.4E1,8E0,2.2E1],"tree_param":{"num_deleted":"0","num_feature":"3","num_nodes":"29","size_leaf_vector":"1"}},{"base_weights":[-6.2413114E-1,-7.103442E-1,-6.965658E-2,-6.480857E-1,-1.0569552E0,-1.3983583E-1,1.159047E0,-7.627178E-1,-5.089482E-1,-9.995775E-1,-1.6151546E0,-2.3165375E-1,1.7246713E-1,7.882E-1,1.4925055E-1,-1.0815281E-1,-6.874444E-2,-5.3883918E-2,2.9501382E-3,-1.09983064E-1,-7.837769E-2,-1.9088706E-1,-1.1387687E-1,-1.5838785E-2,-4.8781946E-2,3.4033355E-1,1.3153322E-2,9.42961E-2,3.0512208E-2],"categories":[],"categories_nodes":[],"categories_segments":[],"categories_sizes":[],"default_left":[0,0,0,0,0,0,0,0,0,0,0,0,0,0,0,0,0,0,0,0,0,0,0,0,0,0,0,0,0],"id":3,"left_children":[1,3,5,7,9,11,13,15,17,19,21,23,25,27,-1,-1,-1,-1,-1,-1,-1,-1,-1,-1,-1,-1,-1,-1,-1],"loss_changes":[3.9991797E2,1.5557178E2,9.734272E1,9.755859E1,3.364856E1,3.0636185E1,6.366997E0,8.000952E1,4.471112E1,2.0794312E1,1.1958405E1,1.5406509E1,3.1689596E1,2.02989E0,0E0,0E0,0E0,0E0,0E0,0E0,0E0,0E0,0E0,0E0,0E0,0E0,0E0,0E0,0E0],"parents":[2147483647,0,0,1,1,2,2,3,3,4,4,5,5,6,6,7,7,8,8,9,9,10,10,11,11,12,12,13,13],"right_children":[2,4,6,8,10,12,14,16,18,20,22,24,26,28,-1,-1,-1,-1,-1,-1,-1,-1,-1,-1,-1,-1,-1,-1,-1],"split_conditions":[9.350961E-1,1.6529499E0,2.1857088E0,-3.1551662E-1,3.2688515E0,-1.6952012E-1,-3.9135054E-1,-8.0403674E-1,1.1614624E0,3.4654945E-2,-7.657372E-1,2.744944E0,-8.0403674E-1,1.6529499E0,1.4925055E-1,-1.0815281E-1,-6.874444E-2,-5.3883918E-2,2.9501382E-3,-1.09983064E-1,-7.837769E-2,-1.9088706E-1,-1.1387687E-1,-1.5838785E-2,-4.8781946E-2,3.4033355E-1,1.3153322E-2,9.42961E-2,3.0512208E-2],"split_indices":[2,0,2,2,1,1,1,0,1,2,2,0,0,0,0,0,0,0,0,0,0,0,0,0,0,0,0,0,0],"split_type":[0,0,0,0,0,0,0,0,0,0,0,0,0,0,0,0,0,0,0,0,0,0,0,0,0,0,0,0,0],"sum_hessian":[8.366E3,7.24E3,1.126E3,6.14E3,1.1E3,1.066E3,6E1,3.364E3,2.776E3,1E3,1E2,8.24E2,2.42E2,3E1,3E1,6.4E2,2.724E3,2.63E3,1.46E2,6.8E2,3.2E2,6E1,4E1,6.42E2,1.82E2,2E0,2.4E2,2.2E1,8E0],"tree_param":{"num_deleted":"0","num_feature":"3","num_nodes":"29","size_leaf_vector":"1"}},{"base_weights":[-5.620005E-1,-6.428166E-1,-6.0846593E-2,-5.870047E-1,-9.517076E-1,-1.2395934E-1,8.067253E-1,-6.58494E-1,-4.085794E-1,-8.9980793E-1,-1.4566567E0,-2.3523782E-1,9.438721E-2,8.0301605E-2,1.161569E0,-9.084671E-2,-6.0974386E-2,-4.2817075E-2,1.8847221E-1,-9.9000916E-2,-7.056434E-2,-1.7211129E-1,-1.0276693E-1,-1.592413E-2,-4.8943684E-2,-1.6724207E-3,8.898228E-2,1.2487085E-3,3.7618812E-2,9.057757E-2,1.4558308E-1],"categories":[],"categories_nodes":[],"categories_segments":[],"categories_sizes":[],"default_left":[0,0,0,0,0,0,0,0,0,0,0,0,0,0,0,0,0,0,0,0,0,0,0,0,0,0,0,0,0,0,0],"id":4,"left_children":[1,3,5,7,9,11,13,15,17,19,21,23,25,27,29,-1,-1,-1,-1,-1,-1,-1,-1,-1,-1,-1,-1,-1,-1,-1,-1],"loss_changes":[3.388352E2,1.2365405E2,6.3779884E1,7.760327E1,2.7542908E1,2.6384745E1,2.0270302E1,5.254138E1,7.938745E1,1.6832825E1,9.689529E0,1.3811882E1,3.2451065E1,5.370683E-1,2.6706696E0,0E0,0E0,0E0,0E0,0E0,0E0,0E0,0E0,0E0,0E0,0E0,0E0,0E0,0E0,0E0,0E0],"parents":[2147483647,0,0,1,1,2,2,3,3,4,4,5,5,6,6,7,7,8,8,9,9,10,10,11,11,12,12,13,13,14,14],"right_children":[2,4,6,8,10,12,14,16,18,20,22,24,26,28,30,-1,-1,-1,-1,-1,-1,-1,-1,-1,-1,-1,-1,-1,-1,-1,-1],"split_conditions":[9.350961E-1,1.6529499E0,2.1857088E0,3.4654945E-2,3.2688515E0,-2.8043532E-1,-6.13181E-1,-8.0403674E-1,1.3832929E0,3.4654945E-2,-7.657372E-1,2.744944E0,1.5604025E0,-8.350114E-1,-2.8043532E-1,-9.084671E-2,-6.0974386E-2,-4.2817075E-2,1.8847221E-1,-9.9000916E-2,-7.056434E-2,-1.7211129E-1,-1.0276693E-1,-1.592413E-2,-4.8943684E-2,-1.6724207E-3,8.898228E-2,1.2487085E-3,3.7618812E-2,9.057757E-2,1.4558308E-1],"split_indices":[2,0,2,2,1,1,1,0,1,2,2,0,2,1,1,0,0,0,0,0,0,0,0,0,0,0,0,0,0,0,0],"split_type":[0,0,0,0,0,0,0,0,0,0,0,0,0,0,0,0,0,0,0,0,0,0,0,0,0,0,0,0,0,0,0],"sum_hessian":[8.366E3,7.204E3,1.162E3,6.104E3,1.1E3,1.084E3,7.8E1,4.356E3,1.748E3,1E3,1E2,7.18E2,3.66E2,2.6E1,5.2E1,7.08E2,3.648E3,1.734E3,1.4E1,6.8E2,3.2E2,6E1,4E1,5.54E2,1.64E2,3.22E2,4.4E1,2.2E1,4E0,3E1,2.2E1],"tree_param":{"num_deleted":"0","num_feature":"3","num_nodes":"31","size_leaf_vector":"1"}},{"base_weights":[-5.0809693E-1,-5.7868856E-1,-5.6348164E-2,-5.268226E-1,-8.713909E-1,-1.15479104E-1,7.2953415E-1,-5.9267944E-1,-3.6413726E-1,-8.1120706E-1,-1.261332E0,-1.5585366E-1,4.4286126E-1,1.0522294E0,6.9075465E-2,-8.177485E-2,-5.487861E-2,-3.7685536E-2,1.7003901E-1,-8.723324E-2,-6.783414E-2,-1.5225963E-1,-9.053998E-2,-9.797597E-3,-4.4078976E-2,1.7343585E-1,3.5619175E-3,8.221575E-2,1.3165775E-1,-1.0418949E-3,2.9769078E-2],"categories":[],"categories_nodes":[],"categories_segments":[],"categories_sizes":[],"default_left":[0,0,0,0,0,0,0,0,0,0,0,0,0,0,0,0,0,0,0,0,0,0,0,0,0,0,0,0,0,0,0],"id":5,"left_children":[1,3,5,7,9,11,13,15,17,19,21,23,25,27,29,-1,-1,-1,-1,-1,-1,-1,-1,-1,-1,-1,-1,-1,-1,-1,-1],"loss_changes":[2.6564038E2,1.0892212E2,5.245589E1,6.53855E1,2.4392761E1,2.3716358E1,1.6764343E1,4.2594116E1,4.7036606E1,7.050598E0,1.1919342E1,1.6101934E1,3.7280815E1,2.1409798E0,4.937899E-1,0E0,0E0,0E0,0E0,0E0,0E0,0E0,0E0,0E0,0E0,0E0,0E0,0E0,0E0,0E0,0E0],"parents":[2147483647,0,0,1,1,2,2,3,3,4,4,5,5,6,6,7,7,8,8,9,9,10,10,11,11,12,12,13,13,14,14],"right_children":[2,4,6,8,10,12,14,16,18,20,22,24,26,28,30,-1,-1,-1,-1,-1,-1,-1,-1,-1,-1,-1,-1,-1,-1,-1,-1],"split_conditions":[9.350961E-1,1.6529499E0,2.1857088E0,3.4654945E-2,2.492445E0,2.7414075E-1,1.6529499E0,-8.0403674E-1,1.6051233E0,3.4654945E-2,-7.657372E-1,2.744944E0,5.609559E-1,-2.8043532E-1,-8.350114E-1,-8.177485E-2,-5.487861E-2,-3.7685536E-2,1.7003901E-1,-8.723324E-2,-6.783414E-2,-1.5225963E-1,-9.053998E-2,-9.797597E-3,-4.4078976E-2,1.7343585E-1,3.5619175E-3,8.221575E-2,1.3165775E-1,-1.0418949E-3,2.9769078E-2],"split_indices":[2,0,2,2,1,1,0,0,1,2,2,0,0,1,1,0,0,0,0,0,0,0,0,0,0,0,0,0,0,0,0],"split_type":[0,0,0,0,0,0,0,0,0,0,0,0,0,0,0,0,0,0,0,0,0,0,0,0,0,0,0,0,0,0,0],"sum_hessian":[8.33E3,7.204E3,1.126E3,6.122E3,1.082E3,1.048E3,7.8E1,4.356E3,1.766E3,9.4E2,1.42E2,9.78E2,7E1,5.2E1,2.6E1,7.08E2,3.648E3,1.756E3,1E1,6.4E2,3E2,8E1,6.2E1,8.14E2,1.64E2,1.6E1,5.4E1,3E1,2.2E1,2E1,6E0],"tree_param":{"num_deleted":"0","num_feature":"3","num_nodes":"31","size_leaf_vector":"1"}},{"base_weights":[-4.607516E-1,-5.5234647E-1,-1.8636334E-1,-5.0519824E-1,-8.293375E-1,-2.6931062E-1,2.6387516E-1,-6.873388E-1,-4.6632326E-1,-7.2723496E-1,-1.0769176E0,-2.2253376E-1,-6.289205E-1,-7.792043E-2,7.784974E-1,-8.011917E-2,-4.3418758E-2,-4.9392257E-2,-3.271538E-2,-5.417008E-2,-7.779996E-2,-1.2671427E-1,-8.463503E-2,-4.1111756E-2,-1.806655E-2,-6.767744E-2,-5.748397E-2,-2.6536329E-2,-5.4982025E-3,6.745546E-2,1.14618674E-1],"categories":[],"categories_nodes":[],"categories_segments":[],"categories_sizes":[],"default_left":[0,0,0,0,0,0,0,0,0,0,0,0,0,0,0,0,0,0,0,0,0,0,0,0,0,0,0,0,0,0,0],"id":6,"left_children":[1,3,5,7,9,11,13,15,17,19,21,23,25,27,29,-1,-1,-1,-1,-1,-1,-1,-1,-1,-1,-1,-1,-1,-1,-1,-1],"loss_changes":[2.0791907E2,8.061609E1,7.748945E1,3.7242676E1,2.1992798E1,2.9314339E1,5.687494E1,2.6485413E1,1.6642761E1,5.6158447E0,1.0374939E1,1.2171928E1,1.3114929E-1,8.238393E-1,4.1570435E0,0E0,0E0,0E0,0E0,0E0,0E0,0E0,0E0,0E0,0E0,0E0,0E0,0E0,0E0,0E0,0E0],"parents":[2147483647,0,0,1,1,2,2,3,3,4,4,5,5,6,6,7,7,8,8,9,9,10,10,11,11,12,12,13,13,14,14],"right_children":[2,4,6,8,10,12,14,16,18,20,22,24,26,28,30,-1,-1,-1,-1,-1,-1,-1,-1,-1,-1,-1,-1,-1,-1,-1,-1],"split_conditions":[3.0978975E-1,1.6529499E0,1.5604025E0,-8.0403674E-1,1.1614624E0,2.744944E0,-6.13181E-1,-3.1551662E-1,3.4654945E-2,-6.13181E-1,-7.657372E-1,-6.13181E-1,9.350961E-1,-8.0403674E-1,5.2310307E-2,-8.011917E-2,-4.3418758E-2,-4.9392257E-2,-3.271538E-2,-5.417008E-2,-7.779996E-2,-1.2671427E-1,-8.463503E-2,-4.1111756E-2,-1.806655E-2,-6.767744E-2,-5.748397E-2,-2.6536329E-2,-5.4982025E-3,6.745546E-2,1.14618674E-1],"split_indices":[2,0,2,0,1,0,1,2,2,1,2,1,2,0,1,0,0,0,0,0,0,0,0,0,0,0,0,0,0,0,0],"split_type":[0,0,0,0,0,0,0,0,0,0,0,0,0,0,0,0,0,0,0,0,0,0,0,0,0,0,0,0,0,0,0],"sum_hessian":[8.276E3,6.204E3,2.072E3,5.304E3,9E2,1.75E3,3.22E2,9.3E2,4.374E3,6.4E2,2.6E2,1.55E3,2E2,1.94E2,1.28E2,6.4E2,2.9E2,3.648E3,7.26E2,1.4E2,5E2,1.4E2,1.2E2,2.8E2,1.27E3,1E2,1E2,2E1,1.74E2,1.02E2,2.6E1],"tree_param":{"num_deleted":"0","num_feature":"3","num_nodes":"31","size_leaf_vector":"1"}},{"base_weights":[-4.167679E-1,-4.7487774E-1,-4.263419E-2,-4.330176E-1,-7.083226E-1,-9.28672E-2,6.134781E-1,-5.046614E-1,-3.4313515E-1,-6.586488E-1,-1.0302438E0,-1.8518367E-1,8.8064075E-2,8.8502586E-1,5.7718534E-2,-7.211975E-2,-4.535405E-2,-3.4976617E-2,1.6688232E-1,-5.0208103E-2,-6.950221E-2,-1.2470665E-1,-7.351186E-2,-2.622664E-2,-2.0669298E-3,3.0739817E-1,6.199544E-3,7.370045E-2,1.2108797E-1,-4.1902633E-4,2.3519943E-2],"categories":[],"categories_nodes":[],"categories_segments":[],"categories_sizes":[],"default_left":[0,0,0,0,0,0,0,0,0,0,0,0,0,0,0,0,0,0,0,0,0,0,0,0,0,0,0,0,0,0,0],"id":7,"left_children":[1,3,5,7,9,11,13,15,17,19,21,23,25,27,29,-1,-1,-1,-1,-1,-1,-1,-1,-1,-1,-1,-1,-1,-1,-1,-1],"loss_changes":[1.79146E2,6.939722E1,3.660795E1,3.879236E1,1.663977E1,1.7237034E1,1.1871225E1,3.6921814E1,3.6431824E1,5.009918E0,8.233795E0,8.655848E0,2.6975168E1,1.6639404E0,2.9765147E-1,0E0,0E0,0E0,0E0,0E0,0E0,0E0,0E0,0E0,0E0,0E0,0E0,0E0,0E0,0E0,0E0],"parents":[2147483647,0,0,1,1,2,2,3,3,4,4,5,5,6,6,7,7,8,8,9,9,10,10,11,11,12,12,13,13,14,14],"right_children":[2,4,6,8,10,12,14,16,18,20,22,24,26,28,30,-1,-1,-1,-1,-1,-1,-1,-1,-1,-1,-1,-1,-1,-1,-1,-1],"split_conditions":[9.350961E-1,1.6529499E0,2.1857088E0,-3.1551662E-1,2.492445E0,-2.8043532E-1,1.6529499E0,-8.0403674E-1,3.2688515E0,-6.13181E-1,-7.657372E-1,1.5604025E0,-8.0403674E-1,-1.6952012E-1,-8.350114E-1,-7.211975E-2,-4.535405E-2,-3.4976617E-2,1.6688232E-1,-5.0208103E-2,-6.950221E-2,-1.2470665E-1,-7.351186E-2,-2.622664E-2,-2.0669298E-3,3.0739817E-1,6.199544E-3,7.370045E-2,1.2108797E-1,-4.1902633E-4,2.3519943E-2],"split_indices":[2,0,2,2,1,1,0,0,1,1,2,2,0,1,1,0,0,0,0,0,0,0,0,0,0,0,0,0,0,0,0],"split_type":[0,0,0,0,0,0,0,0,0,0,0,0,0,0,0,0,0,0,0,0,0,0,0,0,0,0,0,0,0,0,0],"sum_hessian":[8.24E3,7.132E3,1.108E3,6.05E3,1.082E3,1.03E3,7.8E1,3.364E3,2.686E3,9.4E2,1.42E2,6.82E2,3.48E2,5.2E1,2.6E1,6.4E2,2.724E3,2.678E3,8E0,1.8E2,7.6E2,8E1,6.2E1,4.64E2,2.18E2,2E0,3.46E2,3.8E1,1.4E1,2E1,6E0],"tree_param":{"num_deleted":"0","num_feature":"3","num_nodes":"31","size_leaf_vector":"1"}},{"base_weights":[-3.767878E-1,-4.2968777E-1,-3.7917033E-2,-3.9091718E-1,-6.489115E-1,-1.4735693E-1,2.0899555E-1,-4.5423016E-1,-3.1094748E-1,-5.9567374E-1,-8.989306E-1,-9.51117E-2,-4.9195793E-2,-2.0410484E-2,7.248073E-1,-6.491903E-2,-4.082031E-2,-3.3578366E-2,1.8067842E-2,-4.5215033E-2,-6.318822E-2,-1.10498585E-1,-6.435128E-2,-3.0240713E-2,-3.967925E-3,-7.022197E-3,2.0595348E-2,6.764722E-2,1.5562153E-1],"categories":[],"categories_nodes":[],"categories_segments":[],"categories_sizes":[],"default_left":[0,0,0,0,0,0,0,0,0,0,0,0,0,0,0,0,0,0,0,0,0,0,0,0,0,0,0,0,0],"id":8,"left_children":[1,3,5,7,9,11,13,15,17,19,21,23,-1,25,27,-1,-1,-1,-1,-1,-1,-1,-1,-1,-1,-1,-1,-1,-1],"loss_changes":[1.470686E2,6.006665E1,2.9998291E1,3.0404541E1,1.3640137E1,1.3798098E1,4.036544E1,2.9930603E1,3.2649475E1,4.2926636E0,9.025513E0,7.6754093E0,0E0,2.6867619E0,3.166813E0,0E0,0E0,0E0,0E0,0E0,0E0,0E0,0E0,0E0,0E0,0E0,0E0,0E0,0E0],"parents":[2147483647,0,0,1,1,2,2,3,3,4,4,5,5,6,6,7,7,8,8,9,9,10,10,11,11,13,13,14,14],"right_children":[2,4,6,8,10,12,14,16,18,20,22,24,-1,26,28,-1,-1,-1,-1,-1,-1,-1,-1,-1,-1,-1,-1,-1,-1],"split_conditions":[9.350961E-1,1.6529499E0,1.5604025E0,-3.1551662E-1,2.0487843E0,2.744944E0,-5.0226575E-1,-8.0403674E-1,1.1614624E0,-6.13181E-1,-7.657372E-1,-6.13181E-1,-4.9195793E-2,-6.13181E-1,7.178016E-1,-6.491903E-2,-4.082031E-2,-3.3578366E-2,1.8067842E-2,-4.5215033E-2,-6.318822E-2,-1.10498585E-1,-6.435128E-2,-3.0240713E-2,-3.967925E-3,-7.022197E-3,2.0595348E-2,6.764722E-2,1.5562153E-1],"split_indices":[2,0,2,2,1,0,1,0,1,1,2,1,0,1,1,0,0,0,0,0,0,0,0,0,0,0,0,0,0],"split_type":[0,0,0,0,0,0,0,0,0,0,0,0,0,0,0,0,0,0,0,0,0,0,0,0,0,0,0,0,0],"sum_hessian":[8.204E3,7.096E3,1.108E3,6.032E3,1.064E3,7.68E2,3.4E2,3.364E3,2.668E3,8.8E2,1.84E2,6.68E2,1E2,2.36E2,1.04E2,6.4E2,2.724E3,2.54E3,1.28E2,1.8E2,7E2,1E2,8.4E1,1.4E2,5.28E2,1.94E2,4.2E1,1E2,4E0],"tree_param":{"num_deleted":"0","num_feature":"3","num_nodes":"29","size_leaf_vector":"1"}},{"base_weights":[-3.3994386E-1,-4.1053575E-1,-1.2910193E-1,-3.6570913E-1,-5.645187E-1,-1.89961E-1,1.9782645E-1,-5.156124E-1,-3.2998213E-1,-5.0311947E-1,-7.8315E-1,-1.5305032E-1,-4.705288E-2,5.3985573E-2,7.466216E-1,-6.50166E-2,-4.0943E-2,-3.467246E-2,-2.506555E-2,-4.0389623E-2,-5.2800357E-2,-9.193625E-2,-6.2206246E-2,-3.078634E-2,-1.1820952E-2,-2.4164168E-3,4.914422E-2,6.8039775E-2,1.4317182E-1],"categories":[],"categories_nodes":[],"categories_segments":[],"categories_sizes":[],"default_left":[0,0,0,0,0,0,0,0,0,0,0,0,0,0,0,0,0,0,0,0,0,0,0,0,0,0,0,0,0],"id":9,"left_children":[1,3,5,7,9,11,13,15,17,19,21,23,-1,25,27,-1,-1,-1,-1,-1,-1,-1,-1,-1,-1,-1,-1,-1,-1],"loss_changes":[1.2180017E2,4.212683E1,4.0925E1,2.5284973E1,1.8144226E1,1.7874855E1,2.545705E1,1.2778046E1,5.014374E0,2.4558105E0,6.032669E0,8.232323E0,0E0,8.797963E0,2.0656319E0,0E0,0E0,0E0,0E0,0E0,0E0,0E0,0E0,0E0,0E0,0E0,0E0,0E0,0E0],"parents":[2147483647,0,0,1,1,2,2,3,3,4,4,5,5,6,6,7,7,8,8,9,9,10,10,11,11,13,13,14,14],"right_children":[2,4,6,8,10,12,14,16,18,20,22,24,-1,26,28,-1,-1,-1,-1,-1,-1,-1,-1,-1,-1,-1,-1,-1,-1],"split_conditions":[3.0978975E-1,5.609559E-1,1.5604025E0,-8.0403674E-1,7.178016E-1,2.744944E0,-2.8043532E-1,-7.657372E-1,3.4654945E-2,-6.13181E-1,-7.657372E-1,-6.13181E-1,-4.705288E-2,2.1857088E0,7.178016E-1,-6.50166E-2,-4.0943E-2,-3.467246E-2,-2.506555E-2,-4.0389623E-2,-5.2800357E-2,-9.193625E-2,-6.2206246E-2,-3.078634E-2,-1.1820952E-2,-2.4164168E-3,4.914422E-2,6.8039775E-2,1.4317182E-1],"split_indices":[2,0,2,0,1,0,1,2,2,1,2,1,0,2,1,0,0,0,0,0,0,0,0,0,0,0,0,0,0],"split_type":[0,0,0,0,0,0,0,0,0,0,0,0,0,0,0,0,0,0,0,0,0,0,0,0,0,0,0,0,0],"sum_hessian":[8.186E3,6.132E3,2.054E3,4.752E3,1.38E3,1.732E3,3.22E2,9.12E2,3.84E3,1.08E3,3E2,1.532E3,2E2,2.56E2,6.6E1,4E2,5.12E2,3.168E3,6.72E2,2.2E2,8.6E2,1.6E2,1.4E2,2.8E2,1.252E3,2.18E2,3.8E1,6.2E1,4E0],"tree_param":{"num_deleted":"0","num_feature":"3","num_nodes":"29","size_leaf_vector":"1"}},{"base_weights":[-3.1029886E-1,-3.729223E-1,-1.1989503E-1,-3.419942E-1,-5.502849E-1,-1.7871535E-1,1.6696842E-1,-4.6416724E-1,-3.1577295E-1,-4.7885144E-1,-7.236128E-1,-1.4488739E-1,-4.2371E-2,-2.6673974E-2,5.1038885E-1,-5.8531154E-2,-3.6856677E-2,-3.0137902E-2,-4.284426E-2,-3.5306532E-2,-5.1329654E-2,-8.534183E-2,-5.6637146E-2,-1.8243326E-2,1.3427691E-3,-7.5228005E-3,1.738083E-2,6.5355785E-2,6.441788E-3],"categories":[],"categories_nodes":[],"categories_segments":[],"categories_sizes":[],"default_left":[0,0,0,0,0,0,0,0,0,0,0,0,0,0,0,0,0,0,0,0,0,0,0,0,0,0,0,0,0],"id":10,"left_children":[1,3,5,7,9,11,13,15,17,19,21,23,-1,25,27,-1,-1,-1,-1,-1,-1,-1,-1,-1,-1,-1,-1,-1,-1],"loss_changes":[9.628723E1,3.315808E1,3.379351E1,1.6444458E1,1.0809143E1,1.3704426E1,2.2690372E1,1.0358124E1,6.790924E0,2.5960388E0,4.843872E0,8.686747E0,0E0,2.14487E0,7.811352E0,0E0,0E0,0E0,0E0,0E0,0E0,0E0,0E0,0E0,0E0,0E0,0E0,0E0,0E0],"parents":[2147483647,0,0,1,1,2,2,3,3,4,4,5,5,6,6,7,7,8,8,9,9,10,10,11,11,13,13,14,14],"right_children":[2,4,6,8,10,12,14,16,18,20,22,24,-1,26,28,-1,-1,-1,-1,-1,-1,-1,-1,-1,-1,-1,-1,-1,-1],"split_conditions":[3.0978975E-1,1.6529499E0,1.5604025E0,-8.0403674E-1,1.1614624E0,2.744944E0,-5.0226575E-1,-7.657372E-1,5.609559E-1,-6.13181E-1,-7.657372E-1,1.6322552E-1,-4.2371E-2,-6.13181E-1,1.6529499E0,-5.8531154E-2,-3.6856677E-2,-3.0137902E-2,-4.284426E-2,-3.5306532E-2,-5.1329654E-2,-8.534183E-2,-5.6637146E-2,-1.8243326E-2,1.3427691E-3,-7.5228005E-3,1.738083E-2,6.5355785E-2,6.441788E-3],"split_indices":[2,0,2,0,1,0,1,2,0,1,2,1,0,1,0,0,0,0,0,0,0,0,0,0,0,0,0,0,0],"split_type":[0,0,0,0,0,0,0,0,0,0,0,0,0,0,0,0,0,0,0,0,0,0,0,0,0,0,0,0,0],"sum_hessian":[8.078E3,6.078E3,2E3,5.178E3,9E2,1.66E3,3.4E2,9.12E2,4.266E3,6.4E2,2.6E2,1.46E3,2E2,2.18E2,1.22E2,4E2,5.12E2,3.786E3,4.8E2,1.4E2,5E2,1.4E2,1.2E2,1.18E3,2.8E2,1.76E2,4.2E1,9.2E1,3E1],"tree_param":{"num_deleted":"0","num_feature":"3","num_nodes":"29","size_leaf_vector":"1"}},{"base_weights":[-2.8126556E-1,-3.3671513E-1,-1.10089384E-1,-3.0892769E-1,-4.9551016E-1,-1.6470763E-1,1.5051104E-1,-4.17855E-1,-2.8544933E-1,-4.3110147E-1,-6.517955E-1,-1.2366993E-1,-3.4190792E-1,-2.3961566E-2,4.599337E-1,-3.7401516E-2,-6.366095E-2,-2.7258122E-2,-3.856874E-2,-3.180092E-2,-4.6206933E-2,-6.1050337E-2,-1.09463386E-1,-1.578409E-2,9.469804E-2,-3.4887593E-2,1.4594671E-2,-6.7747715E-3,1.5683167E-2,5.889048E-2,5.8183875E-3],"categories":[],"categories_nodes":[],"categories_segments":[],"categories_sizes":[],"default_left":[0,0,0,0,0,0,0,0,0,0,0,0,0,0,0,0,0,0,0,0,0,0,0,0,0,0,0,0,0,0,0],"id":11,"left_children":[1,3,5,7,9,11,13,15,17,19,21,23,25,27,29,-1,-1,-1,-1,-1,-1,-1,-1,-1,-1,-1,-1,-1,-1,-1,-1],"loss_changes":[7.613336E1,2.6591125E1,2.7993694E1,1.307962E1,8.7885895E0,1.177454E1,1.842017E1,8.517715E0,5.3755493E0,2.0979996E0,4.1043015E0,4.8478455E1,1.0877266E0,1.7442813E0,6.338871E0,0E0,0E0,0E0,0E0,0E0,0E0,0E0,0E0,0E0,0E0,0E0,0E0,0E0,0E0,0E0,0E0],"parents":[2147483647,0,0,1,1,2,2,3,3,4,4,5,5,6,6,7,7,8,8,9,9,10,10,11,11,12,12,13,13,14,14],"right_children":[2,4,6,8,10,12,14,16,18,20,22,24,26,28,30,-1,-1,-1,-1,-1,-1,-1,-1,-1,-1,-1,-1,-1,-1,-1,-1],"split_conditions":[3.0978975E-1,1.6529499E0,1.5604025E0,-8.0403674E-1,1.1614624E0,1.6529499E0,-5.0226575E-1,1.1614624E0,5.609559E-1,-6.13181E-1,5.15441E0,7.178016E-1,2.0487843E0,-6.13181E-1,1.6529499E0,-3.7401516E-2,-6.366095E-2,-2.7258122E-2,-3.856874E-2,-3.180092E-2,-4.6206933E-2,-6.1050337E-2,-1.09463386E-1,-1.578409E-2,9.469804E-2,-3.4887593E-2,1.4594671E-2,-6.7747715E-3,1.5683167E-2,5.889048E-2,5.8183875E-3],"split_indices":[2,0,2,0,1,0,1,1,0,1,1,1,1,1,0,0,0,0,0,0,0,0,0,0,0,0,0,0,0,0,0],"split_type":[0,0,0,0,0,0,0,0,0,0,0,0,0,0,0,0,0,0,0,0,0,0,0,0,0,0,0,0,0,0,0],"sum_hessian":[8.024E3,6.06E3,1.964E3,5.16E3,9E2,1.624E3,3.4E2,9.12E2,4.248E3,6.4E2,2.6E2,1.32E3,3.04E2,2.18E2,1.22E2,7.62E2,1.5E2,3.768E3,4.8E2,1.4E2,5E2,2.4E2,2E1,1.28E3,4E1,3E2,4E0,1.76E2,4.2E1,9.2E1,3E1],"tree_param":{"num_deleted":"0","num_feature":"3","num_nodes":"31","size_leaf_vector":"1"}},{"base_weights":[-2.5566742E-1,-2.8788343E-1,-1.7026203E-2,-2.620194E-1,-4.3194166E-1,-5.5431165E-2,4.056439E-1,-3.0495524E-1,-2.0658301E-1,-4.2030606E-1,-9.90383E-2,-9.6706994E-2,2.818762E-1,5.980388E-1,1.2956059E-2,-4.3506783E-2,-2.740328E-2,-2.1558909E-2,1.3580345E-1,-3.6018997E-2,-4.838754E-2,-2.403176E-2,-5.7766805E-3,2.815548E-1,1.9711394E-2,5.101372E-2,9.710979E-2,-3.0290626E-3,1.4084525E-2],"categories":[],"categories_nodes":[],"categories_segments":[],"categories_sizes":[],"default_left":[0,0,0,0,0,0,0,0,0,0,0,0,0,0,0,0,0,0,0,0,0,0,0,0,0,0,0,0,0],"id":12,"left_children":[1,3,5,7,9,11,13,15,17,19,-1,21,23,25,27,-1,-1,-1,-1,-1,-1,-1,-1,-1,-1,-1,-1,-1,-1],"loss_changes":[6.1138306E1,2.5994385E1,1.5394784E1,1.4082581E1,6.5039062E0,1.2126036E1,5.9607906E0,1.3347107E1,3.688726E1,3.8192139E0,0E0,4.320091E0,1.9847195E1,1.242609E0,1.5359744E-1,0E0,0E0,0E0,0E0,0E0,0E0,0E0,0E0,0E0,0E0,0E0,0E0,0E0,0E0],"parents":[2147483647,0,0,1,1,2,2,3,3,4,4,5,5,6,6,7,7,8,8,9,9,11,11,12,12,13,13,14,14],"right_children":[2,4,6,8,10,12,14,16,18,20,-1,22,24,26,28,-1,-1,-1,-1,-1,-1,-1,-1,-1,-1,-1,-1,-1,-1],"split_conditions":[9.350961E-1,1.6529499E0,2.1857088E0,-3.1551662E-1,5.15441E0,1.6322552E-1,1.6529499E0,-8.0403674E-1,2.492445E0,2.7414075E-1,-9.90383E-2,-8.350114E-1,-8.0403674E-1,-5.8604907E-2,-8.350114E-1,-4.3506783E-2,-2.740328E-2,-2.1558909E-2,1.3580345E-1,-3.6018997E-2,-4.838754E-2,-2.403176E-2,-5.7766805E-3,2.815548E-1,1.9711394E-2,5.101372E-2,9.710979E-2,-3.0290626E-3,1.4084525E-2],"split_indices":[2,0,2,2,1,1,0,0,1,1,0,1,0,1,1,0,0,0,0,0,0,0,0,0,0,0,0,0,0],"split_type":[0,0,0,0,0,0,0,0,0,0,0,0,0,0,0,0,0,0,0,0,0,0,0,0,0,0,0,0,0],"sum_hessian":[7.952E3,7.006E3,9.46E2,5.942E3,1.064E3,8.68E2,7.8E1,3.346E3,2.596E3,1.044E3,2E1,7.74E2,9.4E1,5.2E1,2.6E1,6.4E2,2.706E3,2.582E3,1.4E1,5.4E2,5.04E2,1.64E2,6.1E2,2E0,9.2E1,4.4E1,8E0,2E1,6E0],"tree_param":{"num_deleted":"0","num_feature":"3","num_nodes":"29","size_leaf_vector":"1"}},{"base_weights":[-2.30863E-1,-2.7667335E-1,-8.808769E-2,-2.4719842E-1,-3.7522793E-1,-1.3392614E-1,1.4024192E-1,-3.5546193E-1,-2.2182004E-1,-3.3385447E-1,-5.2256835E-1,-2.0045798E-1,-4.6774875E-2,3.59482E-2,5.382008E-1,-3.1752177E-2,-5.3577352E-2,-2.6883204E-2,-2.0444604E-2,-2.600277E-2,-3.5241645E-2,-6.281903E-2,-3.982584E-2,-1.6518692E-2,-3.242255E-2,3.0213302E-1,-8.678383E-3,-5.7432167E-3,1.855596E-2,4.7341917E-2,1.246809E-1],"categories":[],"categories_nodes":[],"categories_segments":[],"categories_sizes":[],"default_left":[0,0,0,0,0,0,0,0,0,0,0,0,0,0,0,0,0,0,0,0,0,0,0,0,0,0,0,0,0,0,0],"id":13,"left_children":[1,3,5,7,9,11,13,15,17,19,21,23,25,27,29,-1,-1,-1,-1,-1,-1,-1,-1,-1,-1,-1,-1,-1,-1,-1,-1],"loss_changes":[5.1875183E1,1.7356903E1,2.0208225E1,1.2634094E1,8.24408E0,9.308548E0,1.3386641E1,5.829483E0,3.0088043E0,1.3897247E0,3.701912E0,3.9233322E0,8.5820114E1,3.6011448E0,2.4853573E0,0E0,0E0,0E0,0E0,0E0,0E0,0E0,0E0,0E0,0E0,0E0,0E0,0E0,0E0,0E0,0E0],"parents":[2147483647,0,0,1,1,2,2,3,3,4,4,5,5,6,6,7,7,8,8,9,9,10,10,11,11,12,12,13,13,14,14],"right_children":[2,4,6,8,10,12,14,16,18,20,22,24,26,28,30,-1,-1,-1,-1,-1,-1,-1,-1,-1,-1,-1,-1,-1,-1,-1,-1],"split_conditions":[3.0978975E-1,5.609559E-1,1.5604025E0,-8.0403674E-1,7.178016E-1,-2.8043532E-1,-2.8043532E-1,1.1614624E0,-5.310382E-1,-6.13181E-1,-7.657372E-1,1.6529499E0,-8.0403674E-1,-6.13181E-1,7.178016E-1,-3.1752177E-2,-5.3577352E-2,-2.6883204E-2,-2.0444604E-2,-2.600277E-2,-3.5241645E-2,-6.281903E-2,-3.982584E-2,-1.6518692E-2,-3.242255E-2,3.0213302E-1,-8.678383E-3,-5.7432167E-3,1.855596E-2,4.7341917E-2,1.246809E-1],"split_indices":[2,0,2,0,1,1,1,1,0,1,2,0,0,1,1,0,0,0,0,0,0,0,0,0,0,0,0,0,0,0,0],"split_type":[0,0,0,0,0,0,0,0,0,0,0,0,0,0,0,0,0,0,0,0,0,0,0,0,0,0,0,0,0,0,0],"sum_hessian":[7.934E3,6.006E3,1.928E3,4.626E3,1.38E3,1.606E3,3.22E2,8.76E2,3.75E3,1.08E3,3E2,9.1E2,6.96E2,2.56E2,6.6E1,7.26E2,1.5E2,1.008E3,2.742E3,2.2E2,8.6E2,1.6E2,1.4E2,7.1E2,2E2,8E0,6.88E2,1.58E2,9.8E1,6.2E1,4E0],"tree_param":{"num_deleted":"0","num_feature":"3","num_nodes":"31","size_leaf_vector":"1"}},{"base_weights":[-2.097612E-1,-2.3586285E-1,-1.0316029E-2,-2.1481249E-1,-3.5204098E-1,-4.4357125E-2,3.487542E-1,-2.4874705E-1,-1.7006464E-1,-3.4197393E-1,-8.362333E-2,-9.44405E-2,1.7532653E-1,5.1270884E-1,1.4000509E-2,-2.3189383E-2,-4.4549033E-2,-1.7592652E-2,1.4999245E-1,-2.9197294E-2,-3.9486215E-2,-5.3590806E-3,-2.0486595E-2,2.4264228E-1,1.30041465E-2,4.3531783E-2,8.426964E-2,-2.19361E-3,1.1981026E-2],"categories":[],"categories_nodes":[],"categories_segments":[],"categories_sizes":[],"default_left":[0,0,0,0,0,0,0,0,0,0,0,0,0,0,0,0,0,0,0,0,0,0,0,0,0,0,0,0,0],"id":14,"left_children":[1,3,5,7,9,11,13,15,17,19,-1,21,23,25,27,-1,-1,-1,-1,-1,-1,-1,-1,-1,-1,-1,-1,-1,-1],"loss_changes":[4.0931152E1,1.6928589E1,1.1150755E1,8.900116E0,4.9052734E0,9.181639E0,4.3286905E0,1.0994537E1,2.5157967E1,2.6481705E0,0E0,3.0518856E0,1.5485327E1,9.8667717E-1,1.05294146E-1,0E0,0E0,0E0,0E0,0E0,0E0,0E0,0E0,0E0,0E0,0E0,0E0,0E0,0E0],"parents":[2147483647,0,0,1,1,2,2,3,3,4,4,5,5,6,6,7,7,8,8,9,9,11,11,12,12,13,13,14,14],"right_children":[2,4,6,8,10,12,14,16,18,20,-1,22,24,26,28,-1,-1,-1,-1,-1,-1,-1,-1,-1,-1,-1,-1,-1,-1],"split_conditions":[9.350961E-1,1.6529499E0,2.1857088E0,-3.1551662E-1,5.15441E0,-5.8604907E-2,1.6529499E0,1.1614624E0,3.2688515E0,2.7414075E-1,-8.362333E-2,2.744944E0,-8.0403674E-1,-5.8604907E-2,-8.350114E-1,-2.3189383E-2,-4.4549033E-2,-1.7592652E-2,1.4999245E-1,-2.9197294E-2,-3.9486215E-2,-5.3590806E-3,-2.0486595E-2,2.4264228E-1,1.30041465E-2,4.3531783E-2,8.426964E-2,-2.19361E-3,1.1981026E-2],"split_indices":[2,0,2,2,1,1,0,1,1,1,0,0,0,1,1,0,0,0,0,0,0,0,0,0,0,0,0,0,0],"split_type":[0,0,0,0,0,0,0,0,0,0,0,0,0,0,0,0,0,0,0,0,0,0,0,0,0,0,0,0,0],"sum_hessian":[7.862E3,6.952E3,9.1E2,5.888E3,1.064E3,8.32E2,7.8E1,3.346E3,2.542E3,1.044E3,2E1,6.78E2,1.54E2,5.2E1,2.6E1,3.084E3,2.62E2,2.534E3,8E0,5.4E2,5.04E2,4.96E2,1.82E2,2E0,1.52E2,4.4E1,8E0,2E1,6E0],"tree_param":{"num_deleted":"0","num_feature":"3","num_nodes":"29","size_leaf_vector":"1"}},{"base_weights":[-1.8933745E-1,-2.2716539E-1,-7.027825E-2,-2.0281254E-1,-3.0764213E-1,-1.1133688E-1,1.16919205E-1,-2.606868E-1,-1.6346855E-1,-2.7919096E-1,-4.5571536E-1,-1.7296016E-1,-3.1761467E-2,-1.1969367E-2,3.4545317E-1,-2.443922E-2,-4.4230178E-2,-1.8191157E-2,-1.4734055E-2,-2.0826522E-2,-2.9555162E-2,-5.6168508E-2,-3.2424953E-2,-4.181893E-2,-1.6071184E-2,2.7105755E-1,-6.849659E-3,-8.177846E-3,5.1873443E-3,4.453365E-2,3.4659442E-3],"categories":[],"categories_nodes":[],"categories_segments":[],"categories_sizes":[],"default_left":[0,0,0,0,0,0,0,0,0,0,0,0,0,0,0,0,0,0,0,0,0,0,0,0,0,0,0,0,0,0,0],"id":15,"left_children":[1,3,5,7,9,11,13,15,17,19,21,23,25,27,29,-1,-1,-1,-1,-1,-1,-1,-1,-1,-1,-1,-1,-1,-1,-1,-1],"loss_changes":[3.531607E1,1.1604492E1,1.4562752E1,1.0370132E1,5.6907196E0,7.609951E0,1.0048431E1,5.3637238E0,7.837448E-1,1.2856598E0,2.8967133E0,2.5609837E0,6.858819E1,9.8028314E-1,3.8028688E0,0E0,0E0,0E0,0E0,0E0,0E0,0E0,0E0,0E0,0E0,0E0,0E0,0E0,0E0,0E0,0E0],"parents":[2147483647,0,0,1,1,2,2,3,3,4,4,5,5,6,6,7,7,8,8,9,9,10,10,11,11,12,12,13,13,14,14],"right_children":[2,4,6,8,10,12,14,16,18,20,22,24,26,28,30,-1,-1,-1,-1,-1,-1,-1,-1,-1,-1,-1,-1,-1,-1,-1,-1],"split_conditions":[3.0978975E-1,5.609559E-1,1.5604025E0,-5.310382E-1,1.6051233E0,-2.8043532E-1,-5.0226575E-1,1.1614624E0,-7.657372E-1,-6.13181E-1,-7.657372E-1,-8.0403674E-1,-8.0403674E-1,-8.350114E-1,1.6529499E0,-2.443922E-2,-4.4230178E-2,-1.8191157E-2,-1.4734055E-2,-2.0826522E-2,-2.9555162E-2,-5.6168508E-2,-3.2424953E-2,-4.181893E-2,-1.6071184E-2,2.7105755E-1,-6.849659E-3,-8.177846E-3,5.1873443E-3,4.453365E-2,3.4659442E-3],"split_indices":[2,0,2,0,1,1,1,1,2,1,2,0,0,1,0,0,0,0,0,0,0,0,0,0,0,0,0,0,0,0,0],"split_type":[0,0,0,0,0,0,0,0,0,0,0,0,0,0,0,0,0,0,0,0,0,0,0,0,0,0,0,0,0,0,0],"sum_hessian":[7.844E3,5.952E3,1.892E3,4.572E3,1.38E3,1.552E3,3.4E2,1.848E3,2.724E3,1.16E3,2.2E2,8.74E2,6.78E2,2.18E2,1.22E2,1.698E3,1.5E2,1.266E3,1.458E3,2.2E2,9.4E2,1.2E2,1E2,4E1,8.34E2,8E0,6.7E2,1.04E2,1.14E2,9.2E1,3E1],"tree_param":{"num_deleted":"0","num_feature":"3","num_nodes":"31","size_leaf_vector":"1"}},{"base_weights":[-1.7285821E-1,-1.9512707E-1,-5.786504E-3,-1.7793728E-1,-2.8796235E-1,-4.891436E-2,1.6842481E-1,-2.617109E-1,-1.6306907E-1,-2.7934432E-1,-7.030981E-2,-8.115308E-2,1.8455094E-1,2.0839565E-1,1.3538001E-1,-2.7927002E-2,2.9491583E-2,-1.7987011E-2,-1.1658953E-2,-1.8477166E-2,-2.9881058E-2,-4.318103E-3,-1.7636599E-2,-1.5738389E-3,3.4837365E-2,3.1956004E-3,5.3144097E-2],"categories":[],"categories_nodes":[],"categories_segments":[],"categories_sizes":[],"default_left":[0,0,0,0,0,0,0,0,0,0,0,0,0,0,0,0,0,0,0,0,0,0,0,0,0,0,0],"id":16,"left_children":[1,3,5,7,9,11,13,15,17,19,-1,21,23,-1,25,-1,-1,-1,-1,-1,-1,-1,-1,-1,-1,-1,-1],"loss_changes":[2.8784348E1,1.0843414E1,6.8529105E0,7.1355133E0,3.6137848E0,5.516938E0,1.1174877E1,8.556313E0,3.8031158E0,1.8686066E0,0E0,2.3171053E0,2.9257452E0,0E0,7.3152533E0,0E0,0E0,0E0,0E0,0E0,0E0,0E0,0E0,0E0,0E0,0E0,0E0],"parents":[2147483647,0,0,1,1,2,2,3,3,4,4,5,5,6,6,7,7,8,8,9,9,11,11,12,12,14,14],"right_children":[2,4,6,8,10,12,14,16,18,20,-1,22,24,-1,26,-1,-1,-1,-1,-1,-1,-1,-1,-1,-1,-1,-1],"split_conditions":[9.350961E-1,1.6529499E0,-5.8604907E-2,-8.0403674E-1,5.15441E0,2.1857088E0,-8.0403674E-1,3.0978975E-1,3.4654945E-2,-6.13181E-1,-7.030981E-2,2.744944E0,-8.350114E-1,2.0839565E-1,1.5604025E0,-2.7927002E-2,2.9491583E-2,-1.7987011E-2,-1.1658953E-2,-1.8477166E-2,-2.9881058E-2,-4.318103E-3,-1.7636599E-2,-1.5738389E-3,3.4837365E-2,3.1956004E-3,5.3144097E-2],"split_indices":[2,0,1,0,1,2,0,2,2,1,0,0,1,0,2,0,0,0,0,0,0,0,0,0,0,0,0],"split_type":[0,0,0,0,0,0,0,0,0,0,0,0,0,0,0,0,0,0,0,0,0,0,0,0,0,0,0],"sum_hessian":[7.736E3,6.826E3,9.1E2,5.762E3,1.064E3,7.3E2,1.8E2,8.66E2,4.896E3,1.044E3,2E1,6.42E2,8.8E1,2E0,1.78E2,8.4E2,2.6E1,3.594E3,1.302E3,1.8E2,8.64E2,4.6E2,1.82E2,4E1,4.8E1,1.42E2,3.6E1],"tree_param":{"num_deleted":"0","num_feature":"3","num_nodes":"27","size_leaf_vector":"1"}},{"base_weights":[-1.5593882E-1,-1.7612329E-1,-4.9048364E-3,-1.5419634E-1,-2.3775177E-1,-6.812298E-2,1.009675E-1,-2.0212874E-1,-1.2291005E-1,-2.190317E-1,-3.545267E-1,-1.0968062E-1,9.06479E-2,-6.200698E-3,2.909583E-1,-2.7276147E-2,-1.55716045E-2,-1.36713805E-2,-8.191336E-3,-2.369823E-2,-1.8129598E-2,-4.696643E-2,-2.4023732E-2,-7.635344E-3,-2.2507485E-2,1.0294291E-1,-4.923112E-4,-6.791008E-3,5.0196573E-3,2.5557263E-2,1.07494585E-1],"categories":[],"categories_nodes":[],"categories_segments":[],"categories_sizes":[],"default_left":[0,0,0,0,0,0,0,0,0,0,0,0,0,0,0,0,0,0,0,0,0,0,0,0,0,0,0,0,0,0,0],"id":17,"left_children":[1,3,5,7,9,11,13,15,17,19,21,23,25,27,29,-1,-1,-1,-1,-1,-1,-1,-1,-1,-1,-1,-1,-1,-1,-1,-1],"loss_changes":[2.3530807E1,9.164505E0,6.104249E0,7.510788E0,3.824417E0,3.7774823E0,6.9448943E0,6.4582977E0,1.7108612E0,1.0008774E0,3.111126E0,1.724946E0,1.068178E1,7.655816E-1,3.1375322E0,0E0,0E0,0E0,0E0,0E0,0E0,0E0,0E0,0E0,0E0,0E0,0E0,0E0,0E0,0E0,0E0],"parents":[2147483647,0,0,1,1,2,2,3,3,4,4,5,5,6,6,7,7,8,8,9,9,10,10,11,11,12,12,13,13,14,14],"right_children":[2,4,6,8,10,12,14,16,18,20,22,24,26,28,30,-1,-1,-1,-1,-1,-1,-1,-1,-1,-1,-1,-1,-1,-1,-1,-1],"split_conditions":[9.350961E-1,5.609559E-1,1.5604025E0,-5.310382E-1,1.6051233E0,5.2310307E-2,-5.0226575E-1,-7.657372E-1,3.4654945E-2,3.4654945E-2,-7.657372E-1,1.6529499E0,-2.580397E-1,-8.350114E-1,7.178016E-1,-2.7276147E-2,-1.55716045E-2,-1.36713805E-2,-8.191336E-3,-2.369823E-2,-1.8129598E-2,-4.696643E-2,-2.4023732E-2,-7.635344E-3,-2.2507485E-2,1.0294291E-1,-4.923112E-4,-6.791008E-3,5.0196573E-3,2.5557263E-2,1.07494585E-1],"split_indices":[2,0,2,0,1,1,1,2,2,2,2,0,0,1,1,0,0,0,0,0,0,0,0,0,0,0,0,0,0,0,0],"split_type":[0,0,0,0,0,0,0,0,0,0,0,0,0,0,0,0,0,0,0,0,0,0,0,0,0,0,0,0,0,0,0],"sum_hessian":[7.718E3,6.808E3,9.1E2,5.024E3,1.784E3,5.7E2,3.4E2,1.982E3,3.042E3,1.54E3,2.44E2,4.52E2,1.18E2,2.18E2,1.22E2,7.84E2,1.198E3,2.274E3,7.68E2,1.04E3,5E2,1.2E2,1.24E2,3.52E2,1E2,1E1,1.08E2,1.04E2,1.14E2,1.18E2,4E0],"tree_param":{"num_deleted":"0","num_feature":"3","num_nodes":"31","size_leaf_vector":"1"}},{"base_weights":[-1.421698E-1,-1.5306692E-1,9.117709E-2,-1.7001484E-1,-8.546023E-2,2.5698164E-2,3.5857305E-1,-1.5884301E-1,-2.7023137E-1,-1.1586205E-1,5.3695846E-2,1.2986344E-1,-4.2443838E-2,3.0285147E-1,9.8895013E-1,-1.4701933E-2,-2.0220952E-2,-3.5467174E-2,-8.073027E-3,-3.783497E-2,-1.0649267E-2,2.3911689E-1,-2.9013776E-3,-7.2141774E-3,2.7850443E-2,-6.062409E-3,8.1920467E-4,1.8868944E-2,4.931903E-2,1.602326E-1,4.5924187E-3],"categories":[],"categories_nodes":[],"categories_segments":[],"categories_sizes":[],"default_left":[0,0,0,0,0,0,0,0,0,0,0,0,0,0,0,0,0,0,0,0,0,0,0,0,0,0,0,0,0,0,0],"id":18,"left_children":[1,3,5,7,9,11,13,15,17,19,21,23,25,27,29,-1,-1,-1,-1,-1,-1,-1,-1,-1,-1,-1,-1,-1,-1,-1,-1],"loss_changes":[1.941307E1,8.337143E0,5.9612865E0,6.4809875E0,6.195587E0,1.9574703E0,2.0539093E0,2.659668E0,9.300262E0,2.9133835E0,5.091557E1,3.2929535E0,1.5423232E-1,1.275897E0,2.818562E0,0E0,0E0,0E0,0E0,0E0,0E0,0E0,0E0,0E0,0E0,0E0,0E0,0E0,0E0,0E0,0E0],"parents":[2147483647,0,0,1,1,2,2,3,3,4,4,5,5,6,6,7,7,8,8,9,9,10,10,11,11,12,12,13,13,14,14],"right_children":[2,4,6,8,10,12,14,16,18,20,22,24,26,28,30,-1,-1,-1,-1,-1,-1,-1,-1,-1,-1,-1,-1,-1,-1,-1,-1],"split_conditions":[1.5604025E0,3.0978975E-1,-2.8043532E-1,1.3832929E0,1.6322552E-1,1.6529499E0,7.178016E-1,5.609559E-1,-7.657372E-1,-8.0403674E-1,-8.0403674E-1,-8.350114E-1,2.1857088E0,2.1857088E0,5.609559E-1,-1.4701933E-2,-2.0220952E-2,-3.5467174E-2,-8.073027E-3,-3.783497E-2,-1.0649267E-2,2.3911689E-1,-2.9013776E-3,-7.2141774E-3,2.7850443E-2,-6.062409E-3,8.1920467E-4,1.8868944E-2,4.931903E-2,1.602326E-1,4.5924187E-3],"split_indices":[2,2,1,1,1,0,1,0,2,0,0,1,2,2,0,0,0,0,0,0,0,0,0,0,0,0,0,0,0,0,0],"split_type":[0,0,0,0,0,0,0,0,0,0,0,0,0,0,0,0,0,0,0,0,0,0,0,0,0,0,0,0,0,0,0],"sum_hessian":[7.628E3,7.288E3,3.4E2,5.826E3,1.462E3,2.74E2,6.6E1,5.244E3,5.82E2,1.2E3,2.62E2,1.08E2,1.66E2,6.2E1,4E0,4.124E3,1.12E3,4.02E2,1.8E2,4E1,1.16E3,8E0,2.54E2,4.6E1,6.2E1,1.22E2,4.4E1,4E1,2.2E1,2E0,2E0],"tree_param":{"num_deleted":"0","num_feature":"3","num_nodes":"31","size_leaf_vector":"1"}},{"base_weights":[-1.2916791E-1,-1.3949716E-1,7.8323476E-2,-1.2492194E-1,-2.1321355E-1,3.0364336E-2,3.673637E-1,-1.4127359E-1,-5.2166153E-2,-2.0683315E-1,-5.5762827E-2,1.1025966E-1,-3.8230848E-2,3.0043504E-1,9.230202E-1,-2.2288522E-2,-1.2523494E-2,-8.117289E-3,7.025739E-2,-2.33404E-2,-1.5989441E-2,-6.5081078E-3,1.9408187E-2,-5.4610963E-3,7.391045E-4,1.9025935E-2,5.227926E-2,1.4955044E-1,4.2862576E-3],"categories":[],"categories_nodes":[],"categories_segments":[],"categories_sizes":[],"default_left":[0,0,0,0,0,0,0,0,0,0,0,0,0,0,0,0,0,0,0,0,0,0,0,0,0,0,0,0,0],"id":19,"left_children":[1,3,5,7,9,11,13,15,17,19,-1,21,23,25,27,-1,-1,-1,-1,-1,-1,-1,-1,-1,-1,-1,-1,-1,-1],"loss_changes":[1.6207329E1,7.708206E0,4.9653463E0,7.1461487E0,2.4930954E0,1.6976695E0,1.6193476E0,6.3976746E0,2.4248291E1,1.4181633E0,0E0,2.1143663E0,1.2520137E-1,1.0519586E0,2.4552803E0,0E0,0E0,0E0,0E0,0E0,0E0,0E0,0E0,0E0,0E0,0E0,0E0,0E0,0E0],"parents":[2147483647,0,0,1,1,2,2,3,3,4,4,5,5,6,6,7,7,8,8,9,9,11,11,12,12,13,13,14,14],"right_children":[2,4,6,8,10,12,14,16,18,20,-1,22,24,26,28,-1,-1,-1,-1,-1,-1,-1,-1,-1,-1,-1,-1,-1,-1],"split_conditions":[1.5604025E0,1.6529499E0,-1.6952012E-1,3.0978975E-1,5.15441E0,1.6529499E0,7.178016E-1,-8.0403674E-1,7.178016E-1,3.4654945E-2,-5.5762827E-2,-8.350114E-1,2.1857088E0,2.1857088E0,5.609559E-1,-2.2288522E-2,-1.2523494E-2,-8.117289E-3,7.025739E-2,-2.33404E-2,-1.5989441E-2,-6.5081078E-3,1.9408187E-2,-5.4610963E-3,7.391045E-4,1.9025935E-2,5.227926E-2,1.4955044E-1,4.2862576E-3],"split_indices":[2,0,1,2,1,0,1,0,1,2,0,1,2,2,0,0,0,0,0,0,0,0,0,0,0,0,0,0,0],"split_type":[0,0,0,0,0,0,0,0,0,0,0,0,0,0,0,0,0,0,0,0,0,0,0,0,0,0,0,0,0],"sum_hessian":[7.556E3,7.198E3,3.58E2,6.012E3,1.186E3,3.08E2,5E1,4.908E3,1.104E3,1.166E3,2E1,1.42E2,1.66E2,4.6E1,4E0,8.04E2,4.104E3,1.064E3,4E1,7.42E2,4.24E2,4.6E1,9.6E1,1.22E2,4.4E1,3.2E1,1.4E1,2E0,2E0],"tree_param":{"num_deleted":"0","num_feature":"3","num_nodes":"29","size_leaf_vector":"1"}},{"base_weights":[-1.1751625E-1,-1.3267553E-1,-1.2019363E-4,-1.1521614E-1,-1.8065082E-1,-4.1607235E-2,1.1946064E-1,-1.5742247E-1,-8.786379E-2,-1.6563751E-1,-2.7324104E-1,-1.00609735E-1,2.8892683E-2,1.6701478E-1,9.767287E-2,-2.1563996E-2,-1.182869E-2,-9.872123E-3,-5.5897376E-3,-1.7820654E-2,-1.39642E-2,-3.594054E-2,-1.8764801E-2,-3.0013194E-2,-8.748871E-3,1.1326871E-2,-3.4436036E-3,2.546286E-3,3.3504188E-2],"categories":[],"categories_nodes":[],"categories_segments":[],"categories_sizes":[],"default_left":[0,0,0,0,0,0,0,0,0,0,0,0,0,0,0,0,0,0,0,0,0,0,0,0,0,0,0,0,0],"id":20,"left_children":[1,3,5,7,9,11,13,15,17,19,21,23,25,-1,27,-1,-1,-1,-1,-1,-1,-1,-1,-1,-1,-1,-1,-1,-1],"loss_changes":[1.3320595E1,5.5317535E0,4.2565947E0,5.6002274E0,2.4110184E0,2.6526175E0,7.3035808E0,4.328472E0,1.0193882E0,4.7273636E-1,1.7394505E0,8.821659E-1,1.5588373E0,0E0,3.7452202E0,0E0,0E0,0E0,0E0,0E0,0E0,0E0,0E0,0E0,0E0,0E0,0E0,0E0,0E0],"parents":[2147483647,0,0,1,1,2,2,3,3,4,4,5,5,6,6,7,7,8,8,9,9,10,10,11,11,12,12,14,14],"right_children":[2,4,6,8,10,12,14,16,18,20,22,24,26,-1,28,-1,-1,-1,-1,-1,-1,-1,-1,-1,-1,-1,-1,-1,-1],"split_conditions":[9.350961E-1,5.609559E-1,-1.6952012E-1,-5.310382E-1,1.6051233E0,1.5604025E0,-8.0403674E-1,-7.657372E-1,3.4654945E-2,3.4654945E-2,-7.657372E-1,-8.0403674E-1,1.6529499E0,1.6701478E-1,1.5604025E0,-2.1563996E-2,-1.182869E-2,-9.872123E-3,-5.5897376E-3,-1.7820654E-2,-1.39642E-2,-3.594054E-2,-1.8764801E-2,-3.0013194E-2,-8.748871E-3,1.1326871E-2,-3.4436036E-3,2.546286E-3,3.3504188E-2],"split_indices":[2,0,1,0,1,2,0,2,2,2,2,0,0,0,2,0,0,0,0,0,0,0,0,0,0,0,0,0,0],"split_type":[0,0,0,0,0,0,0,0,0,0,0,0,0,0,0,0,0,0,0,0,0,0,0,0,0,0,0,0,0],"sum_hessian":[7.484E3,6.628E3,8.56E2,4.862E3,1.766E3,6.36E2,2.2E2,1.91E3,2.952E3,1.522E3,2.44E2,3.46E2,2.9E2,2E0,2.18E2,7.66E2,1.144E3,2.202E3,7.5E2,1.022E3,5E2,1.2E2,1.24E2,2E1,3.26E2,1.24E2,1.66E2,1.68E2,5E1],"tree_param":{"num_deleted":"0","num_feature":"3","num_nodes":"29","size_leaf_vector":"1"}},{"base_weights":[-1.056378E-1,-1.1976435E-1,-9.387373E-4,-1.0410457E-1,-1.6263469E-1,-9.5507085E-2,4.331893E-2,-1.748801E-1,-8.981134E-2,-1.4158861E-1,-2.1797378E-1,-2.2175652E-1,-7.398981E-2,1.5588045E-1,3.575752E-2,-1.8951548E-2,2.5819087E-2,-1.0011593E-2,-5.807909E-3,-1.2976971E-2,-1.873708E-2,-2.8882114E-2,-1.5806722E-2,-2.7154792E-2,-1.614053E-2,-1.150231E-2,-1.6302912E-3,1.5015642E-2,-2.7823858E-3],"categories":[],"categories_nodes":[],"categories_segments":[],"categories_sizes":[],"default_left":[0,0,0,0,0,0,0,0,0,0,0,0,0,0,0,0,0,0,0,0,0,0,0,0,0,0,0,0,0],"id":21,"left_children":[1,3,5,7,9,11,13,15,17,19,21,23,25,-1,27,-1,-1,-1,-1,-1,-1,-1,-1,-1,-1,-1,-1,-1,-1],"loss_changes":[1.1097099E1,4.421295E0,3.7416766E0,4.8855476E0,2.027111E0,7.578075E-1,6.922918E0,5.201851E0,1.3129272E0,6.6991043E-1,2.0127945E0,7.937455E-2,5.7806027E-1,0E0,4.419277E0,0E0,0E0,0E0,0E0,0E0,0E0,0E0,0E0,0E0,0E0,0E0,0E0,0E0,0E0],"parents":[2147483647,0,0,1,1,2,2,3,3,4,4,5,5,6,6,7,7,8,8,9,9,10,10,11,11,12,12,14,14],"right_children":[2,4,6,8,10,12,14,16,18,20,22,24,26,-1,28,-1,-1,-1,-1,-1,-1,-1,-1,-1,-1,-1,-1,-1,-1],"split_conditions":[9.350961E-1,5.609559E-1,-6.13181E-1,-8.0403674E-1,4.9597114E-1,-8.0403674E-1,-8.0403674E-1,3.0978975E-1,3.4654945E-2,2.744944E0,-3.1551662E-1,1.5604025E0,1.5604025E0,1.5588045E-1,5.609559E-1,-1.8951548E-2,2.5819087E-2,-1.0011593E-2,-5.807909E-3,-1.2976971E-2,-1.873708E-2,-2.8882114E-2,-1.5806722E-2,-2.7154792E-2,-1.614053E-2,-1.150231E-2,-1.6302912E-3,1.5015642E-2,-2.7823858E-3],"split_indices":[2,0,1,0,1,0,0,2,2,0,2,2,2,0,0,0,0,0,0,0,0,0,0,0,0,0,0,0,0],"split_type":[0,0,0,0,0,0,0,0,0,0,0,0,0,0,0,0,0,0,0,0,0,0,0,0,0,0,0,0,0],"sum_hessian":[7.502E3,6.61E3,8.92E2,4.844E3,1.766E3,2.84E2,6.08E2,8.12E2,4.032E3,1.282E3,4.84E2,4E1,2.44E2,2E0,6.06E2,7.86E2,2.6E1,3.042E3,9.9E2,1.022E3,2.6E2,2.2E2,2.64E2,2E1,2E1,1.42E2,1.02E2,2.16E2,3.9E2],"tree_param":{"num_deleted":"0","num_feature":"3","num_nodes":"29","size_leaf_vector":"1"}},{"base_weights":[-9.579994E-2,-1.0368341E-1,6.018199E-2,-9.274766E-2,-1.5799844E-1,4.917293E-2,8.297888E-1,-1.05676465E-1,-3.534503E-2,-1.5273836E-1,-4.4278484E-2,1.0371101E-1,-4.0472165E-2,1.3634576E-1,1.9523859E-3,-1.7487807E-2,-9.251386E-3,-6.183605E-3,4.272754E-2,-1.7114624E-2,-1.201977E-2,-6.2027136E-3,1.476309E-2,-5.442854E-3,1.7369218E-3],"categories":[],"categories_nodes":[],"categories_segments":[],"categories_sizes":[],"default_left":[0,0,0,0,0,0,0,0,0,0,0,0,0,0,0,0,0,0,0,0,0,0,0,0,0],"id":22,"left_children":[1,3,5,7,9,11,13,15,17,19,-1,21,23,-1,-1,-1,-1,-1,-1,-1,-1,-1,-1,-1,-1],"loss_changes":[9.166122E0,4.197235E0,3.0008774E0,4.378643E0,1.710495E0,1.7398176E0,2.135445E0,4.3733177E0,1.3347919E1,6.784668E-1,0E0,1.6178608E0,1.09925E-1,0E0,0E0,0E0,0E0,0E0,0E0,0E0,0E0,0E0,0E0,0E0,0E0],"parents":[2147483647,0,0,1,1,2,2,3,3,4,4,5,5,6,6,7,7,8,8,9,9,11,11,12,12],"right_children":[2,4,6,8,10,12,14,16,18,20,-1,22,24,-1,-1,-1,-1,-1,-1,-1,-1,-1,-1,-1,-1],"split_conditions":[1.5604025E0,1.6529499E0,7.178016E-1,3.0978975E-1,5.15441E0,1.6529499E0,5.609559E-1,-8.0403674E-1,7.178016E-1,3.4654945E-2,-4.4278484E-2,-8.350114E-1,2.1857088E0,1.3634576E-1,1.9523859E-3,-1.7487807E-2,-9.251386E-3,-6.183605E-3,4.272754E-2,-1.7114624E-2,-1.201977E-2,-6.2027136E-3,1.476309E-2,-5.442854E-3,1.7369218E-3],"split_indices":[2,0,1,2,1,0,0,0,1,2,0,1,2,0,0,0,0,0,0,0,0,0,0,0,0],"split_type":[0,0,0,0,0,0,0,0,0,0,0,0,0,0,0,0,0,0,0,0,0,0,0,0,0],"sum_hessian":[7.448E3,7.09E3,3.58E2,5.904E3,1.186E3,3.54E2,4E0,4.818E3,1.086E3,1.166E3,2E1,2.2E2,1.34E2,2E0,2E0,7.68E2,4.05E3,1.028E3,5.8E1,7.42E2,4.24E2,4.6E1,1.74E2,1.08E2,2.6E1],"tree_param":{"num_deleted":"0","num_feature":"3","num_nodes":"25","size_leaf_vector":"1"}},{"base_weights":[-8.8722974E-2,-9.6172675E-2,5.4562535E-2,-8.538529E-2,-1.5199697E-1,4.42693E-2,7.744695E-1,-1.4506802E-1,-7.579447E-2,-2.0697367E-1,-1.2463633E-1,2.5258788E-3,1.5527216E-1,1.2725602E-1,1.8222252E-3,-2.4052512E-2,-7.808193E-3,-8.071854E-3,1.033835E-4,-1.7458025E-2,-2.9119998E-2,-1.1386967E-2,-1.4021128E-2,-1.0934399E-2,2.719892E-3,-1.7204227E-4,2.6547259E-2],"categories":[],"categories_nodes":[],"categories_segments":[],"categories_sizes":[],"default_left":[0,0,0,0,0,0,0,0,0,0,0,0,0,0,0,0,0,0,0,0,0,0,0,0,0,0,0],"id":23,"left_children":[1,3,5,7,9,11,13,15,17,19,21,23,25,-1,-1,-1,-1,-1,-1,-1,-1,-1,-1,-1,-1,-1,-1],"loss_changes":[7.7452087E0,4.137974E0,2.625966E0,3.2969437E0,1.6513824E0,1.6445498E0,1.86021E0,5.0902615E0,1.8844318E0,9.559345E-1,1.09298706E-1,7.178581E-1,1.6786191E0,0E0,0E0,0E0,0E0,0E0,0E0,0E0,0E0,0E0,0E0,0E0,0E0,0E0,0E0],"parents":[2147483647,0,0,1,1,2,2,3,3,4,4,5,5,6,6,7,7,8,8,9,9,10,10,11,11,12,12],"right_children":[2,4,6,8,10,12,14,16,18,20,22,24,26,-1,-1,-1,-1,-1,-1,-1,-1,-1,-1,-1,-1,-1,-1],"split_conditions":[1.5604025E0,1.6529499E0,7.178016E-1,-8.0403674E-1,-7.657372E-1,2.1857088E0,5.609559E-1,-7.657372E-1,9.350961E-1,2.0487843E0,2.744944E0,-8.350114E-1,-8.350114E-1,1.2725602E-1,1.8222252E-3,-2.4052512E-2,-7.808193E-3,-8.071854E-3,1.033835E-4,-1.7458025E-2,-2.9119998E-2,-1.1386967E-2,-1.4021128E-2,-1.0934399E-2,2.719892E-3,-1.7204227E-4,2.6547259E-2],"split_indices":[2,0,1,0,2,2,0,2,2,1,0,1,1,0,0,0,0,0,0,0,0,0,0,0,0,0,0],"split_type":[0,0,0,0,0,0,0,0,0,0,0,0,0,0,0,0,0,0,0,0,0,0,0,0,0,0,0],"sum_hessian":[7.25E3,6.892E3,3.58E2,5.778E3,1.114E3,3.54E2,4E0,7.98E2,4.98E3,3.68E2,7.46E2,2.58E2,9.6E1,2E0,2E0,3.28E2,4.7E2,4.68E3,3E2,2.68E2,1E2,4.46E2,3E2,4.6E1,2.12E2,4E1,5.6E1],"tree_param":{"num_deleted":"0","num_feature":"3","num_nodes":"27","size_leaf_vector":"1"}},{"base_weights":[-8.0758125E-2,-8.7771505E-2,4.6013225E-2,-1.15823016E-1,-7.054195E-2,3.681714E-2,7.228383E-1,-9.531946E-2,-2.3284514E-1,-7.574961E-2,1.341217E-1,8.714834E-2,-3.6124114E-2,1.18772306E-1,1.7007431E-3,-7.9136E-3,-1.26885045E-2,-3.390212E-2,-1.7078936E-2,-9.762751E-3,-5.3834906E-3,1.9883727E-1,-3.9304886E-3,6.2444103E-3,3.465069E-2,-4.9225176E-3,-3.5876804E-4],"categories":[],"categories_nodes":[],"categories_segments":[],"categories_sizes":[],"default_left":[0,0,0,0,0,0,0,0,0,0,0,0,0,0,0,0,0,0,0,0,0,0,0,0,0,0,0],"id":24,"left_children":[1,3,5,7,9,11,13,15,17,19,21,23,25,-1,-1,-1,-1,-1,-1,-1,-1,-1,-1,-1,-1,-1,-1],"loss_changes":[6.38686E0,3.2798233E0,2.3198876E0,6.1849747E0,4.5047264E0,1.3725135E0,1.62045E0,1.1153393E0,2.4788017E0,1.966711E0,3.3843674E1,1.3943663E0,6.504144E-2,0E0,0E0,0E0,0E0,0E0,0E0,0E0,0E0,0E0,0E0,0E0,0E0,0E0,0E0],"parents":[2147483647,0,0,1,1,2,2,3,3,4,4,5,5,6,6,7,7,8,8,9,9,10,10,11,11,12,12],"right_children":[2,4,6,8,10,12,14,16,18,20,22,24,26,-1,-1,-1,-1,-1,-1,-1,-1,-1,-1,-1,-1,-1,-1],"split_conditions":[1.5604025E0,-7.657372E-1,7.178016E-1,1.1614624E0,2.0487843E0,1.6529499E0,5.609559E-1,5.2310307E-2,-8.0403674E-1,-2.8043532E-1,-2.580397E-1,5.2310307E-2,2.1857088E0,1.18772306E-1,1.7007431E-3,-7.9136E-3,-1.26885045E-2,-3.390212E-2,-1.7078936E-2,-9.762751E-3,-5.3834906E-3,1.9883727E-1,-3.9304886E-3,6.2444103E-3,3.465069E-2,-4.9225176E-3,-3.5876804E-4],"split_indices":[2,2,1,1,1,0,0,1,0,1,0,1,2,0,0,0,0,0,0,0,0,0,0,0,0,0,0],"split_type":[0,0,0,0,0,0,0,0,0,0,0,0,0,0,0,0,0,0,0,0,0,0,0,0,0,0,0],"sum_hessian":[7.178E3,6.802E3,3.76E2,2.586E3,4.216E3,3.72E2,4E0,2.202E3,3.84E2,4.112E3,1.04E2,2.2E2,1.52E2,2E0,2E0,1.458E3,7.44E2,1.4E2,2.44E2,2.056E3,2.056E3,8E0,9.6E1,2.02E2,1.8E1,1.08E2,4.4E1],"tree_param":{"num_deleted":"0","num_feature":"3","num_nodes":"27","size_leaf_vector":"1"}},{"base_weights":[-7.3016204E-2,-7.9403445E-2,4.182592E-2,-6.9611564E-2,-1.299507E-1,3.32309E-2,6.7464906E-1,-1.2557645E-1,-6.089883E-2,-1.254104E-1,-3.5661586E-2,7.861854E-2,-3.254622E-2,1.1085415E-1,1.5873591E-3,-1.7469926E-2,-2.347272E-3,-6.515688E-3,8.9347095E-4,-1.6168987E-2,-1.0786999E-2,5.623044E-3,3.1367987E-2,-4.603496E-3,-1.14532995E-4],"categories":[],"categories_nodes":[],"categories_segments":[],"categories_sizes":[],"default_left":[0,0,0,0,0,0,0,0,0,0,0,0,0,0,0,0,0,0,0,0,0,0,0,0,0],"id":25,"left_children":[1,3,5,7,9,11,13,15,17,19,-1,21,23,-1,-1,-1,-1,-1,-1,-1,-1,-1,-1,-1,-1],"loss_changes":[5.2428856E0,3.3402977E0,2.0281312E0,2.757574E0,1.0842323E0,1.1161385E0,1.4115922E0,3.8228197E0,1.4602947E0,6.6791344E-1,0E0,1.145391E0,6.4751744E-2,0E0,0E0,0E0,0E0,0E0,0E0,0E0,0E0,0E0,0E0,0E0,0E0],"parents":[2147483647,0,0,1,1,2,2,3,3,4,4,5,5,6,6,7,7,8,8,9,9,11,11,12,12],"right_children":[2,4,6,8,10,12,14,16,18,20,-1,22,24,-1,-1,-1,-1,-1,-1,-1,-1,-1,-1,-1,-1],"split_conditions":[1.5604025E0,1.6529499E0,7.178016E-1,-8.0403674E-1,5.15441E0,1.6529499E0,5.609559E-1,-3.1551662E-1,9.350961E-1,-7.657372E-1,-3.5661586E-2,5.2310307E-2,-5.0226575E-1,1.1085415E-1,1.5873591E-3,-1.7469926E-2,-2.347272E-3,-6.515688E-3,8.9347095E-4,-1.6168987E-2,-1.0786999E-2,5.623044E-3,3.1367987E-2,-4.603496E-3,-1.14532995E-4],"split_indices":[2,0,1,0,1,0,0,2,2,2,0,1,1,0,0,0,0,0,0,0,0,0,0,0,0],"split_type":[0,0,0,0,0,0,0,0,0,0,0,0,0,0,0,0,0,0,0,0,0,0,0,0,0],"sum_hessian":[7.142E3,6.766E3,3.76E2,5.67E3,1.096E3,3.72E2,4E0,7.62E2,4.908E3,1.076E3,2E1,2.2E2,1.52E2,2E0,2E0,5.14E2,2.48E2,4.626E3,2.82E2,3.48E2,7.28E2,2.02E2,1.8E1,1.06E2,4.6E1],"tree_param":{"num_deleted":"0","num_feature":"3","num_nodes":"25","size_leaf_vector":"1"}},{"base_weights":[-6.643853E-2,-7.52444E-2,2.3914035E-3,-6.310991E-2,-1.07952386E-1,-2.2113021E-2,1.7686845E-1,-9.651025E-2,-4.2076983E-2,-1.0519617E-1,-3.2265242E-2,-4.0871933E-2,1.0177219E-1,1.0058047E0,9.294215E-2,-1.0791604E-2,2.4515027E-3,-4.534264E-3,4.7774184E-3,-1.1744588E-2,-7.6744305E-3,-1.1874995E-2,-1.6270347E-3,2.1340497E-2,4.5226347E-3,1.4367586E-1,6.774237E-2,2.5095358E-2,-6.0322895E-3],"categories":[],"categories_nodes":[],"categories_segments":[],"categories_sizes":[],"default_left":[0,0,0,0,0,0,0,0,0,0,0,0,0,0,0,0,0,0,0,0,0,0,0,0,0,0,0,0,0],"id":26,"left_children":[1,3,5,7,9,11,13,15,17,19,-1,21,23,25,27,-1,-1,-1,-1,-1,-1,-1,-1,-1,-1,-1,-1,-1,-1],"loss_changes":[4.285965E0,2.4813194E0,3.4371054E0,3.2099075E0,9.690895E-1,1.6425455E0,6.7939034E0,2.4417934E0,8.263912E-1,5.7477E-1,0E0,1.1725286E0,5.773989E-1,3.0036068E-1,2.2189426E0,0E0,0E0,0E0,0E0,0E0,0E0,0E0,0E0,0E0,0E0,0E0,0E0,0E0,0E0],"parents":[2147483647,0,0,1,1,2,2,3,3,4,4,5,5,6,6,7,7,8,8,9,9,11,11,12,12,13,13,14,14],"right_children":[2,4,6,8,10,12,14,16,18,20,-1,22,24,26,28,-1,-1,-1,-1,-1,-1,-1,-1,-1,-1,-1,-1,-1,-1],"split_conditions":[9.350961E-1,5.609559E-1,1.6322552E-1,-5.310382E-1,5.15441E0,2.1857088E0,-2.580397E-1,3.0978975E-1,2.0487843E0,3.4654945E-2,-3.2265242E-2,-8.350114E-1,5.609559E-1,-8.0403674E-1,1.6529499E0,-1.0791604E-2,2.4515027E-3,-4.534264E-3,4.7774184E-3,-1.1744588E-2,-7.6744305E-3,-1.1874995E-2,-1.6270347E-3,2.1340497E-2,4.5226347E-3,1.4367586E-1,6.774237E-2,2.5095358E-2,-6.0322895E-3],"split_indices":[2,0,1,0,1,2,0,2,1,2,0,1,0,0,0,0,0,0,0,0,0,0,0,0,0,0,0,0,0],"split_type":[0,0,0,0,0,0,0,0,0,0,0,0,0,0,0,0,0,0,0,0,0,0,0,0,0,0,0,0,0],"sum_hessian":[7.07E3,6.268E3,8.02E2,4.574E3,1.694E3,7.04E2,9.8E1,1.766E3,2.808E3,1.674E3,2E1,6.12E2,9.2E1,8E0,9E1,1.614E3,1.52E2,2.71E3,9.8E1,1.168E3,5.06E2,1.46E2,4.66E2,3E1,6.2E1,2E0,6E0,4.4E1,4.6E1],"tree_param":{"num_deleted":"0","num_feature":"3","num_nodes":"29","size_leaf_vector":"1"}},{"base_weights":[-6.0972568E-2,-6.658921E-2,3.7055783E-2,-5.8131427E-2,-1.1044154E-1,2.9114729E-2,6.220472E-1,-1.14936255E-1,-4.997408E-2,-1.0667443E-1,-2.9192368E-2,6.8178855E-2,-2.7501518E-2,1.01790845E-1,1.8836895E-3,-2.0504927E-2,-5.5233575E-3,-5.3684316E-3,5.8947486E-4,-1.3385628E-2,-9.2831515E-3,-5.6804703E-3,1.0135627E-2,-4.036105E-3,2.359564E-4],"categories":[],"categories_nodes":[],"categories_segments":[],"categories_sizes":[],"default_left":[0,0,0,0,0,0,0,0,0,0,0,0,0,0,0,0,0,0,0,0,0,0,0,0,0],"id":27,"left_children":[1,3,5,7,9,11,13,15,17,19,-1,21,23,-1,-1,-1,-1,-1,-1,-1,-1,-1,-1,-1,-1],"loss_changes":[3.826315E0,2.4299793E0,1.7332232E0,2.546999E0,6.942272E-1,8.2682574E-1,1.1747637E0,3.7062464E0,9.992285E-1,3.7927723E-1,0E0,9.221631E-1,5.884715E-2,0E0,0E0,0E0,0E0,0E0,0E0,0E0,0E0,0E0,0E0,0E0,0E0],"parents":[2147483647,0,0,1,1,2,2,3,3,4,4,5,5,6,6,7,7,8,8,9,9,11,11,12,12],"right_children":[2,4,6,8,10,12,14,16,18,20,-1,22,24,-1,-1,-1,-1,-1,-1,-1,-1,-1,-1,-1,-1],"split_conditions":[1.5604025E0,1.6529499E0,7.178016E-1,-8.0403674E-1,5.15441E0,1.6529499E0,5.609559E-1,-7.657372E-1,9.350961E-1,-7.657372E-1,-2.9192368E-2,-8.350114E-1,-5.0226575E-1,1.01790845E-1,1.8836895E-3,-2.0504927E-2,-5.5233575E-3,-5.3684316E-3,5.8947486E-4,-1.3385628E-2,-9.2831515E-3,-5.6804703E-3,1.0135627E-2,-4.036105E-3,2.359564E-4],"split_indices":[2,0,1,0,1,0,0,2,2,2,0,1,1,0,0,0,0,0,0,0,0,0,0,0,0],"split_type":[0,0,0,0,0,0,0,0,0,0,0,0,0,0,0,0,0,0,0,0,0,0,0,0,0],"sum_hessian":[6.944E3,6.568E3,3.76E2,5.508E3,1.06E3,3.72E2,4E0,6.9E2,4.818E3,1.04E3,2E1,2.2E2,1.52E2,2E0,2E0,2.74E2,4.16E2,4.518E3,3E2,3.48E2,6.92E2,4.6E1,1.74E2,1.06E2,4.6E1],"tree_param":{"num_deleted":"0","num_feature":"3","num_nodes":"25","size_leaf_vector":"1"}},{"base_weights":[-5.5043027E-2,-6.0113396E-2,3.3209022E-2,-4.8520494E-2,-8.7824784E-2,2.5782613E-2,5.805773E-1,-5.7238925E-2,1.8172493E-2,-8.314619E-2,-1.7177202E-1,-4.4193612E-3,1.11763686E-1,9.500478E-2,1.7581066E-3,-9.2572225E-3,-3.538989E-3,-4.418759E-3,3.1502567E-2,-9.485407E-3,-6.6559757E-3,-2.1004809E-2,-1.10635115E-2,-8.467136E-3,1.1928099E-3,7.781231E-3,4.350869E-2],"categories":[],"categories_nodes":[],"categories_segments":[],"categories_sizes":[],"default_left":[0,0,0,0,0,0,0,0,0,0,0,0,0,0,0,0,0,0,0,0,0,0,0,0,0,0,0],"id":28,"left_children":[1,3,5,7,9,11,13,15,17,19,21,23,25,-1,-1,-1,-1,-1,-1,-1,-1,-1,-1,-1,-1,-1,-1],"loss_changes":[3.1016235E0,2.1002827E0,1.517529E0,2.6879587E0,7.441263E-1,9.690997E-1,1.0233495E0,3.1518812E0,9.917728E0,3.4925175E-1,2.131095E-1,3.644108E-1,1.0309397E0,0E0,0E0,0E0,0E0,0E0,0E0,0E0,0E0,0E0,0E0,0E0,0E0,0E0,0E0],"parents":[2147483647,0,0,1,1,2,2,3,3,4,4,5,5,6,6,7,7,8,8,9,9,10,10,11,11,12,12],"right_children":[2,4,6,8,10,12,14,16,18,20,22,24,26,-1,-1,-1,-1,-1,-1,-1,-1,-1,-1,-1,-1,-1,-1],"split_conditions":[1.5604025E0,5.609559E-1,7.178016E-1,3.0978975E-1,3.2688515E0,2.1857088E0,5.609559E-1,-5.310382E-1,1.6322552E-1,3.4654945E-2,-7.657372E-1,-8.350114E-1,-5.8604907E-2,9.500478E-2,1.7581066E-3,-9.2572225E-3,-3.538989E-3,-4.418759E-3,3.1502567E-2,-9.485407E-3,-6.6559757E-3,-2.1004809E-2,-1.10635115E-2,-8.467136E-3,1.1928099E-3,7.781231E-3,4.350869E-2],"split_indices":[2,0,1,2,1,2,0,0,1,2,2,1,1,0,0,0,0,0,0,0,0,0,0,0,0,0,0],"split_type":[0,0,0,0,0,0,0,0,0,0,0,0,0,0,0,0,0,0,0,0,0,0,0,0,0,0,0],"sum_hessian":[6.926E3,6.55E3,3.76E2,4.62E3,1.93E3,3.72E2,4E0,4.086E3,5.34E2,1.83E3,1E2,2.76E2,9.6E1,2E0,2E0,1.56E3,2.526E3,4.42E2,9.2E1,1.07E3,7.6E2,6E1,4E1,4.6E1,2.3E2,8.8E1,8E0],"tree_param":{"num_deleted":"0","num_feature":"3","num_nodes":"27","size_leaf_vector":"1"}},{"base_weights":[-5.0233785E-2,-5.506057E-2,2.8624995E-2,-1.0332694E-1,-4.97565E-2,2.1988522E-2,5.4187214E-1,-1.539573E-1,-1.8187863E-3,-3.514498E-2,-7.9067275E-2,-4.0036854E-3,8.440463E-2,8.867113E-2,1.6409E-3,-8.077116E-3,-2.7109845E-2,-1.7382E-2,1.5790407E-1,-3.8432013E-3,5.7675173E-3,-7.484039E-3,-1.5491232E-2,-7.638438E-3,1.0740454E-3,3.8027659E-3,2.6825914E-2],"categories":[],"categories_nodes":[],"categories_segments":[],"categories_sizes":[],"default_left":[0,0,0,0,0,0,0,0,0,0,0,0,0,0,0,0,0,0,0,0,0,0,0,0,0,0,0],"id":29,"left_children":[1,3,5,7,9,11,13,15,17,19,21,23,25,-1,-1,-1,-1,-1,-1,-1,-1,-1,-1,-1,-1,-1,-1],"loss_changes":[2.6039734E0,1.6443195E0,1.3335147E0,3.2735157E0,2.4842129E0,6.3466996E-1,8.914511E-1,3.6216745E0,5.8191242E1,1.1851006E0,6.074629E-1,2.9643232E-1,9.703597E-1,0E0,0E0,0E0,0E0,0E0,0E0,0E0,0E0,0E0,0E0,0E0,0E0,0E0,0E0],"parents":[2147483647,0,0,1,1,2,2,3,3,4,4,5,5,6,6,7,7,8,8,9,9,10,10,11,11,12,12],"right_children":[2,4,6,8,10,12,14,16,18,20,22,24,26,-1,-1,-1,-1,-1,-1,-1,-1,-1,-1,-1,-1,-1,-1],"split_conditions":[1.5604025E0,-8.0403674E-1,7.178016E-1,-3.1551662E-1,5.609559E-1,2.1857088E0,5.609559E-1,4.9597114E-1,7.178016E-1,9.350961E-1,3.2688515E0,-8.350114E-1,-2.8043532E-1,8.867113E-2,1.6409E-3,-8.077116E-3,-2.7109845E-2,-1.7382E-2,1.5790407E-1,-3.8432013E-3,5.7675173E-3,-7.484039E-3,-1.5491232E-2,-7.638438E-3,1.0740454E-3,3.8027659E-3,2.6825914E-2],"split_indices":[2,0,1,2,0,2,0,1,1,2,1,1,1,0,0,0,0,0,0,0,0,0,0,0,0,0,0],"split_type":[0,0,0,0,0,0,0,0,0,0,0,0,0,0,0,0,0,0,0,0,0,0,0,0,0,0,0],"sum_hessian":[6.836E3,6.442E3,3.94E2,6.36E2,5.806E3,3.9E2,4E0,4.24E2,2.12E2,3.876E3,1.93E3,2.76E2,1.14E2,2E0,2E0,2.62E2,1.62E2,1.92E2,2E1,3.744E3,1.32E2,1.83E3,1E2,4.6E1,2.3E2,9.2E1,2.2E1],"tree_param":{"num_deleted":"0","num_feature":"3","num_nodes":"27","size_leaf_vector":"1"}},{"base_weights":[-4.5498747E-2,-5.5377748E-2,-1.2894898E-2,-1.0855617E-1,-4.8389487E-2,-3.49689E-2,8.153081E-2,-1.6930383E-1,-6.376783E-2,-3.6791265E-2,-8.078484E-2,-2.0939791E-1,-2.6268708E-2,1.8139063E0,2.8039651E-2,-4.217966E-3,-2.4235595E-2,-9.982155E-3,1.7222752E-1,-3.8662066E-3,8.7146135E-3,-6.339983E-3,-1.1856676E-2,-3.1579975E-2,-1.4979215E-2,1.8334783E-3,-4.6917684E-3,9.975545E-2,2.2674768E-1,5.2117925E-2,5.125577E-4],"categories":[],"categories_nodes":[],"categories_segments":[],"categories_sizes":[],"default_left":[0,0,0,0,0,0,0,0,0,0,0,0,0,0,0,0,0,0,0,0,0,0,0,0,0,0,0,0,0,0,0],"id":30,"left_children":[1,3,5,7,9,11,13,15,17,19,21,23,25,27,29,-1,-1,-1,-1,-1,-1,-1,-1,-1,-1,-1,-1,-1,-1,-1,-1],"loss_changes":[2.1956396E0,1.9394588E0,3.3107202E0,1.6407223E0,1.7355251E0,1.9476072E0,2.7841839E1,2.3764563E0,2.2774033E1,7.937865E-1,7.931695E-1,3.3956742E-1,1.1309474E0,1.0705261E0,3.3081813E0,0E0,0E0,0E0,0E0,0E0,0E0,0E0,0E0,0E0,0E0,0E0,0E0,0E0,0E0,0E0,0E0],"parents":[2147483647,0,0,1,1,2,2,3,3,4,4,5,5,6,6,7,7,8,8,9,9,10,10,11,11,12,12,13,13,14,14],"right_children":[2,4,6,8,10,12,14,16,18,20,22,24,26,28,30,-1,-1,-1,-1,-1,-1,-1,-1,-1,-1,-1,-1,-1,-1,-1,-1],"split_conditions":[3.0978975E-1,-8.0403674E-1,1.6322552E-1,-7.657372E-1,5.609559E-1,-8.0403674E-1,-8.0403674E-1,2.7414075E-1,2.0487843E0,3.2688515E0,4.9597114E-1,9.350961E-1,1.4958823E-2,1.1614624E0,-2.580397E-1,-4.217966E-3,-2.4235595E-2,-9.982155E-3,1.7222752E-1,-3.8662066E-3,8.7146135E-3,-6.339983E-3,-1.1856676E-2,-3.1579975E-2,-1.4979215E-2,1.8334783E-3,-4.6917684E-3,9.975545E-2,2.2674768E-1,5.2117925E-2,5.125577E-4],"split_indices":[2,0,1,2,0,0,0,1,1,1,1,2,0,1,0,0,0,0,0,0,0,0,0,0,0,0,0,0,0,0,0],"split_type":[0,0,0,0,0,0,0,0,0,0,0,0,0,0,0,0,0,0,0,0,0,0,0,0,0,0,0,0,0,0,0],"sum_hessian":[6.818E3,5.232E3,1.586E3,6.06E2,4.626E3,1.286E3,3E2,2.56E2,3.5E2,3.408E3,1.218E3,6E1,1.226E3,8E0,2.92E2,9.4E1,1.62E2,3.44E2,6E0,3.358E3,5E1,8.36E2,3.82E2,2E1,4E1,3.88E2,8.38E2,4E0,4E0,1.2E1,2.8E2],"tree_param":{"num_deleted":"0","num_feature":"3","num_nodes":"31","size_leaf_vector":"1"}},{"base_weights":[-4.148434E-2,-4.589124E-2,2.929842E-2,-3.9553892E-2,-7.938264E-2,2.3136033E-2,5.0533724E-1,-8.199281E-2,-3.3599444E-2,-7.2038524E-2,-1.6027336E-1,5.282579E-2,-2.33933E-2,8.272555E-2,1.4973324E-3,-1.24527505E-2,-3.381407E-4,-3.5433818E-3,5.1547303E-3,-8.721667E-3,-6.432039E-3,-1.3846345E-2,-2.1807102E-2,3.6907035E-3,2.3520572E-2,-3.4183522E-3,1.6694007E-4],"categories":[],"categories_nodes":[],"categories_segments":[],"categories_sizes":[],"default_left":[0,0,0,0,0,0,0,0,0,0,0,0,0,0,0,0,0,0,0,0,0,0,0,0,0,0,0],"id":31,"left_children":[1,3,5,7,9,11,13,15,17,19,21,23,25,-1,-1,-1,-1,-1,-1,-1,-1,-1,-1,-1,-1,-1,-1],"loss_changes":[2.100337E0,1.341444E0,1.1470544E0,1.3438854E0,5.866842E-1,5.413806E-1,7.768986E-1,2.1897101E0,7.3201895E-1,1.02751255E-1,7.4431896E-2,6.851987E-1,4.1433163E-2,0E0,0E0,0E0,0E0,0E0,0E0,0E0,0E0,0E0,0E0,0E0,0E0,0E0,0E0],"parents":[2147483647,0,0,1,1,2,2,3,3,4,4,5,5,6,6,7,7,8,8,9,9,10,10,11,11,12,12],"right_children":[2,4,6,8,10,12,14,16,18,20,22,24,26,-1,-1,-1,-1,-1,-1,-1,-1,-1,-1,-1,-1,-1,-1],"split_conditions":[1.5604025E0,1.6529499E0,7.178016E-1,-8.0403674E-1,3.2688515E0,1.6529499E0,5.609559E-1,-3.1551662E-1,2.0487843E0,-7.657372E-1,5.15441E0,5.2310307E-2,-5.0226575E-1,8.272555E-2,1.4973324E-3,-1.24527505E-2,-3.381407E-4,-3.5433818E-3,5.1547303E-3,-8.721667E-3,-6.432039E-3,-1.3846345E-2,-2.1807102E-2,3.6907035E-3,2.3520572E-2,-3.4183522E-3,1.6694007E-4],"split_indices":[2,0,1,0,1,0,0,2,1,2,1,1,1,0,0,0,0,0,0,0,0,0,0,0,0,0,0],"split_type":[0,0,0,0,0,0,0,0,0,0,0,0,0,0,0,0,0,0,0,0,0,0,0,0,0,0,0],"sum_hessian":[6.728E3,6.334E3,3.94E2,5.328E3,1.006E3,3.9E2,4E0,6.54E2,4.674E3,9.24E2,8.2E1,2.38E2,1.52E2,2E0,2E0,4.24E2,2.3E2,4.576E3,9.8E1,3.08E2,6.16E2,6.2E1,2E1,2.2E2,1.8E1,1.06E2,4.6E1],"tree_param":{"num_deleted":"0","num_feature":"3","num_nodes":"27","size_leaf_vector":"1"}},{"base_weights":[-3.8101066E-2,-4.43618E-2,4.9635824E-3,-3.6539067E-2,-6.559227E-2,-5.78726E-3,2.6772013E-1,-5.960841E-2,-2.182321E-2,-6.1079334E-2,-1.4467552E-1,-6.8133205E-2,1.299612E-2,1.1851045E-1,-7.324705E-2,-6.7410776E-3,2.793062E-3,-2.4542909E-3,4.6444642E-3,-7.6619238E-3,-5.268534E-3,-1.2483684E-2,-1.9730227E-2,-1.3681369E-2,-4.8513934E-3,8.950965E-3,-1.557735E-3,-8.572168E-3,4.680737E-3],"categories":[],"categories_nodes":[],"categories_segments":[],"categories_sizes":[],"default_left":[0,0,0,0,0,0,0,0,0,0,0,0,0,0,0,0,0,0,0,0,0,0,0,0,0,0,0,0,0],"id":32,"left_children":[1,3,5,7,9,11,13,15,17,19,21,23,25,-1,27,-1,-1,-1,-1,-1,-1,-1,-1,-1,-1,-1,-1,-1,-1],"loss_changes":[1.7804966E0,9.5505714E-1,2.371602E0,1.4296293E0,5.447116E-1,9.459371E-1,1.040914E1,1.122705E0,4.7923493E-1,1.8758202E-1,6.202519E-2,2.4533772E-1,1.3590598E0,0E0,4.1453212E-2,0E0,0E0,0E0,0E0,0E0,0E0,0E0,0E0,0E0,0E0,0E0,0E0,0E0,0E0],"parents":[2147483647,0,0,1,1,2,2,3,3,4,4,5,5,6,6,7,7,8,8,9,9,10,10,11,11,12,12,14,14],"right_children":[2,4,6,8,10,12,14,16,18,20,22,24,26,-1,28,-1,-1,-1,-1,-1,-1,-1,-1,-1,-1,-1,-1,-1,-1],"split_conditions":[9.350961E-1,5.609559E-1,7.178016E-1,-5.310382E-1,3.2688515E0,-8.350114E-1,5.609559E-1,3.0978975E-1,2.0487843E0,-7.657372E-1,5.15441E0,-8.0403674E-1,1.4958823E-2,1.1851045E-1,1.1614624E0,-6.7410776E-3,2.793062E-3,-2.4542909E-3,4.6444642E-3,-7.6619238E-3,-5.268534E-3,-1.2483684E-2,-1.9730227E-2,-1.3681369E-2,-4.8513934E-3,8.950965E-3,-1.557735E-3,-8.572168E-3,4.680737E-3],"split_indices":[2,0,1,0,1,1,0,2,1,2,1,0,0,0,1,0,0,0,0,0,0,0,0,0,0,0,0,0,0],"split_type":[0,0,0,0,0,0,0,0,0,0,0,0,0,0,0,0,0,0,0,0,0,0,0,0,0,0,0,0,0],"sum_hessian":[6.602E3,5.764E3,8.38E2,4.214E3,1.55E3,8.06E2,3.2E1,1.64E3,2.574E3,1.468E3,8.2E1,1.86E2,6.2E2,8E0,2.4E1,1.506E3,1.34E2,2.476E3,9.8E1,5.12E2,9.56E2,6.2E1,2E1,4E1,1.46E2,1.68E2,4.52E2,2.2E1,2E0],"tree_param":{"num_deleted":"0","num_feature":"3","num_nodes":"29","size_leaf_vector":"1"}},{"base_weights":[-3.4654785E-2,-3.6536478E-2,9.088356E-2,-5.2901737E-2,-2.632113E-2,6.597063E-2,4.0176835E-2,-3.9058376E-2,-1.3246067E-1,-3.1297155E-2,1.964155E-1,1.5139773E-1,2.1475371E-2,-2.8728084E-3,-5.798873E-3,-2.201264E-2,-8.790824E-3,-4.7939415E-3,-1.3578837E-3,1.6139786E-1,3.2434687E-3,9.059465E-3,1.7603755E-2,8.5771084E-5,9.753614E-3],"categories":[],"categories_nodes":[],"categories_segments":[],"categories_sizes":[],"default_left":[0,0,0,0,0,0,0,0,0,0,0,0,0,0,0,0,0,0,0,0,0,0,0,0,0],"id":33,"left_children":[1,3,5,7,9,11,-1,13,15,17,19,21,23,-1,-1,-1,-1,-1,-1,-1,-1,-1,-1,-1,-1],"loss_changes":[1.550355E0,1.0774002E0,7.247652E-1,2.7251058E0,4.411812E0,3.426488E-1,0E0,4.1154408E-1,1.4140487E0,1.14611E0,2.0171076E1,3.0495465E-2,9.557625E-2,0E0,0E0,0E0,0E0,0E0,0E0,0E0,0E0,0E0,0E0,0E0,0E0],"parents":[2147483647,0,0,1,1,2,2,3,3,4,4,5,5,7,7,8,8,9,9,10,10,11,11,12,12],"right_children":[2,4,6,8,10,12,-1,14,16,18,20,22,24,-1,-1,-1,-1,-1,-1,-1,-1,-1,-1,-1,-1],"split_conditions":[2.1857088E0,-7.657372E-1,5.2310307E-2,1.1614624E0,2.0487843E0,5.609559E-1,4.0176835E-2,5.2310307E-2,-8.0403674E-1,-2.8043532E-1,-2.580397E-1,-5.310382E-1,-5.0226575E-1,-2.8728084E-3,-5.798873E-3,-2.201264E-2,-8.790824E-3,-4.7939415E-3,-1.3578837E-3,1.6139786E-1,3.2434687E-3,9.059465E-3,1.7603755E-2,8.5771084E-5,9.753614E-3],"split_indices":[2,2,1,1,1,0,0,1,0,1,0,0,1,0,0,0,0,0,0,0,0,0,0,0,0],"split_type":[0,0,0,0,0,0,0,0,0,0,0,0,0,0,0,0,0,0,0,0,0,0,0,0,0],"sum_hessian":[6.548E3,6.452E3,9.6E1,2.478E3,3.974E3,9E1,6E0,2.112E3,3.66E2,3.888E3,8.6E1,3E1,6E1,1.368E3,7.44E2,1.22E2,2.44E2,2.004E3,1.884E3,8E0,7.8E1,1E1,2E1,4.8E1,1.2E1],"tree_param":{"num_deleted":"0","num_feature":"3","num_nodes":"25","size_leaf_vector":"1"}},{"base_weights":[-3.2010693E-2,-3.5923883E-2,2.4680166E-2,-3.0247752E-2,-6.648802E-2,1.791397E-2,3.2641685E-1,-6.855182E-2,-2.5057254E-2,-6.070682E-2,-1.2510096E-1,-2.5313094E-3,6.949364E-2,4.1085228E-1,2.0595153E-3,-8.471542E-3,1.1526491E-2,-2.666333E-3,4.565227E-3,-5.358977E-3,-7.210441E-3,-1.0810242E-2,-1.7013935E-2,2.734925E-3,-1.9799897E-3,4.6902406E-3,3.303568E-2,1.5879126E-2,6.940033E-2],"categories":[],"categories_nodes":[],"categories_segments":[],"categories_sizes":[],"default_left":[0,0,0,0,0,0,0,0,0,0,0,0,0,0,0,0,0,0,0,0,0,0,0,0,0,0,0,0,0],"id":34,"left_children":[1,3,5,7,9,11,13,15,17,19,21,23,25,27,-1,-1,-1,-1,-1,-1,-1,-1,-1,-1,-1,-1,-1,-1,-1],"loss_changes":[1.4177928E0,1.0345688E0,8.373376E-1,1.0005202E0,3.092327E-1,4.2727298E-1,2.2393817E-1,1.7954192E0,5.055587E-1,6.532884E-2,4.5151234E-2,1.5069605E-1,6.6222584E-1,3.8939762E-1,0E0,0E0,0E0,0E0,0E0,0E0,0E0,0E0,0E0,0E0,0E0,0E0,0E0,0E0,0E0],"parents":[2147483647,0,0,1,1,2,2,3,3,4,4,5,5,6,6,7,7,8,8,9,9,10,10,11,11,12,12,13,13],"right_children":[2,4,6,8,10,12,14,16,18,20,22,24,26,28,-1,-1,-1,-1,-1,-1,-1,-1,-1,-1,-1,-1,-1,-1,-1],"split_conditions":[1.5604025E0,1.6529499E0,4.9597114E-1,-8.0403674E-1,3.2688515E0,2.1857088E0,1.6529499E0,3.0978975E-1,2.0487843E0,2.744944E0,5.15441E0,5.609559E-1,-5.8604907E-2,7.178016E-1,2.0595153E-3,-8.471542E-3,1.1526491E-2,-2.666333E-3,4.565227E-3,-5.358977E-3,-7.210441E-3,-1.0810242E-2,-1.7013935E-2,2.734925E-3,-1.9799897E-3,4.6902406E-3,3.303568E-2,1.5879126E-2,6.940033E-2],"split_indices":[2,0,1,0,1,2,0,2,1,0,1,0,1,1,0,0,0,0,0,0,0,0,0,0,0,0,0,0,0],"split_type":[0,0,0,0,0,0,0,0,0,0,0,0,0,0,0,0,0,0,0,0,0,0,0,0,0,0,0,0,0],"sum_hessian":[6.386E3,5.974E3,4.12E2,5.04E3,9.34E2,4.04E2,8E0,6E2,4.44E3,8.52E2,8.2E1,2.9E2,1.14E2,6E0,2E0,5.52E2,4.8E1,4.342E3,9.8E1,5.28E2,3.24E2,6.2E1,2E1,1.06E2,1.84E2,1.06E2,8E0,4E0,2E0],"tree_param":{"num_deleted":"0","num_feature":"3","num_nodes":"29","size_leaf_vector":"1"}},{"base_weights":[-3.0046739E-2,-3.5948295E-2,6.3410774E-3,-2.8918663E-2,-5.4298885E-2,2.6541858E-3,6.3405657E-1,-4.7951676E-2,-1.589569E-2,-5.0730824E-2,-1.1292606E-1,-5.84219E-2,1.9773487E-2,1.0085962E-1,4.8164786E-3,-5.519727E-3,2.8455404E-3,-1.7759735E-3,6.5520154E-3,-4.7016623E-3,-7.1532885E-3,-9.7463755E-3,-1.5393552E-2,-1.2574579E-2,-3.9247065E-3,1.0663217E-1,1.5022482E-3],"categories":[],"categories_nodes":[],"categories_segments":[],"categories_sizes":[],"default_left":[0,0,0,0,0,0,0,0,0,0,0,0,0,0,0,0,0,0,0,0,0,0,0,0,0,0,0],"id":35,"left_children":[1,3,5,7,9,11,13,15,17,19,21,23,25,-1,-1,-1,-1,-1,-1,-1,-1,-1,-1,-1,-1,-1,-1],"loss_changes":[1.3176866E0,6.794095E-1,1.9816885E0,9.458394E-1,2.9989052E-1,8.930348E-1,1.0486195E0,8.602264E-1,3.4551316E-1,1.0318303E-1,3.762722E-2,2.3646772E-1,3.3004088E0,0E0,0E0,0E0,0E0,0E0,0E0,0E0,0E0,0E0,0E0,0E0,0E0,0E0,0E0],"parents":[2147483647,0,0,1,1,2,2,3,3,4,4,5,5,6,6,7,7,8,8,9,9,10,10,11,11,12,12],"right_children":[2,4,6,8,10,12,14,16,18,20,22,24,26,-1,-1,-1,-1,-1,-1,-1,-1,-1,-1,-1,-1,-1,-1],"split_conditions":[9.350961E-1,5.609559E-1,1.1614624E0,-5.310382E-1,3.2688515E0,-8.350114E-1,5.609559E-1,3.0978975E-1,3.2688515E0,2.744944E0,5.15441E0,-8.0403674E-1,-8.0403674E-1,1.0085962E-1,4.8164786E-3,-5.519727E-3,2.8455404E-3,-1.7759735E-3,6.5520154E-3,-4.7016623E-3,-7.1532885E-3,-9.7463755E-3,-1.5393552E-2,-1.2574579E-2,-3.9247065E-3,1.0663217E-1,1.5022482E-3],"split_indices":[2,0,1,0,1,1,0,2,1,0,1,0,0,0,0,0,0,0,0,0,0,0,0,0,0,0,0],"split_type":[0,0,0,0,0,0,0,0,0,0,0,0,0,0,0,0,0,0,0,0,0,0,0,0,0,0,0],"sum_hessian":[6.134E3,5.278E3,8.56E2,3.818E3,1.46E3,8.52E2,4E0,1.55E3,2.268E3,1.378E3,8.2E1,1.86E2,6.66E2,2E0,2E0,1.416E3,1.34E2,2.218E3,5E1,1.172E3,2.06E2,6.2E1,2E1,4E1,1.46E2,2E0,6.64E2],"tree_param":{"num_deleted":"0","num_feature":"3","num_nodes":"27","size_leaf_vector":"1"}},{"base_weights":[-2.7364265E-2,-3.0991342E-2,2.2330586E-2,-2.3309207E-2,-4.9431086E-2,1.605737E-2,3.0214414E-1,-2.9299974E-2,2.0468125E-2,-4.663985E-2,-1.0193631E-1,-2.3203348E-3,6.2421326E-2,3.8066217E-1,1.8220664E-3,-7.338424E-3,-2.1367702E-3,-2.1160485E-3,3.1857718E-2,-4.2306674E-3,-6.4455788E-3,-8.787203E-3,-1.3927504E-2,2.5985732E-3,-1.867941E-3,4.416847E-3,3.3772703E-2,1.448861E-2,6.467349E-2],"categories":[],"categories_nodes":[],"categories_segments":[],"categories_sizes":[],"default_left":[0,0,0,0,0,0,0,0,0,0,0,0,0,0,0,0,0,0,0,0,0,0,0,0,0,0,0,0,0],"id":36,"left_children":[1,3,5,7,9,11,13,15,17,19,21,23,25,27,-1,-1,-1,-1,-1,-1,-1,-1,-1,-1,-1,-1,-1,-1,-1],"loss_changes":[1.0935297E0,7.993498E-1,7.201E-1,1.0472786E0,2.3867226E-1,3.452304E-1,1.9370216E-1,1.2261882E0,5.9758854E0,1.1917138E-1,3.1348467E-2,1.3523617E-1,5.6297123E-1,3.4543216E-1,0E0,0E0,0E0,0E0,0E0,0E0,0E0,0E0,0E0,0E0,0E0,0E0,0E0,0E0,0E0],"parents":[2147483647,0,0,1,1,2,2,3,3,4,4,5,5,6,6,7,7,8,8,9,9,10,10,11,11,12,12,13,13],"right_children":[2,4,6,8,10,12,14,16,18,20,22,24,26,28,-1,-1,-1,-1,-1,-1,-1,-1,-1,-1,-1,-1,-1,-1,-1],"split_conditions":[1.5604025E0,5.609559E-1,4.9597114E-1,3.0978975E-1,3.2688515E0,2.1857088E0,1.6529499E0,-8.0403674E-1,7.178016E-1,2.744944E0,5.15441E0,5.609559E-1,5.2310307E-2,7.178016E-1,1.8220664E-3,-7.338424E-3,-2.1367702E-3,-2.1160485E-3,3.1857718E-2,-4.2306674E-3,-6.4455788E-3,-8.787203E-3,-1.3927504E-2,2.5985732E-3,-1.867941E-3,4.416847E-3,3.3772703E-2,1.448861E-2,6.467349E-2],"split_indices":[2,0,1,2,1,2,0,0,1,0,1,0,1,1,0,0,0,0,0,0,0,0,0,0,0,0,0,0,0],"split_type":[0,0,0,0,0,0,0,0,0,0,0,0,0,0,0,0,0,0,0,0,0,0,0,0,0,0,0,0,0],"sum_hessian":[6.062E3,5.65E3,4.12E2,3.99E3,1.66E3,4.04E2,8E0,3.51E3,4.8E2,1.578E3,8.2E1,2.9E2,1.14E2,6E0,2E0,5.34E2,2.976E3,4.22E2,5.8E1,1.272E3,3.06E2,6.2E1,2E1,1.06E2,1.84E2,1.08E2,6E0,4E0,2E0],"tree_param":{"num_deleted":"0","num_feature":"3","num_nodes":"29","size_leaf_vector":"1"}},{"base_weights":[-2.492814E-2,-3.007113E-2,6.6889767E-3,-2.3993535E-2,-4.6523307E-2,3.2435628E-3,5.807353E-1,-3.9365165E-2,-1.3219092E-2,-4.3598708E-2,-9.20164E-2,-5.190567E-2,1.9129021E-2,9.2011794E-2,4.7774254E-3,-5.574866E-3,-1.0027749E-3,-1.4965845E-3,6.1191483E-3,-2.8702E-3,-4.9188086E-3,-7.922436E-3,-1.260108E-2,-1.1371328E-2,-3.4313716E-3,9.7399525E-2,1.4671948E-3],"categories":[],"categories_nodes":[],"categories_segments":[],"categories_sizes":[],"default_left":[0,0,0,0,0,0,0,0,0,0,0,0,0,0,0,0,0,0,0,0,0,0,0,0,0,0,0],"id":37,"left_children":[1,3,5,7,9,11,13,15,17,19,21,23,25,-1,-1,-1,-1,-1,-1,-1,-1,-1,-1,-1,-1,-1,-1],"loss_changes":[9.7437716E-1,5.141301E-1,1.6575134E0,6.230416E-1,1.8079352E-1,7.325122E-1,8.604306E-1,7.449281E-1,2.8881463E-1,1.0741329E-1,2.6110053E-2,1.9942623E-1,2.7477953E0,0E0,0E0,0E0,0E0,0E0,0E0,0E0,0E0,0E0,0E0,0E0,0E0,0E0,0E0],"parents":[2147483647,0,0,1,1,2,2,3,3,4,4,5,5,6,6,7,7,8,8,9,9,10,10,11,11,12,12],"right_children":[2,4,6,8,10,12,14,16,18,20,22,24,26,-1,-1,-1,-1,-1,-1,-1,-1,-1,-1,-1,-1,-1,-1],"split_conditions":[9.350961E-1,5.609559E-1,1.1614624E0,-5.310382E-1,3.2688515E0,-8.350114E-1,5.609559E-1,-3.1551662E-1,3.2688515E0,-3.9135054E-1,5.15441E0,-8.0403674E-1,-8.0403674E-1,9.2011794E-2,4.7774254E-3,-5.574866E-3,-1.0027749E-3,-1.4965845E-3,6.1191483E-3,-2.8702E-3,-4.9188086E-3,-7.922436E-3,-1.260108E-2,-1.1371328E-2,-3.4313716E-3,9.7399525E-2,1.4671948E-3],"split_indices":[2,0,1,0,1,1,0,2,1,1,1,0,0,0,0,0,0,0,0,0,0,0,0,0,0,0,0],"split_type":[0,0,0,0,0,0,0,0,0,0,0,0,0,0,0,0,0,0,0,0,0,0,0,0,0,0,0],"sum_hessian":[5.99E3,5.152E3,8.38E2,3.764E3,1.388E3,8.34E2,4E0,1.55E3,2.214E3,1.306E3,8.2E1,1.86E2,6.48E2,2E0,2E0,9.94E2,5.56E2,2.164E3,5E1,3.58E2,9.48E2,6.2E1,2E1,4E1,1.46E2,2E0,6.46E2],"tree_param":{"num_deleted":"0","num_feature":"3","num_nodes":"27","size_leaf_vector":"1"}},{"base_weights":[-2.314585E-2,-2.8089313E-2,6.1830934E-3,-2.238599E-2,-4.361463E-2,2.9670866E-3,5.420196E-1,-7.001671E-2,-1.8669892E-2,-4.0966786E-2,-8.306203E-2,2.0965839E-2,-4.200455E-2,8.587768E-2,4.45893E-3,2.5990934E-3,-9.976032E-3,-3.1559546E-3,7.160382E-4,-2.720574E-3,-4.6061585E-3,-7.1427696E-3,-1.14009725E-2,1.1237869E-3,8.392893E-2,-6.2321504E-3,-2.099316E-3],"categories":[],"categories_nodes":[],"categories_segments":[],"categories_sizes":[],"default_left":[0,0,0,0,0,0,0,0,0,0,0,0,0,0,0,0,0,0,0,0,0,0,0,0,0,0,0],"id":38,"left_children":[1,3,5,7,9,11,13,15,17,19,21,23,25,-1,-1,-1,-1,-1,-1,-1,-1,-1,-1,-1,-1,-1,-1],"loss_changes":[8.4269E-1,4.393623E-1,1.4442018E0,6.427976E-1,1.3603902E-1,6.767575E-1,7.495307E-1,7.536192E-1,1.1245754E0,8.6594105E-2,2.1741211E-2,4.743061E0,1.0071775E-1,0E0,0E0,0E0,0E0,0E0,0E0,0E0,0E0,0E0,0E0,0E0,0E0,0E0,0E0],"parents":[2147483647,0,0,1,1,2,2,3,3,4,4,5,5,6,6,7,7,8,8,9,9,10,10,11,11,12,12],"right_children":[2,4,6,8,10,12,14,16,18,20,22,24,26,-1,-1,-1,-1,-1,-1,-1,-1,-1,-1,-1,-1,-1,-1],"split_conditions":[9.350961E-1,5.609559E-1,1.1614624E0,-8.350114E-1,3.2688515E0,1.6529499E0,5.609559E-1,-3.1551662E-1,-3.1551662E-1,-3.9135054E-1,5.15441E0,7.178016E-1,1.5604025E0,8.587768E-2,4.45893E-3,2.5990934E-3,-9.976032E-3,-3.1559546E-3,7.160382E-4,-2.720574E-3,-4.6061585E-3,-7.1427696E-3,-1.14009725E-2,1.1237869E-3,8.392893E-2,-6.2321504E-3,-2.099316E-3],"split_indices":[2,0,1,1,1,0,0,2,2,1,1,1,2,0,0,0,0,0,0,0,0,0,0,0,0,0,0],"split_type":[0,0,0,0,0,0,0,0,0,0,0,0,0,0,0,0,0,0,0,0,0,0,0,0,0,0,0],"sum_hessian":[5.81E3,4.972E3,8.38E2,3.638E3,1.334E3,8.34E2,4E0,2.62E2,3.376E3,1.252E3,8.2E1,5.96E2,2.38E2,2E0,2E0,6.2E1,2E2,2.252E3,1.124E3,3.4E2,9.12E2,6.2E1,2E1,5.9E2,6E0,1.2E2,1.18E2],"tree_param":{"num_deleted":"0","num_feature":"3","num_nodes":"27","size_leaf_vector":"1"}},{"base_weights":[-2.1295117E-2,-2.8006606E-2,-1.545886E-3,-5.9198648E-2,-2.3499798E-2,-5.088235E-3,5.6343373E-2,-9.983001E-2,-2.6302706E-2,-1.6457973E-2,-4.295713E-2,-2.4541833E-2,5.1177558E-2,-7.3211076E-4,-1.618827E-2,-5.751494E-3,1.8079947E-1,-1.7868169E-3,5.783085E-3,-1.1533019E-3,-5.0848415E-3,-1.6772626E-2,-1.5843926E-3,1.5378428E-1,1.3972115E-3],"categories":[],"categories_nodes":[],"categories_segments":[],"categories_sizes":[],"default_left":[0,0,0,0,0,0,0,0,0,0,0,0,0,0,0,0,0,0,0,0,0,0,0,0,0],"id":39,"left_children":[1,3,5,7,9,11,-1,13,15,17,19,21,23,-1,-1,-1,-1,-1,-1,-1,-1,-1,-1,-1,-1],"loss_changes":[7.5348496E-1,5.950749E-1,2.8908217E0,7.124587E-1,5.074823E-1,1.5719669E0,0E0,1.3707764E0,1.7107983E1,2.8650904E-1,2.4367046E-1,1.3261893E0,2.0388657E1,0E0,0E0,0E0,0E0,0E0,0E0,0E0,0E0,0E0,0E0,0E0,0E0],"parents":[2147483647,0,0,1,1,2,2,3,3,4,4,5,5,7,7,8,8,9,9,10,10,11,11,12,12],"right_children":[2,4,6,8,10,12,-1,14,16,18,20,22,24,-1,-1,-1,-1,-1,-1,-1,-1,-1,-1,-1,-1],"split_conditions":[3.0978975E-1,-8.0403674E-1,2.0487843E0,-7.657372E-1,5.609559E-1,-5.8604907E-2,5.6343373E-2,4.9597114E-1,2.492445E0,3.2688515E0,-3.9135054E-1,-8.0403674E-1,-8.0403674E-1,-7.3211076E-4,-1.618827E-2,-5.751494E-3,1.8079947E-1,-1.7868169E-3,5.783085E-3,-1.1533019E-3,-5.0848415E-3,-1.6772626E-2,-1.5843926E-3,1.5378428E-1,1.3972115E-3],"split_indices":[2,0,1,2,0,1,0,1,1,1,1,0,0,0,0,0,0,0,0,0,0,0,0,0,0],"split_type":[0,0,0,0,0,0,0,0,0,0,0,0,0,0,0,0,0,0,0,0,0,0,0,0,0],"sum_hessian":[5.684E3,4.242E3,1.442E3,5.34E2,3.708E3,1.434E3,8E0,2.38E2,2.96E2,2.724E3,9.84E2,1.066E3,3.68E2,9.6E1,1.42E2,2.92E2,4E0,2.674E3,5E1,1.98E2,7.86E2,6E1,1.006E3,8E0,3.6E2],"tree_param":{"num_deleted":"0","num_feature":"3","num_nodes":"25","size_leaf_vector":"1"}},{"base_weights":[-1.9491933E-2,-2.2740366E-2,2.1180345E-2,-4.4893786E-2,-1.8657869E-2,1.5827656E-2,2.59698E-1,-1.3249348E-1,-3.0797886E-2,-3.3610668E-2,1.5388584E-3,-4.864163E-4,5.697172E-2,3.268278E-1,1.6495785E-3,2.2731459E-2,-1.7036868E-2,-1.2827493E-3,-4.6542003E-3,-2.5639138E-3,-1.0039189E-2,-7.623514E-4,2.3907429E-2,2.761313E-3,-1.6735959E-3,3.2004465E-3,2.2128647E-2,1.3010464E-2,5.457571E-2],"categories":[],"categories_nodes":[],"categories_segments":[],"categories_sizes":[],"default_left":[0,0,0,0,0,0,0,0,0,0,0,0,0,0,0,0,0,0,0,0,0,0,0,0,0,0,0,0,0],"id":40,"left_children":[1,3,5,7,9,11,13,15,17,19,21,23,25,27,-1,-1,-1,-1,-1,-1,-1,-1,-1,-1,-1,-1,-1,-1,-1],"loss_changes":[7.373214E-1,4.6629167E-1,5.231712E-1,9.874612E-1,1.3176671E0,2.7187473E-1,1.415438E-1,1.5514133E0,1.9547206E-1,1.3320236E0,4.043375E0,1.333341E-1,4.6470395E-1,2.3047376E-1,0E0,0E0,0E0,0E0,0E0,0E0,0E0,0E0,0E0,0E0,0E0,0E0,0E0,0E0,0E0],"parents":[2147483647,0,0,1,1,2,2,3,3,4,4,5,5,6,6,7,7,8,8,9,9,10,10,11,11,12,12,13,13],"right_children":[2,4,6,8,10,12,14,16,18,20,22,24,26,28,-1,-1,-1,-1,-1,-1,-1,-1,-1,-1,-1,-1,-1,-1,-1],"split_conditions":[1.5604025E0,-6.13181E-1,4.9597114E-1,-8.0403674E-1,-3.1551662E-1,2.1857088E0,1.6529499E0,-3.1551662E-1,3.4654945E-2,2.0487843E0,2.0487843E0,5.609559E-1,-1.6952012E-1,7.178016E-1,1.6495785E-3,2.2731459E-2,-1.7036868E-2,-1.2827493E-3,-4.6542003E-3,-2.5639138E-3,-1.0039189E-2,-7.623514E-4,2.3907429E-2,2.761313E-3,-1.6735959E-3,3.2004465E-3,2.2128647E-2,1.3010464E-2,5.457571E-2],"split_indices":[2,1,1,0,2,2,0,2,2,1,1,0,1,1,0,0,0,0,0,0,0,0,0,0,0,0,0,0,0],"split_type":[0,0,0,0,0,0,0,0,0,0,0,0,0,0,0,0,0,0,0,0,0,0,0,0,0,0,0,0,0],"sum_hessian":[5.576E3,5.164E3,4.12E2,8.02E2,4.362E3,4.04E2,8E0,1.1E2,6.92E2,2.506E3,1.856E3,2.9E2,1.14E2,6E0,2E0,1E1,1E2,3.24E2,3.68E2,2.24E3,2.66E2,1.788E3,6.8E1,1.06E2,1.84E2,1E2,1.4E1,4E0,2E0],"tree_param":{"num_deleted":"0","num_feature":"3","num_nodes":"29","size_leaf_vector":"1"}},{"base_weights":[-1.8207958E-2,-2.292128E-2,7.4252146E-3,-1.7788831E-2,-3.5542086E-2,4.4345744E-3,5.0537705E-1,-4.701228E-2,-1.2645242E-2,-2.8837064E-2,-4.925859E-2,3.6499623E-2,-1.638167E-2,8.011017E-2,4.1193427E-3,-8.4454956E-4,-8.53856E-3,-2.9012451E-3,1.7812569E-3,-2.3094076E-3,-4.759136E-3,-5.581786E-3,-1.4037252E-3,2.1845773E-3,7.07456E-2,-2.48155E-3,2.5781763E-3],"categories":[],"categories_nodes":[],"categories_segments":[],"categories_sizes":[],"default_left":[0,0,0,0,0,0,0,0,0,0,0,0,0,0,0,0,0,0,0,0,0,0,0,0,0,0,0],"id":41,"left_children":[1,3,5,7,9,11,13,15,17,19,21,23,25,-1,-1,-1,-1,-1,-1,-1,-1,-1,-1,-1,-1,-1,-1],"loss_changes":[6.5222144E-1,2.9467988E-1,1.2471932E0,4.8687184E-1,1.1970317E-1,5.5793864E-1,6.533525E-1,7.170477E-1,1.3759042E0,9.443599E-2,9.878862E-2,3.2193046E0,1.8092856E-1,0E0,0E0,0E0,0E0,0E0,0E0,0E0,0E0,0E0,0E0,0E0,0E0,0E0,0E0],"parents":[2147483647,0,0,1,1,2,2,3,3,4,4,5,5,6,6,7,7,8,8,9,9,10,10,11,11,12,12],"right_children":[2,4,6,8,10,12,14,16,18,20,22,24,26,-1,-1,-1,-1,-1,-1,-1,-1,-1,-1,-1,-1,-1,-1],"split_conditions":[9.350961E-1,5.609559E-1,1.1614624E0,-6.13181E-1,4.9597114E-1,5.609559E-1,5.609559E-1,3.4654945E-2,-3.1551662E-1,2.744944E0,3.4654945E-2,7.178016E-1,2.1857088E0,8.011017E-2,4.1193427E-3,-8.4454956E-4,-8.53856E-3,-2.9012451E-3,1.7812569E-3,-2.3094076E-3,-4.759136E-3,-5.581786E-3,-1.4037252E-3,2.1845773E-3,7.07456E-2,-2.48155E-3,2.5781763E-3],"split_indices":[2,0,1,1,1,0,0,2,2,0,2,1,2,0,0,0,0,0,0,0,0,0,0,0,0,0,0],"split_type":[0,0,0,0,0,0,0,0,0,0,0,0,0,0,0,0,0,0,0,0,0,0,0,0,0,0,0],"sum_hessian":[5.396E3,4.558E3,8.38E2,3.242E3,1.316E3,8.34E2,4E0,4.84E2,2.758E3,8.86E2,4.3E2,3.28E2,5.06E2,2E0,2E0,2.42E2,2.42E2,1.794E3,9.64E2,6.8E2,2.06E2,3.62E2,6.8E1,3.22E2,6E0,4.22E2,8.4E1],"tree_param":{"num_deleted":"0","num_feature":"3","num_nodes":"27","size_leaf_vector":"1"}},{"base_weights":[-1.7174603E-2,-2.4036048E-2,2.2793034E-4,-5.0198004E-2,-1.9955283E-2,-2.8178808E-3,4.9193192E-2,-8.957885E-2,-1.8823935E-2,-1.358651E-2,-3.5081062E-2,-1.9191587E-2,4.5334667E-2,1.5511668E-2,-1.0943371E-2,-4.8966906E-3,1.642804E-1,-1.5287821E-3,6.0303262E-3,-2.489167E-3,-5.268661E-3,-1.395952E-2,-1.2007382E-3,1.3849147E-1,1.1812354E-3],"categories":[],"categories_nodes":[],"categories_segments":[],"categories_sizes":[],"default_left":[0,0,0,0,0,0,0,0,0,0,0,0,0,0,0,0,0,0,0,0,0,0,0,0,0],"id":42,"left_children":[1,3,5,7,9,11,-1,13,15,17,19,21,23,-1,-1,-1,-1,-1,-1,-1,-1,-1,-1,-1,-1],"loss_changes":[6.165011E-1,3.943336E-1,2.1894348E0,6.1484694E-1,3.0826962E-1,1.1464671E0,0E0,1.0906798E0,1.4054549E1,2.8464803E-1,1.6892934E-1,9.368535E-1,1.6553886E1,0E0,0E0,0E0,0E0,0E0,0E0,0E0,0E0,0E0,0E0,0E0,0E0],"parents":[2147483647,0,0,1,1,2,2,3,3,4,4,5,5,7,7,8,8,9,9,10,10,11,11,12,12],"right_children":[2,4,6,8,10,12,-1,14,16,18,20,22,24,-1,-1,-1,-1,-1,-1,-1,-1,-1,-1,-1,-1],"split_conditions":[3.0978975E-1,-8.0403674E-1,2.0487843E0,-7.657372E-1,5.609559E-1,-5.8604907E-2,4.9193192E-2,-5.8604907E-2,2.492445E0,3.2688515E0,4.9597114E-1,-8.0403674E-1,-8.0403674E-1,1.5511668E-2,-1.0943371E-2,-4.8966906E-3,1.642804E-1,-1.5287821E-3,6.0303262E-3,-2.489167E-3,-5.268661E-3,-1.395952E-2,-1.2007382E-3,1.3849147E-1,1.1812354E-3],"split_indices":[2,0,1,2,0,1,0,1,1,1,1,0,0,0,0,0,0,0,0,0,0,0,0,0,0],"split_type":[0,0,0,0,0,0,0,0,0,0,0,0,0,0,0,0,0,0,0,0,0,0,0,0,0],"sum_hessian":[5.162E3,3.702E3,1.46E3,4.98E2,3.204E3,1.452E3,8E0,2.2E2,2.78E2,2.256E3,9.48E2,1.084E3,3.68E2,1.6E1,2.04E2,2.74E2,4E0,2.206E3,5E1,6.02E2,3.46E2,6E1,1.024E3,8E0,3.6E2],"tree_param":{"num_deleted":"0","num_feature":"3","num_nodes":"25","size_leaf_vector":"1"}},{"base_weights":[-1.5623053E-2,-1.877492E-2,2.0123214E-2,-1.3009204E-2,-3.0997712E-2,1.551477E-2,2.2526725E-1,-4.2651545E-2,-7.066883E-3,-2.599381E-2,-4.3098744E-2,4.7406353E-2,-7.850869E-4,2.826595E-1,1.6262928E-3,-1.0772745E-2,-2.5392452E-3,-2.748031E-3,2.2147072E-3,-1.9406751E-3,-4.2151497E-3,-4.7872416E-3,-2.4926548E-3,-1.6969178E-3,1.3805568E-2,-1.1567421E-3,4.337627E-3,1.1887002E-2,4.6142213E-2],"categories":[],"categories_nodes":[],"categories_segments":[],"categories_sizes":[],"default_left":[0,0,0,0,0,0,0,0,0,0,0,0,0,0,0,0,0,0,0,0,0,0,0,0,0,0,0,0,0],"id":43,"left_children":[1,3,5,7,9,11,13,15,17,19,21,23,25,27,-1,-1,-1,-1,-1,-1,-1,-1,-1,-1,-1,-1,-1,-1,-1],"loss_changes":[5.7396793E-1,3.2934058E-1,3.8695306E-1,5.6001353E-1,8.964777E-2,2.1056765E-1,1.03360176E-1,5.936576E-1,1.5815508E0,1.12318814E-1,3.6715567E-2,8.018197E-1,1.2858945E-1,1.5010679E-1,0E0,0E0,0E0,0E0,0E0,0E0,0E0,0E0,0E0,0E0,0E0,0E0,0E0,0E0,0E0],"parents":[2147483647,0,0,1,1,2,2,3,3,4,4,5,5,6,6,7,7,8,8,9,9,10,10,11,11,12,12,13,13],"right_children":[2,4,6,8,10,12,14,16,18,20,22,24,26,28,-1,-1,-1,-1,-1,-1,-1,-1,-1,-1,-1,-1,-1,-1,-1],"split_conditions":[1.5604025E0,5.609559E-1,4.9597114E-1,-6.13181E-1,4.9597114E-1,5.609559E-1,1.6529499E0,-8.0403674E-1,-3.1551662E-1,2.744944E0,3.4654945E-2,-5.310382E-1,5.2310307E-2,7.178016E-1,1.6262928E-3,-1.0772745E-2,-2.5392452E-3,-2.748031E-3,2.2147072E-3,-1.9406751E-3,-4.2151497E-3,-4.7872416E-3,-2.4926548E-3,-1.6969178E-3,1.3805568E-2,-1.1567421E-3,4.337627E-3,1.1887002E-2,4.6142213E-2],"split_indices":[2,0,1,1,1,0,0,0,2,0,2,0,1,1,0,0,0,0,0,0,0,0,0,0,0,0,0,0,0],"split_type":[0,0,0,0,0,0,0,0,0,0,0,0,0,0,0,0,0,0,0,0,0,0,0,0,0,0,0,0,0],"sum_hessian":[5.09E3,4.678E3,4.12E2,3.18E3,1.498E3,4.04E2,8E0,5.3E2,2.65E3,1.062E3,4.36E2,1.36E2,2.68E2,6E0,2E0,1.1E2,4.2E2,1.56E3,1.09E3,7.56E2,3.06E2,3.44E2,9.2E1,8E1,5.6E1,2.16E2,5.2E1,4E0,2E0],"tree_param":{"num_deleted":"0","num_feature":"3","num_nodes":"29","size_leaf_vector":"1"}},{"base_weights":[-1.4484197E-2,-1.8969087E-2,7.5940224E-3,-2.7641451E-2,-1.28587475E-2,4.810931E-3,4.7085145E-1,-1.819957E-2,-7.8425065E-2,-1.9481802E-2,1.65198E-1,1.9065382E-2,-3.0815503E-2,7.4543096E-2,3.932148E-3,4.072352E-4,-2.2840637E-3,-1.5223307E-2,-4.4887294E-3,-3.4201199E-3,-2.5237093E-4,1.3029796E-1,3.3486204E-3,1.2245628E-3,5.9212387E-2,-4.5866054E-3,-1.5253046E-3],"categories":[],"categories_nodes":[],"categories_segments":[],"categories_sizes":[],"default_left":[0,0,0,0,0,0,0,0,0,0,0,0,0,0,0,0,0,0,0,0,0,0,0,0,0,0,0],"id":44,"left_children":[1,3,5,7,9,11,13,15,17,19,21,23,25,-1,-1,-1,-1,-1,-1,-1,-1,-1,-1,-1,-1,-1,-1],"loss_changes":[4.9177027E-1,2.1833885E-1,1.0794472E0,8.16108E-1,2.8606129E0,4.2462996E-1,5.631349E-1,1.488359E-1,6.540868E-1,5.83259E-1,1.2994124E1,2.3258953E0,5.5279836E-2,0E0,0E0,0E0,0E0,0E0,0E0,0E0,0E0,0E0,0E0,0E0,0E0,0E0,0E0],"parents":[2147483647,0,0,1,1,2,2,3,3,4,4,5,5,6,6,7,7,8,8,9,9,10,10,11,11,12,12],"right_children":[2,4,6,8,10,12,14,16,18,20,22,24,26,-1,-1,-1,-1,-1,-1,-1,-1,-1,-1,-1,-1,-1,-1],"split_conditions":[9.350961E-1,-7.657372E-1,1.1614624E0,2.0487843E0,2.0487843E0,1.6529499E0,5.609559E-1,-3.9135054E-1,-8.0403674E-1,-2.8043532E-1,-2.580397E-1,7.178016E-1,1.5604025E0,7.4543096E-2,3.932148E-3,4.072352E-4,-2.2840637E-3,-1.5223307E-2,-4.4887294E-3,-3.4201199E-3,-2.5237093E-4,1.3029796E-1,3.3486204E-3,1.2245628E-3,5.9212387E-2,-4.5866054E-3,-1.5253046E-3],"split_indices":[2,2,1,1,1,0,0,1,0,1,0,1,2,0,0,0,0,0,0,0,0,0,0,0,0,0,0],"split_type":[0,0,0,0,0,0,0,0,0,0,0,0,0,0,0,0,0,0,0,0,0,0,0,0,0,0,0],"sum_hessian":[4.964E3,4.126E3,8.38E2,1.704E3,2.422E3,8.34E2,4E0,1.438E3,2.66E2,2.336E3,8.6E1,5.96E2,2.38E2,2E0,2E0,2.48E2,1.19E3,8.2E1,1.84E2,1.25E3,1.086E3,8E0,7.8E1,5.9E2,6E0,1.2E2,1.18E2],"tree_param":{"num_deleted":"0","num_feature":"3","num_nodes":"27","size_leaf_vector":"1"}},{"base_weights":[-1.3340076E-2,-1.4819171E-2,4.7778938E-2,-2.5775677E-2,-8.965951E-3,3.2529864E-2,2.7840328E-1,-1.6847553E-2,-7.597801E-2,-1.35684535E-2,1.5021439E-1,1.0984048E-1,1.7810124E-3,1.1421505E-2,3.212356E-2,3.4043068E-4,-2.1588448E-3,-1.371932E-2,-4.5098737E-3,-2.5433213E-3,4.1465406E-4,1.1871592E-1,3.0179997E-3,6.498263E-3,1.2810695E-2,-6.2867434E-4,8.566176E-3],"categories":[],"categories_nodes":[],"categories_segments":[],"categories_sizes":[],"default_left":[0,0,0,0,0,0,0,0,0,0,0,0,0,0,0,0,0,0,0,0,0,0,0,0,0,0,0],"id":45,"left_children":[1,3,5,7,9,11,13,15,17,19,21,23,25,-1,-1,-1,-1,-1,-1,-1,-1,-1,-1,-1,-1,-1,-1],"loss_changes":[4.3978482E-1,3.039415E-1,3.9537653E-1,7.38719E-1,2.2680564E0,2.5892055E-1,1.2537897E-2,1.3477829E-1,4.644928E-1,6.321291E-1,1.0792978E1,1.7076522E-2,5.400015E-2,0E0,0E0,0E0,0E0,0E0,0E0,0E0,0E0,0E0,0E0,0E0,0E0,0E0,0E0],"parents":[2147483647,0,0,1,1,2,2,3,3,4,4,5,5,6,6,7,7,8,8,9,9,10,10,11,11,12,12],"right_children":[2,4,6,8,10,12,14,16,18,20,22,24,26,-1,-1,-1,-1,-1,-1,-1,-1,-1,-1,-1,-1,-1,-1],"split_conditions":[2.1857088E0,-7.657372E-1,5.2310307E-2,2.0487843E0,2.0487843E0,5.609559E-1,1.6322552E-1,-3.9135054E-1,-8.0403674E-1,-1.6952012E-1,-2.580397E-1,-5.310382E-1,-2.8043532E-1,1.1421505E-2,3.212356E-2,3.4043068E-4,-2.1588448E-3,-1.371932E-2,-4.5098737E-3,-2.5433213E-3,4.1465406E-4,1.1871592E-1,3.0179997E-3,6.498263E-3,1.2810695E-2,-6.2867434E-4,8.566176E-3],"split_indices":[2,2,1,1,1,0,1,1,0,1,0,0,1,0,0,0,0,0,0,0,0,0,0,0,0,0,0],"split_type":[0,0,0,0,0,0,0,0,0,0,0,0,0,0,0,0,0,0,0,0,0,0,0,0,0,0,0],"sum_hessian":[4.856E3,4.742E3,1.14E2,1.65E3,3.092E3,1.08E2,6E0,1.402E3,2.48E2,3.006E3,8.6E1,3E1,7.8E1,2E0,4E0,2.66E2,1.136E3,8.2E1,1.66E2,1.8E3,1.206E3,8E0,7.8E1,1E1,2E1,7.2E1,6E0],"tree_param":{"num_deleted":"0","num_feature":"3","num_nodes":"27","size_leaf_vector":"1"}},{"base_weights":[-1.2324958E-2,-1.8548423E-2,2.1265E-3,-3.759796E-2,-1.5157798E-2,-6.730827E-4,4.42669E-2,-5.5012625E-2,-2.0130507E-3,-9.229514E-3,-2.8604744E-2,3.4093194E-2,-1.7854022E-2,1.4608753E-2,-7.240645E-3,-3.3897504E-3,1.7310467E-1,-1.092099E-3,5.400039E-3,-2.3965926E-3,-6.168762E-3,1.4903572E-3,1.8119095E-1,-1.3525285E-3,-1.1338985E-2],"categories":[],"categories_nodes":[],"categories_segments":[],"categories_sizes":[],"default_left":[0,0,0,0,0,0,0,0,0,0,0,0,0,0,0,0,0,0,0,0,0,0,0,0,0],"id":46,"left_children":[1,3,5,7,9,11,-1,13,15,17,19,21,23,-1,-1,-1,-1,-1,-1,-1,-1,-1,-1,-1,-1],"loss_changes":[4.2553687E-1,2.1302879E-1,1.7578006E0,3.091191E-1,2.2366202E-1,8.470073E-1,0E0,1.1823745E0,9.176193E0,2.0925282E-1,1.3034838E-1,1.5973226E1,3.909248E-1,0E0,0E0,0E0,0E0,0E0,0E0,0E0,0E0,0E0,0E0,0E0,0E0],"parents":[2147483647,0,0,1,1,2,2,3,3,4,4,5,5,7,7,8,8,9,9,10,10,11,11,12,12],"right_children":[2,4,6,8,10,12,-1,14,16,18,20,22,24,-1,-1,-1,-1,-1,-1,-1,-1,-1,-1,-1,-1],"split_conditions":[3.0978975E-1,-8.0403674E-1,2.0487843E0,-3.1551662E-1,5.609559E-1,1.4958823E-2,4.42669E-2,-1.6952012E-1,3.2688515E0,3.2688515E0,2.492445E0,1.1614624E0,1.6051233E0,1.4608753E-2,-7.240645E-3,-3.3897504E-3,1.7310467E-1,-1.092099E-3,5.400039E-3,-2.3965926E-3,-6.168762E-3,1.4903572E-3,1.8119095E-1,-1.3525285E-3,-1.1338985E-2],"split_indices":[2,0,1,2,0,0,0,1,1,1,1,1,1,0,0,0,0,0,0,0,0,0,0,0,0],"split_type":[0,0,0,0,0,0,0,0,0,0,0,0,0,0,0,0,0,0,0,0,0,0,0,0,0],"sum_hessian":[4.73E3,3.306E3,1.424E3,4.98E2,2.808E3,1.416E3,8E0,3.34E2,1.64E2,1.95E3,8.58E2,4.68E2,9.48E2,2.6E1,3.08E2,1.62E2,2E0,1.9E3,5E1,7.54E2,1.04E2,4.64E2,4E0,9.08E2,4E1],"tree_param":{"num_deleted":"0","num_feature":"3","num_nodes":"25","size_leaf_vector":"1"}},{"base_weights":[-1.1283193E-2,-1.5586919E-2,8.145753E-3,-2.53035E-2,-9.8076835E-3,5.5487766E-3,4.4021168E-1,-8.237828E-2,-1.783473E-2,-2.2197831E-2,6.9542974E-2,-3.4093928E-2,1.5584861E-2,6.9636084E-2,3.7325304E-3,1.4793435E-2,-1.1936276E-2,-1.4669619E-3,-3.7702105E-3,-2.7351303E-3,-6.8141025E-4,5.782869E-2,3.3818174E-3,-6.2985355E-3,-2.4647089E-3,5.693817E-2,1.3063094E-3],"categories":[],"categories_nodes":[],"categories_segments":[],"categories_sizes":[],"default_left":[0,0,0,0,0,0,0,0,0,0,0,0,0,0,0,0,0,0,0,0,0,0,0,0,0,0,0],"id":47,"left_children":[1,3,5,7,9,11,13,15,17,19,21,23,25,-1,-1,-1,-1,-1,-1,-1,-1,-1,-1,-1,-1,-1,-1],"loss_changes":[3.8668776E-1,2.1229625E-1,9.3896985E-1,6.000097E-1,2.3365638E0,3.327424E-1,4.900031E-1,1.4060909E0,7.7987134E-2,1.6273308E-1,5.8145466E0,4.4573203E-2,9.240589E-1,0E0,0E0,0E0,0E0,0E0,0E0,0E0,0E0,0E0,0E0,0E0,0E0,0E0,0E0],"parents":[2147483647,0,0,1,1,2,2,3,3,4,4,5,5,6,6,7,7,8,8,9,9,10,10,11,11,12,12],"right_children":[2,4,6,8,10,12,14,16,18,20,22,24,26,-1,-1,-1,-1,-1,-1,-1,-1,-1,-1,-1,-1,-1,-1],"split_conditions":[9.350961E-1,-2.8043532E-1,1.1614624E0,-8.0403674E-1,3.4654945E-2,-8.350114E-1,5.609559E-1,-3.1551662E-1,2.744944E0,-3.1551662E-1,-8.0403674E-1,-8.0403674E-1,-8.0403674E-1,6.9636084E-2,3.7325304E-3,1.4793435E-2,-1.1936276E-2,-1.4669619E-3,-3.7702105E-3,-2.7351303E-3,-6.8141025E-4,5.782869E-2,3.3818174E-3,-6.2985355E-3,-2.4647089E-3,5.693817E-2,1.3063094E-3],"split_indices":[2,1,1,0,2,1,0,2,0,2,0,0,0,0,0,0,0,0,0,0,0,0,0,0,0,0,0],"split_type":[0,0,0,0,0,0,0,0,0,0,0,0,0,0,0,0,0,0,0,0,0,0,0,0,0,0,0],"sum_hessian":[4.622E3,3.784E3,8.38E2,1.41E3,2.374E3,8.34E2,4E0,1.62E2,1.248E3,2.054E3,3.2E2,1.68E2,6.66E2,2E0,2E0,2.2E1,1.4E2,1.078E3,1.7E2,1.538E3,5.16E2,2E1,3E2,4E1,1.28E2,2E0,6.64E2],"tree_param":{"num_deleted":"0","num_feature":"3","num_nodes":"27","size_leaf_vector":"1"}},{"base_weights":[-1.062013E-2,-1.2054509E-2,4.3691706E-2,-6.235194E-3,-2.3219965E-2,2.9603515E-2,2.5682333E-1,-1.2851273E-2,1.8229548E-2,-2.1696111E-2,-5.6270316E-2,9.695627E-2,2.7992243E-3,1.066316E-2,2.9557372E-2,-2.2596188E-3,-1.3392649E-4,-8.352324E-4,1.5862409E-2,-1.855002E-3,-3.2634027E-3,-9.155537E-3,-3.6088307E-3,5.6532687E-3,1.1351356E-2,-4.4845787E-4,7.8358995E-3],"categories":[],"categories_nodes":[],"categories_segments":[],"categories_sizes":[],"default_left":[0,0,0,0,0,0,0,0,0,0,0,0,0,0,0,0,0,0,0,0,0,0,0,0,0,0,0],"id":48,"left_children":[1,3,5,7,9,11,13,15,17,19,21,23,25,-1,-1,-1,-1,-1,-1,-1,-1,-1,-1,-1,-1,-1,-1],"loss_changes":[3.4805512E-1,2.8230292E-1,3.3770072E-1,4.629939E-1,7.377112E-2,1.9651096E-1,9.222388E-3,2.5249484E-1,2.2740824E0,4.8431277E-2,4.298392E-2,1.4331222E-2,4.383004E-2,0E0,0E0,0E0,0E0,0E0,0E0,0E0,0E0,0E0,0E0,0E0,0E0,0E0,0E0],"parents":[2147483647,0,0,1,1,2,2,3,3,4,4,5,5,6,6,7,7,8,8,9,9,10,10,11,11,12,12],"right_children":[2,4,6,8,10,12,14,16,18,20,22,24,26,-1,-1,-1,-1,-1,-1,-1,-1,-1,-1,-1,-1,-1,-1],"split_conditions":[2.1857088E0,5.609559E-1,5.2310307E-2,3.0978975E-1,3.2688515E0,5.609559E-1,1.6322552E-1,-5.310382E-1,1.6322552E-1,2.744944E0,3.601597E0,-5.310382E-1,-2.8043532E-1,1.066316E-2,2.9557372E-2,-2.2596188E-3,-1.3392649E-4,-8.352324E-4,1.5862409E-2,-1.855002E-3,-3.2634027E-3,-9.155537E-3,-3.6088307E-3,5.6532687E-3,1.1351356E-2,-4.4845787E-4,7.8358995E-3],"split_indices":[2,0,1,2,1,0,1,0,1,0,1,0,1,0,0,0,0,0,0,0,0,0,0,0,0,0,0],"split_type":[0,0,0,0,0,0,0,0,0,0,0,0,0,0,0,0,0,0,0,0,0,0,0,0,0,0,0],"sum_hessian":[4.46E3,4.346E3,1.14E2,2.858E3,1.488E3,1.08E2,6E0,2.25E3,6.08E2,1.424E3,6.4E1,3E1,7.8E1,2E0,4E0,1.218E3,1.032E3,5.12E2,9.6E1,1.108E3,3.16E2,2.2E1,4.2E1,1E1,2E1,7.2E1,6E0],"tree_param":{"num_deleted":"0","num_feature":"3","num_nodes":"27","size_leaf_vector":"1"}},{"base_weights":[-9.794826E-3,-1.2669632E-2,1.5344726E-2,-4.7649276E-3,-2.1624846E-2,1.280253E-2,2.3853116E-1,-1.0699756E-2,7.13189E-2,1.4284736E-2,-2.427452E-2,3.3547492E-3,3.988438E-2,3.803652E-2,1.7186722E-3,-4.605731E-3,-1.8591665E-4,-8.746483E-3,8.750875E-2,-5.3592556E-4,3.850296E-3,-1.8157646E-3,-3.2389003E-3,2.983486E-3,-1.348904E-3,2.6866947E-3,2.3688672E-2],"categories":[],"categories_nodes":[],"categories_segments":[],"categories_sizes":[],"default_left":[0,0,0,0,0,0,0,0,0,0,0,0,0,0,0,0,0,0,0,0,0,0,0,0,0,0,0],"id":49,"left_children":[1,3,5,7,9,11,13,15,17,19,21,23,25,-1,-1,-1,-1,-1,-1,-1,-1,-1,-1,-1,-1,-1,-1],"loss_changes":[3.1609237E-1,2.7759957E-1,2.517014E-1,9.422334E-1,1.7532521E-1,1.1372542E-1,1.5043363E-1,6.047599E-1,1.9347973E1,6.0625635E-2,8.443701E-2,1.4803685E-1,2.885491E-1,0E0,0E0,0E0,0E0,0E0,0E0,0E0,0E0,0E0,0E0,0E0,0E0,0E0,0E0],"parents":[2147483647,0,0,1,1,2,2,3,3,4,4,5,5,6,6,7,7,8,8,9,9,10,10,11,11,12,12],"right_children":[2,4,6,8,10,12,14,16,18,20,22,24,26,-1,-1,-1,-1,-1,-1,-1,-1,-1,-1,-1,-1,-1,-1],"split_conditions":[1.5604025E0,1.4958823E-2,7.178016E-1,7.178016E-1,-9.4082296E-1,2.1857088E0,5.609559E-1,-8.0403674E-1,-7.657372E-1,-5.8604907E-2,2.7414075E-1,-2.8043532E-1,5.2310307E-2,3.803652E-2,1.7186722E-3,-4.605731E-3,-1.8591665E-4,-8.746483E-3,8.750875E-2,-5.3592556E-4,3.850296E-3,-1.8157646E-3,-3.2389003E-3,2.983486E-3,-1.348904E-3,2.6866947E-3,2.3688672E-2],"split_indices":[2,0,1,1,2,2,0,0,2,1,1,1,1,0,0,0,0,0,0,0,0,0,0,0,0,0,0],"split_type":[0,0,0,0,0,0,0,0,0,0,0,0,0,0,0,0,0,0,0,0,0,0,0,0,0,0,0],"sum_hessian":[4.37E3,3.922E3,4.48E2,2.084E3,1.838E3,4.44E2,4E0,1.934E3,1.5E2,1.26E2,1.712E3,3.3E2,1.14E2,2E0,2E0,3.86E2,1.548E3,1.26E2,2.4E1,7E1,5.6E1,9.78E2,7.34E2,1.28E2,2.02E2,1.08E2,6E0],"tree_param":{"num_deleted":"0","num_feature":"3","num_nodes":"27","size_leaf_vector":"1"}},{"base_weights":[-9.28913E-3,-1.3311497E-2,7.4011018E-3,-2.1695552E-2,-8.175486E-3,4.9943263E-3,4.0785235E-1,-2.7518452E-3,-3.9173804E-2,-2.0205844E-2,5.6471884E-2,3.0939197E-2,-8.577936E-3,6.415211E-2,3.8232883E-3,7.075865E-3,-8.077645E-4,-1.16041E-2,-2.2700957E-3,-2.4776608E-3,-8.046874E-4,4.022701E-3,5.372075E-2,1.388712E-3,5.561159E-2,-3.0105065E-3,8.7424705E-4],"categories":[],"categories_nodes":[],"categories_segments":[],"categories_sizes":[],"default_left":[0,0,0,0,0,0,0,0,0,0,0,0,0,0,0,0,0,0,0,0,0,0,0,0,0,0,0],"id":50,"left_children":[1,3,5,7,9,11,13,15,17,19,21,23,25,-1,-1,-1,-1,-1,-1,-1,-1,-1,-1,-1,-1,-1,-1],"loss_changes":[2.8991702E-1,1.4963043E-1,8.065881E-1,4.3727916E-1,1.6802624E0,2.9429448E-1,4.073153E-1,2.4917543E-1,8.6726E-1,1.0100412E-1,2.6258068E0,2.5624642E0,2.0496258E-1,0E0,0E0,0E0,0E0,0E0,0E0,0E0,0E0,0E0,0E0,0E0,0E0,0E0,0E0],"parents":[2147483647,0,0,1,1,2,2,3,3,4,4,5,5,6,6,7,7,8,8,9,9,10,10,11,11,12,12],"right_children":[2,4,6,8,10,12,14,16,18,20,22,24,26,-1,-1,-1,-1,-1,-1,-1,-1,-1,-1,-1,-1,-1,-1],"split_conditions":[9.350961E-1,-2.8043532E-1,1.1614624E0,3.4654945E-2,3.4654945E-2,1.4958823E-2,5.609559E-1,-8.0403674E-1,-8.0403674E-1,-3.1551662E-1,2.0487843E0,1.6322552E-1,1.5604025E0,6.415211E-2,3.8232883E-3,7.075865E-3,-8.077645E-4,-1.16041E-2,-2.2700957E-3,-2.4776608E-3,-8.046874E-4,4.022701E-3,5.372075E-2,1.388712E-3,5.561159E-2,-3.0105065E-3,8.7424705E-4],"split_indices":[2,1,1,2,2,0,0,0,0,2,1,1,2,0,0,0,0,0,0,0,0,0,0,0,0,0,0],"split_type":[0,0,0,0,0,0,0,0,0,0,0,0,0,0,0,0,0,0,0,0,0,0,0,0,0,0,0],"sum_hessian":[4.316E3,3.478E3,8.38E2,1.32E3,2.158E3,8.34E2,4E0,6.34E2,6.86E2,1.82E3,3.38E2,2.86E2,5.48E2,2E0,2E0,4.2E1,5.92E2,1.2E2,5.66E2,1.322E3,4.98E2,3.28E2,1E1,2.78E2,8E0,2.44E2,3.04E2],"tree_param":{"num_deleted":"0","num_feature":"3","num_nodes":"27","size_leaf_vector":"1"}},{"base_weights":[-8.502893E-3,-1.2270675E-2,6.8073994E-3,-8.085355E-3,-2.2702072E-2,4.5605954E-3,3.806622E-1,-8.640192E-3,1.854398E-1,2.4593424E-3,-2.5076952E-2,2.8043892E-2,-7.7240434E-3,5.98753E-2,3.5684032E-3,-1.944776E-3,-5.2244293E-5,2.3091339E-2,4.7837216E-3,-1.7268363E-3,2.8518755E-3,-2.2513343E-3,-4.3650386E-3,1.2503392E-3,5.066834E-2,-2.7106842E-3,7.87107E-4],"categories":[],"categories_nodes":[],"categories_segments":[],"categories_sizes":[],"default_left":[0,0,0,0,0,0,0,0,0,0,0,0,0,0,0,0,0,0,0,0,0,0,0,0,0,0,0],"id":51,"left_children":[1,3,5,7,9,11,13,15,17,19,21,23,25,-1,-1,-1,-1,-1,-1,-1,-1,-1,-1,-1,-1,-1,-1],"loss_changes":[2.4495992E-1,1.4856178E-1,7.0300597E-1,2.6284564E-1,5.8323085E-2,2.4110061E-1,3.5481685E-1,2.1291819E-1,3.2754734E-2,4.4190325E-2,4.1442275E-2,2.128456E0,1.661634E-1,0E0,0E0,0E0,0E0,0E0,0E0,0E0,0E0,0E0,0E0,0E0,0E0,0E0,0E0],"parents":[2147483647,0,0,1,1,2,2,3,3,4,4,5,5,6,6,7,7,8,8,9,9,10,10,11,11,12,12],"right_children":[2,4,6,8,10,12,14,16,18,20,22,24,26,-1,-1,-1,-1,-1,-1,-1,-1,-1,-1,-1,-1,-1,-1],"split_conditions":[9.350961E-1,5.609559E-1,1.1614624E0,5.15441E0,-6.13181E-1,1.4958823E-2,5.609559E-1,-2.8043532E-1,1.4958823E-2,1.6529499E0,2.744944E0,1.6322552E-1,1.5604025E0,5.98753E-2,3.5684032E-3,-1.944776E-3,-5.2244293E-5,2.3091339E-2,4.7837216E-3,-1.7268363E-3,2.8518755E-3,-2.2513343E-3,-4.3650386E-3,1.2503392E-3,5.066834E-2,-2.7106842E-3,7.87107E-4],"split_indices":[2,0,1,1,1,0,0,1,0,0,0,1,2,0,0,0,0,0,0,0,0,0,0,0,0,0,0],"split_type":[0,0,0,0,0,0,0,0,0,0,0,0,0,0,0,0,0,0,0,0,0,0,0,0,0,0,0],"sum_hessian":[4.244E3,3.406E3,8.38E2,2.432E3,9.74E2,8.34E2,4E0,2.426E3,6E0,8.4E1,8.9E2,2.86E2,5.48E2,2E0,2E0,1.04E3,1.386E3,4E0,2E0,4.8E1,3.6E1,7.84E2,1.06E2,