{"learner":{"attributes":{"best_iteration":"46","best_score":"0.25569497517965456"},"feature_names":[],"feature_types":[],"gradient_booster":{"model":{"cats":{"enc":[],"feature_segments":[],"sorted_idx":[]},"gbtree_model_param":{"num_parallel_tree":"1","num_trees":"50"},"iteration_indptr":[0,1,2,3,4,5,6,7,8,9,10,11,12,13,14,15,16,17,18,19,20,21,22,23,24,25,26,27,28,29,30,31,32,33,34,35,36,37,38,39,40,41,42,43,44,45,46,47,48,49,50],"tree_info":[0,0,0,0,0,0,0,0,0,0,0,0,0,0,0,0,0,0,0,0,0,0,0,0,0,0,0,0,0,0,0,0,0,0,0,0,0,0,0,0,0,0,0,0,0,0,0,0,0,0],"trees":[{"base_weights":[-7.37789E-1,-8.303787E-1,-3.3614194E-1,-8.695629E-1,-7.4265814E-1,3.2933104E-1,-1.3227917E0,-8.8744186E-2,-8.329981E-2,-7.700168E-1,-3.8372153E-1,1.4328068E-1,3.3213916E-1,-1.4208055E0,2.4984632E-1,-7.2419107E-1,-1.0916408E0,-4.7168353E-1,3.791263E-2,3.262338E0,-6.1650068E-2,-1.457823E0,1.0394068E-1,5.507036E-2,7.508921E-2,-7.5103456E-1,-6.360943E-1,-8.984575E-2,-1.3647959E-1,-6.8306826E-2,-4.1255093E-1,1.1730685E-1,4.5248434E-1,-1.704881E-1,7.5893414E-1,-1.5332516E0,-1.026686E0,1.6866505E-2,-1.4802729E-4,-7.729473E-2,-6.2214393E-2,1.5268946E-2,-6.5114E-2,-2.5790522E-2,-4.886387E-2,1.484094E-2,-4.695392E-2,3.7465822E-2,1.4858572E-1,-1.4058791E-1,-1.7154756E-1,2.3365682E-2,-1.5696543E-1],"categories":[],"categories_nodes":[],"categories_segments":[],"categories_sizes":[],"default_left":[0,0,0,0,0,0,0,0,0,0,0,0,0,0,0,0,0,0,0,0,0,0,0,0,0,0,0,0,0,0,0,0,0,0,0,0,0,0,0,0,0,0,0,0,0,0,0,0,0,0,0,0,0],"id":0,"left_children":[1,3,5,7,9,11,13,-1,-1,15,17,19,-1,21,23,25,27,29,-1,31,33,35,-1,37,-1,39,41,-1,-1,-1,43,-1,-1,45,47,49,51,-1,-1,-1,-1,-1,-1,-1,-1,-1,-1,-1,-1,-1,-1,-1,-1],"loss_changes":[8.4547485E1,5.7235107E0,2.8211218E2,9.429932E-2,5.39032E0,1.4258931E2,2.702121E1,0E0,0E0,7.124115E0,3.0641975E0,1.5552448E2,0E0,1.6359863E1,1.0321565E0,6.408386E-1,2.2037735E0,2.0568848E-1,0E0,3.4257767E1,2.0581556E1,3.66156E0,0E0,5.8064334E-2,0E0,5.274048E-1,1.487957E0,0E0,0E0,0E0,2.6227713E-1,0E0,0E0,1.9429115E1,6.985466E0,7.2161865E-1,1.8843569E1,0E0,0E0,0E0,0E0,0E0,0E0,0E0,0E0,0E0,0E0,0E0,0E0,0E0,0E0,0E0,0E0],"parents":[2147483647,0,0,1,1,2,2,3,3,4,4,5,5,6,6,9,9,10,10,11,11,13,13,14,14,15,15,16,16,17,17,19,19,20,20,21,21,23,23,25,25,26,26,30,30,33,33,34,34,35,35,36,36],"right_children":[2,4,6,8,10,12,14,-1,-1,16,18,20,-1,22,24,26,28,30,-1,32,34,36,-1,38,-1,40,42,-1,-1,-1,44,-1,-1,46,48,50,52,-1,-1,-1,-1,-1,-1,-1,-1,-1,-1,-1,-1,-1,-1,-1,-1],"split_conditions":[1.0214134E-1,-3.5808378E-1,1.5800095E0,-3.4511127E-2,2.6563566E0,2.8648908E0,2.6563566E0,-8.8744186E-2,-8.329981E-2,1.5800095E0,-7.4064486E-2,-8.417714E-1,3.3213916E-1,6.088294E0,2.549154E-1,-8.007865E-2,-1.5236427E-1,-3.3709416E-1,3.791263E-2,5.758464E-1,1.1360599E0,4.8166027E0,1.0394068E-1,1.2406129E-1,7.508921E-2,5.036624E-1,-8.417714E-1,-8.984575E-2,-1.3647959E-1,-6.8306826E-2,-3.240892E-1,1.1730685E-1,4.5248434E-1,-3.4511127E-2,5.036624E-1,1.8175697E0,5.563554E0,1.6866505E-2,-1.4802729E-4,-7.729473E-2,-6.2214393E-2,1.5268946E-2,-6.5114E-2,-2.5790522E-2,-4.886387E-2,1.484094E-2,-4.695392E-2,3.7465822E-2,1.4858572E-1,-1.4058791E-1,-1.7154756E-1,2.3365682E-2,-1.5696543E-1],"split_indices":[1,1,0,0,0,1,0,0,0,0,1,0,0,1,1,1,1,1,0,1,1,1,0,1,0,0,0,0,0,0,1,0,0,0,0,1,1,0,0,0,0,0,0,0,0,0,0,0,0,0,0,0,0],"split_type":[0,0,0,0,0,0,0,0,0,0,0,0,0,0,0,0,0,0,0,0,0,0,0,0,0,0,0,0,0,0,0,0,0,0,0,0,0,0,0,0,0,0,0,0,0,0,0,0,0,0,0,0,0],"sum_hessian":[2.28E3,1.852E3,4.28E2,1.274E3,5.78E2,2.56E2,1.72E2,8.4E2,4.34E2,5.36E2,4.2E1,2.42E2,1.4E1,1.62E2,1E1,4.72E2,6.4E1,3.8E1,4E0,1.4E1,2.28E2,1.6E2,2E0,8E0,2E0,3.56E2,1.16E2,4E1,2.4E1,6E0,3.2E1,6E0,8E0,2.02E2,2.6E1,1.34E2,2.6E1,2E0,6E0,3E2,5.6E1,2E0,1.14E2,1.2E1,2E1,9.8E1,1.04E2,1.8E1,8E0,8.4E1,5E1,8E0,1.8E1],"tree_param":{"num_deleted":"0","num_feature":"2","num_nodes":"53","size_leaf_vector":"1"}},{"base_weights":[-6.6769695E-1,-7.511899E-1,-3.0366823E-1,-7.6283944E-1,-5.5865324E-1,3.0050638E-1,-1.2206458E0,-7.4990493E-1,-8.847954E-1,-5.965446E-1,3.487962E-2,1.319309E-1,3.011395E-1,-1.3135499E0,2.3320784E-1,-7.7394724E-1,-6.234076E-1,-8.2348205E-2,-1.299691E-1,-6.891749E-2,-3.7355807E-1,2.9740903E0,-5.4812856E-2,-1.3488202E0,9.70113E-2,5.1420934E-2,7.008326E-2,-7.849889E-1,-7.114436E-1,-6.5305203E-1,-4.9698278E-1,-2.3409856E-2,-4.4210166E-1,1.0725198E-1,4.1226348E-1,-1.535975E-1,6.899315E-1,-1.4250587E-1,-9.289655E-1,1.5742071E-2,-1.3533916E-4,-7.988032E-2,-7.395573E-2,-5.6928396E-2,-7.320889E-2,-6.0047735E-2,-8.371597E-2,-3.2619532E-2,-5.9060562E-2,-6.738054E-2,-3.044998E-2,1.33718345E-2,-4.2303246E-2,3.391643E-2,1.353781E-1,2.1288732E-2,-1.4209503E-1],"categories":[],"categories_nodes":[],"categories_segments":[],"categories_sizes":[],"default_left":[0,0,0,0,0,0,0,0,0,0,0,0,0,0,0,0,0,0,0,0,0,0,0,0,0,0,0,0,0,0,0,0,0,0,0,0,0,0,0,0,0,0,0,0,0,0,0,0,0,0,0,0,0,0,0,0,0],"id":1,"left_children":[1,3,5,7,9,11,13,15,17,19,-1,21,-1,23,25,27,29,-1,-1,-1,31,33,35,37,-1,39,-1,41,43,45,47,-1,49,-1,-1,51,53,-1,55,-1,-1,-1,-1,-1,-1,-1,-1,-1,-1,-1,-1,-1,-1,-1,-1,-1,-1],"loss_changes":[6.8735535E1,3.7120361E0,2.3582301E2,2.076538E0,3.955986E0,1.17048965E2,2.313295E1,4.3136597E0,3.0253448E0,1.9113617E0,0E0,1.2913661E2,0E0,1.4115265E1,8.9905113E-1,3.531494E-1,6.3861847E-1,0E0,0E0,0E0,2.1195364E-1,2.833899E1,1.6953344E1,3.7015991E0,0E0,5.0559655E-2,0E0,1.07788086E-1,1.9661713E-1,1.4815903E0,6.547966E-1,0E0,4.6436644E-1,0E0,0E0,1.5771395E1,5.8279724E0,0E0,1.5470404E1,0E0,0E0,0E0,0E0,0E0,0E0,0E0,0E0,0E0,0E0,0E0,0E0,0E0,0E0,0E0,0E0,0E0,0E0],"parents":[2147483647,0,0,1,1,2,2,3,3,4,4,5,5,6,6,7,7,8,8,9,9,11,11,13,13,14,14,15,15,16,16,20,20,21,21,22,22,23,23,25,25,27,27,28,28,29,29,30,30,32,32,35,35,36,36,38,38],"right_children":[2,4,6,8,10,12,14,16,18,20,-1,22,-1,24,26,28,30,-1,-1,-1,32,34,36,38,-1,40,-1,42,44,46,48,-1,50,-1,-1,52,54,-1,56,-1,-1,-1,-1,-1,-1,-1,-1,-1,-1,-1,-1,-1,-1,-1,-1,-1,-1],"split_conditions":[1.0214134E-1,2.6563566E0,1.5800095E0,1.5800095E0,-7.4064486E-2,2.8648908E0,2.6563566E0,-2.192954E-1,-6.1170608E-2,-3.3709416E-1,3.487962E-2,-8.417714E-1,3.011395E-1,6.088294E0,2.549154E-1,-3.5808378E-1,5.036624E-1,-8.2348205E-2,-1.299691E-1,-6.891749E-2,-3.240892E-1,5.758464E-1,1.1360599E0,4.8166027E0,9.70113E-2,1.2406129E-1,7.008326E-2,-3.4511127E-2,-8.417714E-1,-3.4511127E-2,-1.16890766E-1,-2.3409856E-2,-2.879014E-1,1.0725198E-1,4.1226348E-1,-3.4511127E-2,5.036624E-1,-1.4250587E-1,5.563554E0,1.5742071E-2,-1.3533916E-4,-7.988032E-2,-7.395573E-2,-5.6928396E-2,-7.320889E-2,-6.0047735E-2,-8.371597E-2,-3.2619532E-2,-5.9060562E-2,-6.738054E-2,-3.044998E-2,1.33718345E-2,-4.2303246E-2,3.391643E-2,1.353781E-1,2.1288732E-2,-1.4209503E-1],"split_indices":[1,0,0,0,1,1,0,1,1,1,0,0,0,1,1,1,0,0,0,0,1,1,1,1,0,1,0,0,0,0,1,0,1,0,0,0,0,0,1,0,0,0,0,0,0,0,0,0,0,0,0,0,0,0,0,0,0],"split_type":[0,0,0,0,0,0,0,0,0,0,0,0,0,0,0,0,0,0,0,0,0,0,0,0,0,0,0,0,0,0,0,0,0,0,0,0,0,0,0,0,0,0,0,0,0,0,0,0,0,0,0,0,0,0,0,0,0],"sum_hessian":[2.268E3,1.844E3,4.24E2,1.736E3,1.08E2,2.56E2,1.68E2,1.576E3,1.6E2,1.04E2,4E0,2.42E2,1.4E1,1.58E2,1E1,1.32E3,2.56E2,1.42E2,1.8E1,7.2E1,3.2E1,1.4E1,2.28E2,1.56E2,2E0,8E0,2E0,1.112E3,2.08E2,2.04E2,5.2E1,1.2E1,2E1,6E0,8E0,2.02E2,2.6E1,1.3E2,2.6E1,2E0,6E0,8.4E2,2.72E2,3E1,1.78E2,1.62E2,4.2E1,2E1,3.2E1,6E0,1.4E1,9.8E1,1.04E2,1.8E1,8E0,8E0,1.8E1],"tree_param":{"num_deleted":"0","num_feature":"2","num_nodes":"57","size_leaf_vector":"1"}},{"base_weights":[-6.001551E-1,-6.7087114E-1,-2.4943937E-1,-6.832042E-1,-4.7446525E-1,4.125247E-1,-1.1454186E0,-7.0879775E-1,-6.2762266E-1,-5.387012E-1,1.818292E-2,2.4257483E-1,2.7303314E-1,-1.2171414E0,2.170744E-1,-7.374616E-2,-6.936053E-2,-5.92391E-1,-8.9168996E-1,-6.212015E-2,-3.3987623E-1,2.7113156E0,4.944692E-2,-1.2508054E0,9.054389E-2,-1.2373924E-4,6.5411046E-2,-6.268337E-1,-5.1205415E-1,-7.575566E-2,-1.17656246E-1,-2.124895E-2,-4.025501E-1,9.8058954E-2,3.7561786E-1,-4.488363E-2,5.43848E-1,-1.3281778E-1,-8.4054327E-1,-6.484293E-2,-5.048276E-2,-3.8330268E-2,-6.8839E-2,-6.1605066E-2,-2.7607983E-2,2.3761392E-2,-2.9439429E-2,2.5036016E-2,1.2334448E-1,1.93964E-2,-1.286334E-1],"categories":[],"categories_nodes":[],"categories_segments":[],"categories_sizes":[],"default_left":[0,0,0,0,0,0,0,0,0,0,0,0,0,0,0,0,0,0,0,0,0,0,0,0,0,0,0,0,0,0,0,0,0,0,0,0,0,0,0,0,0,0,0,0,0,0,0,0,0,0,0],"id":2,"left_children":[1,3,5,7,9,11,13,15,17,19,-1,21,-1,23,25,-1,-1,27,29,-1,31,33,35,37,-1,-1,-1,39,41,-1,-1,-1,43,-1,-1,45,47,-1,49,-1,-1,-1,-1,-1,-1,-1,-1,-1,-1,-1,-1],"loss_changes":[5.620587E1,4.2563477E0,2.2763216E2,2.0830688E0,4.946087E0,8.639201E1,1.619284E1,1.4953613E-2,4.7654877E0,1.5111942E0,0E0,9.855996E1,0E0,1.2207993E1,8.5950047E-1,0E0,0E0,1.0763702E0,1.5923958E0,0E0,1.7792845E-1,2.3442307E1,9.025374E0,3.7402802E0,0E0,0E0,0E0,5.9217834E-1,3.300583E0,0E0,0E0,0E0,3.969519E-1,0E0,0E0,1.15591955E1,5.965232E0,0E0,1.2701189E1,0E0,0E0,0E0,0E0,0E0,0E0,0E0,0E0,0E0,0E0,0E0,0E0],"parents":[2147483647,0,0,1,1,2,2,3,3,4,4,5,5,6,6,7,7,8,8,9,9,11,11,13,13,14,14,17,17,18,18,20,20,21,21,22,22,23,23,27,27,28,28,32,32,35,35,36,36,38,38],"right_children":[2,4,6,8,10,12,14,16,18,20,-1,22,-1,24,26,-1,-1,28,30,-1,32,34,36,38,-1,-1,-1,40,42,-1,-1,-1,44,-1,-1,46,48,-1,50,-1,-1,-1,-1,-1,-1,-1,-1,-1,-1,-1,-1],"split_conditions":[2.1508761E-1,2.6563566E0,1.5800095E0,-3.5808378E-1,-7.4064486E-2,2.8648908E0,2.6563566E0,-5.7268465E-1,1.5800095E0,-3.3709416E-1,1.818292E-2,-8.417714E-1,2.7303314E-1,6.088294E0,2.549154E-1,-7.374616E-2,-6.936053E-2,-8.007865E-2,-6.1170608E-2,-6.212015E-2,-3.240892E-1,5.758464E-1,1.1360599E0,4.8166027E0,9.054389E-2,-1.2373924E-4,6.5411046E-2,5.036624E-1,-3.4511127E-2,-7.575566E-2,-1.17656246E-1,-2.124895E-2,-2.879014E-1,9.8058954E-2,3.7561786E-1,-3.4511127E-2,5.036624E-1,-1.3281778E-1,5.563554E0,-6.484293E-2,-5.048276E-2,-3.8330268E-2,-6.8839E-2,-6.1605066E-2,-2.7607983E-2,2.3761392E-2,-2.9439429E-2,2.5036016E-2,1.2334448E-1,1.93964E-2,-1.286334E-1],"split_indices":[1,0,0,1,1,1,0,0,0,1,0,0,0,1,1,0,0,1,1,0,1,1,1,1,0,0,0,0,0,0,0,0,1,0,0,0,0,0,1,0,0,0,0,0,0,0,0,0,0,0,0],"split_type":[0,0,0,0,0,0,0,0,0,0,0,0,0,0,0,0,0,0,0,0,0,0,0,0,0,0,0,0,0,0,0,0,0,0,0,0,0,0,0,0,0,0,0,0,0,0,0,0,0,0,0],"sum_hessian":[2.272E3,1.89E3,3.82E2,1.776E3,1.14E2,2.2E2,1.62E2,1.208E3,5.68E2,1.04E2,1E1,2.06E2,1.4E1,1.54E2,8E0,4.02E2,8.06E2,5.04E2,6.4E1,7.2E1,3.2E1,1.4E1,1.92E2,1.52E2,2E0,6E0,2E0,3.48E2,1.56E2,4.6E1,1.8E1,1.2E1,2E1,6E0,8E0,1.62E2,3E1,1.26E2,2.6E1,2.92E2,5.6E1,9.2E1,6.4E1,6E0,1.4E1,7.6E1,8.6E1,2.2E1,8E0,8E0,1.8E1],"tree_param":{"num_deleted":"0","num_feature":"2","num_nodes":"51","size_leaf_vector":"1"}},{"base_weights":[-5.410552E-1,-6.0544556E-1,-2.2239834E-1,-6.2603045E-1,-5.184835E-1,3.7529674E-1,-1.0314058E0,-6.3056475E-1,-5.440446E-1,-5.491168E-1,-7.745576E-2,2.2129503E-1,2.4755006E-1,-1.0964048E0,2.026211E-1,-6.380364E-1,-5.87993E-1,-5.9847355E-2,-4.6170965E-2,-5.002291E-1,-8.463619E-1,-2.503124E-1,1.6529927E-2,2.4717624E0,4.524162E-2,-1.1273069E0,8.450763E-2,-1.1313303E-4,6.1050307E-2,-6.6389844E-2,-6.2433075E-2,-4.5144074E-2,-6.064962E-1,-4.5960394E-1,-5.6231266E-1,-5.5657633E-2,-9.7797446E-2,-9.997684E-3,-4.0784206E-2,8.96539E-2,3.422296E-1,-4.0430102E-2,4.9424964E-1,-1.1964057E-1,-7.6053476E-1,-5.451546E-2,-6.405195E-2,-5.258408E-2,-2.752593E-2,-7.1748205E-2,-4.3668784E-2,2.141611E-2,-2.6529325E-2,2.2641266E-2,1.1238054E-1,1.767227E-2,-1.1644707E-1],"categories":[],"categories_nodes":[],"categories_segments":[],"categories_sizes":[],"default_left":[0,0,0,0,0,0,0,0,0,0,0,0,0,0,0,0,0,0,0,0,0,0,0,0,0,0,0,0,0,0,0,0,0,0,0,0,0,0,0,0,0,0,0,0,0,0,0,0,0,0,0,0,0,0,0,0,0],"id":3,"left_children":[1,3,5,7,9,11,13,15,17,19,21,23,-1,25,27,29,31,-1,-1,33,35,37,-1,39,41,43,-1,-1,-1,-1,-1,-1,45,47,49,-1,-1,-1,-1,-1,-1,51,53,-1,55,-1,-1,-1,-1,-1,-1,-1,-1,-1,-1,-1,-1],"loss_changes":[4.642163E1,3.0533447E0,1.8558282E2,2.2241211E-1,4.9156876E0,7.093131E1,1.3296448E1,8.129883E-2,1.1356163E-1,4.5609665E0,1.0904219E0,8.1902084E1,0E0,1.0252045E1,7.486532E-1,1.4038086E-2,2.9975128E-1,0E0,0E0,4.9063873E-1,1.2482376E0,3.1445992E-1,0E0,1.939132E1,7.4441695E0,2.967636E0,0E0,0E0,0E0,0E0,0E0,0E0,6.1958313E-2,2.1141815E0,1.8894081E0,0E0,0E0,0E0,0E0,0E0,0E0,9.38827E0,4.972724E0,0E0,1.0427771E1,0E0,0E0,0E0,0E0,0E0,0E0,0E0,0E0,0E0,0E0,0E0,0E0],"parents":[2147483647,0,0,1,1,2,2,3,3,4,4,5,5,6,6,7,7,8,8,9,9,10,10,11,11,13,13,14,14,15,15,16,16,19,19,20,20,21,21,23,23,24,24,25,25,32,32,33,33,34,34,41,41,42,42,44,44],"right_children":[2,4,6,8,10,12,14,16,18,20,22,24,-1,26,28,30,32,-1,-1,34,36,38,-1,40,42,44,-1,-1,-1,-1,-1,-1,46,48,50,-1,-1,-1,-1,-1,-1,52,54,-1,56,-1,-1,-1,-1,-1,-1,-1,-1,-1,-1,-1,-1],"split_conditions":[2.1508761E-1,-2.192954E-1,1.5800095E0,2.6563566E0,2.6563566E0,2.8648908E0,2.6563566E0,-3.5808378E-1,-4.7213012E-1,1.5800095E0,-7.4064486E-2,-8.417714E-1,2.4755006E-1,6.088294E0,2.549154E-1,-5.7268465E-1,-8.417714E-1,-5.9847355E-2,-4.6170965E-2,-3.4511127E-2,-1.6959903E-1,-2.0894623E-1,1.6529927E-2,5.758464E-1,1.1360599E0,4.8166027E0,8.450763E-2,-1.1313303E-4,6.1050307E-2,-6.6389844E-2,-6.2433075E-2,-4.5144074E-2,-3.240892E-1,-2.4385438E-3,5.036624E-1,-5.5657633E-2,-9.7797446E-2,-9.997684E-3,-4.0784206E-2,8.96539E-2,3.422296E-1,-3.4511127E-2,5.036624E-1,-1.1964057E-1,5.563554E0,-5.451546E-2,-6.405195E-2,-5.258408E-2,-2.752593E-2,-7.1748205E-2,-4.3668784E-2,2.141611E-2,-2.6529325E-2,2.2641266E-2,1.1238054E-1,1.767227E-2,-1.1644707E-1],"split_indices":[1,1,0,0,0,1,0,1,1,0,1,0,0,1,1,0,0,0,0,0,1,1,0,1,1,1,0,0,0,0,0,0,1,1,0,0,0,0,0,0,0,0,0,0,1,0,0,0,0,0,0,0,0,0,0,0,0],"split_type":[0,0,0,0,0,0,0,0,0,0,0,0,0,0,0,0,0,0,0,0,0,0,0,0,0,0,0,0,0,0,0,0,0,0,0,0,0,0,0,0,0,0,0,0,0,0,0,0,0,0,0,0,0,0,0,0,0],"sum_hessian":[2.268E3,1.886E3,3.82E2,1.52E3,3.66E2,2.2E2,1.62E2,1.434E3,8.6E1,3.42E2,2.4E1,2.06E2,1.4E1,1.54E2,8E0,1.208E3,2.26E2,4.8E1,3.8E1,2.96E2,4.6E1,1.4E1,1E1,1.4E1,1.92E2,1.52E2,2E0,6E0,2E0,4.02E2,8.06E2,3E1,1.96E2,1.84E2,1.12E2,1.6E1,3E1,8E0,6E0,6E0,8E0,1.62E2,3E1,1.26E2,2.6E1,7.6E1,1.2E2,1.34E2,5E1,4.8E1,6.4E1,7.6E1,8.6E1,2.2E1,8E0,8E0,1.8E1],"tree_param":{"num_deleted":"0","num_feature":"2","num_nodes":"57","size_leaf_vector":"1"}},{"base_weights":[-4.8784193E-1,-5.464884E-1,-1.9823587E-1,-5.5530506E-1,-4.0073618E-1,3.4142923E-1,-9.2871284E-1,-5.4517597E-1,-6.5333563E-1,-4.567793E-1,1.5027207E-2,2.2533784E0,2.0123278E-1,-9.8762816E-1,1.8912978E-1,-5.6429553E-1,-4.5711422E-1,-6.063673E-2,-9.724485E-2,-4.9085873E-1,-2.286666E-1,8.196928E-2,3.118092E-1,4.139055E-2,2.2444539E-1,-1.0160037E0,7.8873776E-2,-1.034362E-4,5.698029E-2,-5.7430357E-1,-5.2994706E-2,-4.4023216E-1,-5.855938E-1,-5.3984758E-2,-4.1672256E-2,-9.109E-3,-3.728842E-2,-3.6418475E-2,4.4918025E-1,-1.0777072E-1,-6.881396E-1,-5.8339328E-2,-5.2624065E-2,-4.543738E-2,1.4185796E-2,-6.909077E-2,-3.866279E-2,1.9302314E-2,-2.3906887E-2,2.047558E-2,1.0239116E-1,1.6101405E-2,-1.0541524E-1],"categories":[],"categories_nodes":[],"categories_segments":[],"categories_sizes":[],"default_left":[0,0,0,0,0,0,0,0,0,0,0,0,0,0,0,0,0,0,0,0,0,0,0,0,0,0,0,0,0,0,0,0,0,0,0,0,0,0,0,0,0,0,0,0,0,0,0,0,0,0,0,0,0],"id":4,"left_children":[1,3,5,7,9,11,13,15,17,19,-1,21,23,25,27,29,31,-1,-1,33,35,-1,-1,37,-1,39,-1,-1,-1,41,-1,43,45,-1,-1,-1,-1,47,49,-1,51,-1,-1,-1,-1,-1,-1,-1,-1,-1,-1,-1,-1],"loss_changes":[3.8361206E1,2.1972656E0,1.5130066E2,1.4043579E0,3.4963436E0,5.8785275E1,1.0921646E1,2.4578552E0,1.8234406E0,6.7292786E-1,0E0,1.6040024E1,6.7511856E1,8.614197E0,6.5210277E-1,1.4974976E-1,3.7771988E-1,0E0,0E0,9.100342E-2,2.6364845E-1,0E0,0E0,6.140195E0,0E0,2.3536224E0,0E0,0E0,0E0,1.3467407E-1,0E0,2.2293968E0,3.8244534E-1,0E0,0E0,0E0,0E0,7.625064E0,4.145178E0,0E0,8.561363E0,0E0,0E0,0E0,0E0,0E0,0E0,0E0,0E0,0E0,0E0,0E0,0E0],"parents":[2147483647,0,0,1,1,2,2,3,3,4,4,5,5,6,6,7,7,8,8,9,9,11,11,12,12,13,13,14,14,15,15,16,16,19,19,20,20,23,23,25,25,29,29,31,31,32,32,37,37,38,38,40,40],"right_children":[2,4,6,8,10,12,14,16,18,20,-1,22,24,26,28,30,32,-1,-1,34,36,-1,-1,38,-1,40,-1,-1,-1,42,-1,44,46,-1,-1,-1,-1,48,50,-1,52,-1,-1,-1,-1,-1,-1,-1,-1,-1,-1,-1,-1],"split_conditions":[2.1508761E-1,2.6563566E0,1.5800095E0,1.5800095E0,-7.4064486E-2,-8.417714E-1,2.6563566E0,-2.192954E-1,-6.1170608E-2,-2.879014E-1,1.5027207E-2,5.758464E-1,2.8648908E0,6.088294E0,2.549154E-1,-3.4511127E-2,1.2406129E-1,-6.063673E-2,-9.724485E-2,-4.7213012E-1,-2.0894623E-1,8.196928E-2,3.118092E-1,1.1360599E0,2.2444539E-1,4.8166027E0,7.8873776E-2,-1.034362E-4,5.698029E-2,-3.5808378E-1,-5.2994706E-2,1.0214134E-1,1.6890514E-1,-5.3984758E-2,-4.1672256E-2,-9.109E-3,-3.728842E-2,-3.4511127E-2,5.036624E-1,-1.0777072E-1,5.563554E0,-5.8339328E-2,-5.2624065E-2,-4.543738E-2,1.4185796E-2,-6.909077E-2,-3.866279E-2,1.9302314E-2,-2.3906887E-2,2.047558E-2,1.0239116E-1,1.6101405E-2,-1.0541524E-1],"split_indices":[1,0,0,0,1,0,0,1,1,1,0,1,1,1,1,0,1,0,0,1,1,0,0,1,0,1,0,0,0,1,0,1,1,0,0,0,0,0,0,0,1,0,0,0,0,0,0,0,0,0,0,0,0],"split_type":[0,0,0,0,0,0,0,0,0,0,0,0,0,0,0,0,0,0,0,0,0,0,0,0,0,0,0,0,0,0,0,0,0,0,0,0,0,0,0,0,0,0,0,0,0,0,0,0,0,0,0,0,0],"sum_hessian":[2.264E3,1.882E3,3.82E2,1.772E3,1.1E2,2.2E2,1.62E2,1.612E3,1.6E2,1E2,1E1,1.4E1,2.06E2,1.54E2,8E0,1.32E3,2.92E2,1.42E2,1.8E1,8.6E1,1.4E1,6E0,8E0,1.92E2,1.4E1,1.52E2,2E0,6E0,2E0,1.01E3,3.1E2,2.62E2,3E1,4.8E1,3.8E1,8E0,6E0,1.62E2,3E1,1.26E2,2.6E1,8.4E2,1.7E2,2.56E2,6E0,1.8E1,1.2E1,7.6E1,8.6E1,2.2E1,8E0,8E0,1.8E1],"tree_param":{"num_deleted":"0","num_feature":"2","num_nodes":"53","size_leaf_vector":"1"}},{"base_weights":[-4.3999603E-1,-4.9112388E-1,-1.815474E-1,-5.0749815E-1,-4.2192394E-1,3.1061885E-1,-8.8210994E-1,-5.178577E-1,-4.831569E-1,-4.4669214E-1,-6.522705E-2,2.0542924E0,1.827651E-1,-9.409243E-1,1.7653646E-1,-4.946778E-2,-5.311873E-2,-4.9089193E-2,-3.6608505E-1,-4.064279E-1,-6.91624E-1,-2.088931E-1,1.3661096E-2,7.494334E-2,2.8409284E-1,3.786426E-2,2.0349716E-1,-9.691333E-1,7.3615536E-2,-9.456958E-5,5.31816E-2,-1.6607393E-2,-4.0438112E-2,-3.7156025E-1,-4.5991534E-1,-4.4712287E-1,-8.0339484E-2,-8.299312E-3,-3.4092266E-2,-5.5828236E-2,3.6599687E-1,-1.0396069E0,-6.226336E-1,-4.7191385E-2,-2.6721139E-2,-5.9979167E-2,-3.473945E-2,-5.6881517E-2,-3.2903478E-2,2.1244839E-2,-3.6110397E-2,-4.0269303E-3,9.89714E-2,-6.967668E-2,-1.07154444E-1,1.4670168E-2,-9.542854E-2],"categories":[],"categories_nodes":[],"categories_segments":[],"categories_sizes":[],"default_left":[0,0,0,0,0,0,0,0,0,0,0,0,0,0,0,0,0,0,0,0,0,0,0,0,0,0,0,0,0,0,0,0,0,0,0,0,0,0,0,0,0,0,0,0,0,0,0,0,0,0,0,0,0,0,0,0,0],"id":5,"left_children":[1,3,5,7,9,11,13,15,17,19,21,23,25,27,29,-1,-1,-1,31,33,35,37,-1,-1,-1,39,-1,41,-1,-1,-1,-1,-1,43,45,47,-1,-1,-1,49,51,53,55,-1,-1,-1,-1,-1,-1,-1,-1,-1,-1,-1,-1,-1,-1],"loss_changes":[2.9787537E1,1.9240723E0,1.2957146E2,1.3330078E-1,3.2132034E0,4.8893227E1,9.816971E0,6.262207E-2,2.4499512E-1,3.1015778E0,7.534688E-1,1.3267647E1,5.5478905E1,7.6678314E0,5.680049E-1,0E0,0E0,0E0,1.8561077E-1,3.8301468E-1,9.252033E-1,2.2104353E-1,0E0,0E0,0E0,5.953941E0,0E0,2.8934784E0,0E0,0E0,0E0,0E0,0E0,1.8111782E0,1.5701427E0,5.713725E-2,0E0,0E0,0E0,1.2443367E1,1.0935846E1,5.5636597E-1,7.0290833E0,0E0,0E0,0E0,0E0,0E0,0E0,0E0,0E0,0E0,0E0,0E0,0E0,0E0,0E0],"parents":[2147483647,0,0,1,1,2,2,3,3,4,4,5,5,6,6,7,7,8,8,9,9,10,10,11,11,12,12,13,13,14,14,18,18,19,19,20,20,21,21,25,25,27,27,33,33,34,34,35,35,39,39,40,40,41,41,42,42],"right_children":[2,4,6,8,10,12,14,16,18,20,22,24,26,28,30,-1,-1,-1,32,34,36,38,-1,-1,-1,40,-1,42,-1,-1,-1,-1,-1,44,46,48,-1,-1,-1,50,52,54,56,-1,-1,-1,-1,-1,-1,-1,-1,-1,-1,-1,-1,-1,-1],"split_conditions":[2.1508761E-1,-2.192954E-1,1.5800095E0,-4.4690832E-1,2.6563566E0,-8.417714E-1,2.6563566E0,-5.765403E-1,2.6563566E0,1.5800095E0,-7.4064486E-2,5.758464E-1,2.8648908E0,6.088294E0,2.549154E-1,-4.946778E-2,-5.311873E-2,-4.9089193E-2,-4.1949335E-1,-3.4511127E-2,-1.6959903E-1,-2.0894623E-1,1.3661096E-2,7.494334E-2,2.8409284E-1,5.036624E-1,2.0349716E-1,4.8166027E0,7.3615536E-2,-9.456958E-5,5.31816E-2,-1.6607393E-2,-4.0438112E-2,-8.007865E-2,5.036624E-1,-1.8649913E-1,-8.0339484E-2,-8.299312E-3,-3.4092266E-2,-3.4511127E-2,7.505366E-1,3.3640027E-1,5.563554E0,-4.7191385E-2,-2.6721139E-2,-5.9979167E-2,-3.473945E-2,-5.6881517E-2,-3.2903478E-2,2.1244839E-2,-3.6110397E-2,-4.0269303E-3,9.89714E-2,-6.967668E-2,-1.07154444E-1,1.4670168E-2,-9.542854E-2],"split_indices":[1,1,0,1,0,0,0,1,0,0,1,1,1,1,1,0,0,0,1,0,1,1,0,0,0,0,0,1,0,0,0,0,0,1,0,1,0,0,0,0,1,1,1,0,0,0,0,0,0,0,0,0,0,0,0,0,0],"split_type":[0,0,0,0,0,0,0,0,0,0,0,0,0,0,0,0,0,0,0,0,0,0,0,0,0,0,0,0,0,0,0,0,0,0,0,0,0,0,0,0,0,0,0,0,0,0,0,0,0,0,0,0,0,0,0,0,0],"sum_hessian":[2.26E3,1.886E3,3.74E2,1.52E3,3.66E2,2.2E2,1.54E2,1.052E3,4.68E2,3.42E2,2.4E1,1.4E1,2.06E2,1.46E2,8E0,3.98E2,6.54E2,4.36E2,3.2E1,2.96E2,4.6E1,1.4E1,1E1,6E0,8E0,1.92E2,1.4E1,1.44E2,2E0,6E0,2E0,6E0,2.6E1,1.84E2,1.12E2,1.6E1,3E1,8E0,6E0,1.5E2,4.2E1,1.18E2,2.6E1,9.2E1,9.2E1,4.8E1,6.4E1,6E0,1E1,8E1,7E1,2.6E1,1.6E1,1.2E1,1.06E2,8E0,1.8E1],"tree_param":{"num_deleted":"0","num_feature":"2","num_nodes":"57","size_leaf_vector":"1"}},{"base_weights":[-3.967613E-1,-4.418481E-1,-1.5232195E-1,-4.503432E-1,-3.081765E-1,3.3858302E-1,-8.267058E-1,-4.481805E-1,-9.3687534E-2,-3.7046245E-1,8.000336E-2,1.8727989E0,2.1632217E-1,-8.519755E-1,6.870783E-2,-4.5046765E-1,-3.8790092E-2,-3.9717537E-1,-1.908299E-1,1.2419178E-2,-8.6464206E-5,6.851963E-2,2.588401E-1,7.7073E-2,1.8450409E-1,-8.7399644E-1,4.9636163E-2,-4.418852E-1,-5.3365415E-1,-1.2231182E-2,8.589836E-3,-4.3582395E-2,-3.3843294E-1,-7.561595E-3,-3.1170074E-2,3.4605464E-1,-7.833302E-2,-9.371322E-1,-5.633612E-1,-4.623993E-2,-3.8833387E-2,-4.939742E-2,-8.0421075E-2,-3.0381361E-2,-4.532909E-2,-8.293823E-3,8.8145755E-2,-3.255022E-2,3.3160523E-2,-6.324499E-2,-9.653915E-2,1.3366151E-2,-8.638793E-2],"categories":[],"categories_nodes":[],"categories_segments":[],"categories_sizes":[],"default_left":[0,0,0,0,0,0,0,0,0,0,0,0,0,0,0,0,0,0,0,0,0,0,0,0,0,0,0,0,0,0,0,0,0,0,0,0,0,0,0,0,0,0,0,0,0,0,0,0,0,0,0,0,0],"id":6,"left_children":[1,3,5,7,9,11,13,15,-1,17,19,21,23,25,-1,27,29,31,33,-1,-1,-1,-1,35,-1,37,-1,39,41,-1,-1,-1,43,-1,-1,45,47,49,51,-1,-1,-1,-1,-1,-1,-1,-1,-1,-1,-1,-1,-1,-1],"loss_changes":[2.4807037E1,2.0244446E0,1.17143524E2,1.4625244E0,2.8584824E0,3.8047653E1,6.2850494E0,1.652008E0,0E0,4.088564E-1,6.0855687E-2,1.0974201E1,4.3176163E1,4.798485E0,0E0,1.0300293E0,1.2506253E-1,5.0019264E-2,1.8532056E-1,0E0,0E0,0E0,0E0,7.425949E0,0E0,2.315834E0,0E0,1.5924072E0,1.3311806E0,0E0,0E0,0E0,1.736021E-2,0E0,0E0,1.5002567E1,1.1557561E1,4.1403198E-1,5.771102E0,0E0,0E0,0E0,0E0,0E0,0E0,0E0,0E0,0E0,0E0,0E0,0E0,0E0,0E0],"parents":[2147483647,0,0,1,1,2,2,3,3,4,4,5,5,6,6,7,7,9,9,10,10,11,11,12,12,13,13,15,15,16,16,17,17,18,18,23,23,25,25,27,27,28,28,32,32,35,35,36,36,37,37,38,38],"right_children":[2,4,6,8,10,12,14,16,-1,18,20,22,24,26,-1,28,30,32,34,-1,-1,-1,-1,36,-1,38,-1,40,42,-1,-1,-1,44,-1,-1,46,48,50,52,-1,-1,-1,-1,-1,-1,-1,-1,-1,-1,-1,-1,-1,-1],"split_conditions":[2.626087E-1,2.6563566E0,1.5800095E0,2.549154E-1,-7.4064486E-2,-8.417714E-1,6.088294E0,2.1508761E-1,-9.3687534E-2,-2.879014E-1,1.2406129E-1,5.758464E-1,2.8648908E0,2.6563566E0,6.870783E-2,1.5800095E0,-5.7268465E-1,-4.7213012E-1,-2.0894623E-1,1.2419178E-2,-8.6464206E-5,6.851963E-2,2.588401E-1,-3.4511127E-2,1.8450409E-1,4.8166027E0,4.9636163E-2,-3.3709416E-1,-6.1170608E-2,-1.2231182E-2,8.589836E-3,-4.3582395E-2,-3.240892E-1,-7.561595E-3,-3.1170074E-2,-5.7268465E-1,5.036624E-1,3.3640027E-1,5.563554E0,-4.623993E-2,-3.8833387E-2,-4.939742E-2,-8.0421075E-2,-3.0381361E-2,-4.532909E-2,-8.293823E-3,8.8145755E-2,-3.255022E-2,3.3160523E-2,-6.324499E-2,-9.653915E-2,1.3366151E-2,-8.638793E-2],"split_indices":[1,0,0,1,1,0,1,1,0,1,1,1,1,0,0,0,0,1,1,0,0,0,0,0,0,1,0,1,1,0,0,0,1,0,0,0,0,1,1,0,0,0,0,0,0,0,0,0,0,0,0,0,0],"split_type":[0,0,0,0,0,0,0,0,0,0,0,0,0,0,0,0,0,0,0,0,0,0,0,0,0,0,0,0,0,0,0,0,0,0,0,0,0,0,0,0,0,0,0,0,0,0,0,0,0,0,0,0,0],"sum_hessian":[2.256E3,1.904E3,3.52E2,1.788E3,1.16E2,2.04E2,1.48E2,1.782E3,6E0,1E2,1.6E1,1.4E1,1.9E2,1.46E2,2E0,1.772E3,1E1,8.6E1,1.4E1,1E1,6E0,6E0,8E0,1.76E2,1.4E1,1.44E2,2E0,1.612E3,1.6E2,6E0,4E0,4.8E1,3.8E1,8E0,6E0,6.4E1,1.12E2,1.18E2,2.6E1,1.16E3,4.52E2,1.42E2,1.8E1,3.2E1,6E0,3.6E1,2.8E1,7E1,4.2E1,1.2E1,1.06E2,8E0,1.8E1],"tree_param":{"num_deleted":"0","num_feature":"2","num_nodes":"53","size_leaf_vector":"1"}},{"base_weights":[-3.579091E-1,-3.9879435E-1,-1.3671708E-1,-4.0644896E-1,-2.7860406E-1,3.0035967E-1,-7.657676E-1,-4.0444934E-1,-8.565717E-2,-3.349808E-1,7.2728485E-2,1.7073431E0,1.9058986E-1,-7.899309E-1,6.412731E-2,-4.0651652E-1,-3.524213E-2,-3.5882902E-1,-1.7432901E-1,1.1290164E-2,-7.905364E-5,6.264652E-2,2.3583212E-1,6.669871E-2,1.6728371E0,-8.109924E-1,4.632708E-2,-3.988014E-1,-4.8109505E-1,-1.1182796E-2,7.902646E-3,-3.8818624E-2,-2.9902673E-1,-6.889452E-3,-2.849835E-2,2.9041052E-1,-7.049434E-2,2.0452069E-1,1.1973455E-1,-8.619669E-1,-6.319849E-1,-4.1315578E-2,-3.3291906E-2,-4.3906044E-2,-6.922011E-2,-1.2579784E-2,-3.3286285E-2,-7.4868584E-3,6.9116555E-2,-2.9341046E-2,2.9921582E-2,-7.640336E-2,-1.0416003E-1,-3.428647E-2,-9.9462084E-2],"categories":[],"categories_nodes":[],"categories_segments":[],"categories_sizes":[],"default_left":[0,0,0,0,0,0,0,0,0,0,0,0,0,0,0,0,0,0,0,0,0,0,0,0,0,0,0,0,0,0,0,0,0,0,0,0,0,0,0,0,0,0,0,0,0,0,0,0,0,0,0,0,0,0,0],"id":7,"left_children":[1,3,5,7,9,11,13,15,-1,17,19,21,23,25,-1,27,29,31,33,-1,-1,-1,-1,35,37,39,-1,41,43,-1,-1,-1,45,-1,-1,47,49,-1,-1,51,53,-1,-1,-1,-1,-1,-1,-1,-1,-1,-1,-1,-1,-1,-1],"loss_changes":[2.0320465E1,1.6357117E0,9.728501E1,1.2601929E0,2.3417788E0,3.195345E1,5.436386E0,1.3434448E0,0E0,3.244028E-1,5.02986E-2,9.077011E0,3.5697704E1,4.1501007E0,0E0,8.2598877E-1,1.0510227E-1,3.6663055E-2,1.5536821E-1,0E0,0E0,0E0,0E0,5.575671E0,2.0706177E-1,7.418518E-1,0E0,1.384079E0,1.1247597E0,0E0,0E0,0E0,1.5155268E-1,0E0,0E0,1.015248E1,9.400615E0,0E0,0E0,1.0865326E0,3.3285675E0,0E0,0E0,0E0,0E0,0E0,0E0,0E0,0E0,0E0,0E0,0E0,0E0,0E0,0E0],"parents":[2147483647,0,0,1,1,2,2,3,3,4,4,5,5,6,6,7,7,9,9,10,10,11,11,12,12,13,13,15,15,16,16,17,17,18,18,23,23,24,24,25,25,27,27,28,28,32,32,35,35,36,36,39,39,40,40],"right_children":[2,4,6,8,10,12,14,16,-1,18,20,22,24,26,-1,28,30,32,34,-1,-1,-1,-1,36,38,40,-1,42,44,-1,-1,-1,46,-1,-1,48,50,-1,-1,52,54,-1,-1,-1,-1,-1,-1,-1,-1,-1,-1,-1,-1,-1,-1],"split_conditions":[2.626087E-1,2.6563566E0,1.5800095E0,2.549154E-1,-7.4064486E-2,-8.417714E-1,6.088294E0,2.1508761E-1,-8.565717E-2,-2.879014E-1,1.2406129E-1,5.758464E-1,2.8648908E0,2.6563566E0,6.412731E-2,1.5800095E0,-5.7268465E-1,-4.4690832E-1,-2.0894623E-1,1.1290164E-2,-7.905364E-5,6.264652E-2,2.3583212E-1,-3.4511127E-2,3.160057E0,3.6787734E0,4.632708E-2,-2.192954E-1,-1.5236427E-1,-1.1182796E-2,7.902646E-3,-3.8818624E-2,-4.1949335E-1,-6.889452E-3,-2.849835E-2,-5.7268465E-1,5.036624E-1,2.0452069E-1,1.1973455E-1,1.8175697E0,5.563554E0,-4.1315578E-2,-3.3291906E-2,-4.3906044E-2,-6.922011E-2,-1.2579784E-2,-3.3286285E-2,-7.4868584E-3,6.9116555E-2,-2.9341046E-2,2.9921582E-2,-7.640336E-2,-1.0416003E-1,-3.428647E-2,-9.9462084E-2],"split_indices":[1,0,0,1,1,0,1,1,0,1,1,1,1,0,0,0,0,1,1,0,0,0,0,0,1,1,0,1,1,0,0,0,1,0,0,0,0,0,0,1,1,0,0,0,0,0,0,0,0,0,0,0,0,0,0],"split_type":[0,0,0,0,0,0,0,0,0,0,0,0,0,0,0,0,0,0,0,0,0,0,0,0,0,0,0,0,0,0,0,0,0,0,0,0,0,0,0,0,0,0,0,0,0,0,0,0,0,0,0,0,0,0,0],"sum_hessian":[2.252E3,1.9E3,3.52E2,1.784E3,1.16E2,2.08E2,1.44E2,1.778E3,6E0,1E2,1.6E1,1.4E1,1.94E2,1.42E2,2E0,1.768E3,1E1,8.6E1,1.4E1,1E1,6E0,6E0,8E0,1.8E2,1.4E1,1.4E2,2E0,1.608E3,1.6E2,6E0,4E0,5.4E1,3.2E1,8E0,6E0,6.8E1,1.12E2,6E0,8E0,1.06E2,3.4E1,1.316E3,2.92E2,1.36E2,2.4E1,6E0,2.6E1,3.6E1,3.2E1,7E1,4.2E1,7.2E1,3.4E1,2E1,1.4E1],"tree_param":{"num_deleted":"0","num_feature":"2","num_nodes":"55","size_leaf_vector":"1"}},{"base_weights":[-3.2406133E-1,-3.6222595E-1,-1.21640064E-1,-3.69333E-1,-2.5167412E-1,2.662489E-1,-6.905967E-1,-3.6748043E-1,-7.831513E-2,-3.0267155E-1,6.6115096E-2,1.5565072E0,1.6765533E-1,-7.128118E-1,5.9852153E-2,-3.6937582E-1,-3.201611E-2,-3.239195E-1,-1.592553E-1,1.0263782E-2,-7.227659E-5,5.7276815E-2,2.1486925E-1,4.8481494E-2,1.4406646E0,-7.321223E-1,4.3238614E-2,-3.626441E-1,-4.3368816E-1,-1.0224272E-2,7.270436E-2,-3.551046E-2,-2.7643263E-1,-6.2770555E-3,-2.6055638E-2,2.2946236E-1,-8.221017E-2,1.5271704E0,5.2791405E-2,-7.774577E-1,-5.7260776E-1,-3.7354685E-2,-2.9025275E-2,-4.002611E-2,-6.6244535E-2,3.1588038E-3,8.95859E-3,-2.4483422E-2,-3.859063E-2,-6.7584054E-3,4.91932E-2,-2.8093016E-2,2.445325E-2,1.8699034E-1,1.09091476E-1,-6.8867676E-2,-9.404163E-2,-3.1021094E-2,-9.017896E-2],"categories":[],"categories_nodes":[],"categories_segments":[],"categories_sizes":[],"default_left":[0,0,0,0,0,0,0,0,0,0,0,0,0,0,0,0,0,0,0,0,0,0,0,0,0,0,0,0,0,0,0,0,0,0,0,0,0,0,0,0,0,0,0,0,0,0,0,0,0,0,0,0,0,0,0,0,0,0,0],"id":8,"left_children":[1,3,5,7,9,11,13,15,-1,17,19,21,23,25,-1,27,29,31,33,-1,-1,-1,-1,35,37,39,-1,41,43,-1,45,-1,47,-1,-1,49,51,53,-1,55,57,-1,-1,-1,-1,-1,-1,-1,-1,-1,-1,-1,-1,-1,-1,-1,-1,-1,-1],"loss_changes":[1.7268448E1,1.3880768E0,7.8970924E1,1.0683746E0,1.9161639E0,2.683503E1,4.5791245E0,1.1091461E0,0E0,2.561922E-1,4.1572906E-2,7.507637E0,3.0120327E1,3.4789124E0,0E0,6.016693E-1,8.832929E-2,3.067398E-2,1.3025486E-1,0E0,0E0,0E0,0E0,4.3473063E0,5.360756E-1,5.744934E-1,0E0,1.1488647E0,9.6596336E-1,0E0,6.406903E-4,0E0,4.042554E-2,0E0,0E0,6.0366025E0,7.0162387E0,2.0287704E-1,0E0,9.003906E-1,2.7434244E0,0E0,0E0,0E0,0E0,0E0,0E0,0E0,0E0,0E0,0E0,0E0,0E0,0E0,0E0,0E0,0E0,0E0,0E0],"parents":[2147483647,0,0,1,1,2,2,3,3,4,4,5,5,6,6,7,7,9,9,10,10,11,11,12,12,13,13,15,15,16,16,17,17,18,18,23,23,24,24,25,25,27,27,28,28,30,30,32,32,35,35,36,36,37,37,39,39,40,40],"right_children":[2,4,6,8,10,12,14,16,-1,18,20,22,24,26,-1,28,30,32,34,-1,-1,-1,-1,36,38,40,-1,42,44,-1,46,-1,48,-1,-1,50,52,54,-1,56,58,-1,-1,-1,-1,-1,-1,-1,-1,-1,-1,-1,-1,-1,-1,-1,-1,-1,-1],"split_conditions":[2.626087E-1,2.6563566E0,1.5800095E0,2.549154E-1,-7.4064486E-2,-8.417714E-1,6.088294E0,2.1508761E-1,-7.831513E-2,-2.879014E-1,1.2406129E-1,5.758464E-1,2.3107011E0,2.6563566E0,5.9852153E-2,1.5800095E0,-5.7268465E-1,-4.7213012E-1,-2.0894623E-1,1.0263782E-2,-7.227659E-5,5.7276815E-2,2.1486925E-1,-3.4511127E-2,5.036624E-1,3.6787734E0,4.3238614E-2,-1.8649913E-1,-6.1170608E-2,-1.0224272E-2,-3.035979E-1,-3.551046E-2,-3.240892E-1,-6.2770555E-3,-2.6055638E-2,-5.7268465E-1,5.036624E-1,3.160057E0,5.2791405E-2,1.8175697E0,5.563554E0,-3.7354685E-2,-2.9025275E-2,-4.002611E-2,-6.6244535E-2,3.1588038E-3,8.95859E-3,-2.4483422E-2,-3.859063E-2,-6.7584054E-3,4.91932E-2,-2.8093016E-2,2.445325E-2,1.8699034E-1,1.09091476E-1,-6.8867676E-2,-9.404163E-2,-3.1021094E-2,-9.017896E-2],"split_indices":[1,0,0,1,1,0,1,1,0,1,1,1,1,0,0,0,0,1,1,0,0,0,0,0,0,1,0,1,1,0,0,0,1,0,0,0,0,1,0,1,1,0,0,0,0,0,0,0,0,0,0,0,0,0,0,0,0,0,0],"split_type":[0,0,0,0,0,0,0,0,0,0,0,0,0,0,0,0,0,0,0,0,0,0,0,0,0,0,0,0,0,0,0,0,0,0,0,0,0,0,0,0,0,0,0,0,0,0,0,0,0,0,0,0,0,0,0,0,0,0,0],"sum_hessian":[2.24E3,1.884E3,3.56E2,1.768E3,1.16E2,2.12E2,1.44E2,1.762E3,6E0,1E2,1.6E1,1.4E1,1.98E2,1.42E2,2E0,1.752E3,1E1,8.6E1,1.4E1,1E1,6E0,6E0,8E0,1.82E2,1.6E1,1.4E2,2E0,1.592E3,1.6E2,6E0,4E0,4.8E1,3.8E1,8E0,6E0,7.6E1,1.06E2,1.4E1,2E0,1.06E2,3.4E1,1.38E3,2.12E2,1.42E2,1.8E1,2E0,2E0,3.2E1,6E0,3.6E1,4E1,6.6E1,4E1,6E0,8E0,7.2E1,3.4E1,2E1,1.4E1],"tree_param":{"num_deleted":"0","num_feature":"2","num_nodes":"59","size_leaf_vector":"1"}},{"base_weights":[-2.9277825E-1,-3.284089E-1,-1.0710244E-1,-3.3493903E-1,-2.2753854E-1,2.3797195E-1,-6.2278545E-1,-3.3322427E-1,-7.160241E-2,-2.737006E-1,6.0103077E-2,1.4189996E0,1.4953162E-1,-6.4321506E-1,5.5862017E-2,-3.3495727E-1,-2.8642388E-2,-3.0423352E-2,-1.8740398E-1,9.330709E-3,-6.6081964E-5,5.236737E-2,1.9576976E-1,4.258757E-2,1.3171201E0,-6.609251E-1,4.035604E-2,-3.2904044E-1,-3.9097944E-1,-9.3479045E-3,6.785741E-2,-8.695955E-3,-2.2152758E-1,-1.7587176E-2,4.332234E-1,1.3941922E0,4.9271982E-2,-6.936519E-1,-4.628632E-1,-3.393298E-2,-2.6136374E-2,-3.605149E-2,-5.9968747E-2,2.9482166E-3,8.361352E-3,-3.5282858E-2,-1.4548528E-2,1.6860573E-2,-1.8217644E-2,2.874421E-2,7.6702654E-2,1.709626E-1,9.9394456E-2,-5.9860464E-2,-7.7421166E-2,1.7983165E-2,-8.1762254E-2],"categories":[],"categories_nodes":[],"categories_segments":[],"categories_sizes":[],"default_left":[0,0,0,0,0,0,0,0,0,0,0,0,0,0,0,0,0,0,0,0,0,0,0,0,0,0,0,0,0,0,0,0,0,0,0,0,0,0,0,0,0,0,0,0,0,0,0,0,0,0,0,0,0,0,0,0,0],"id":9,"left_children":[1,3,5,7,9,11,13,15,-1,17,19,21,23,25,-1,27,29,-1,31,-1,-1,-1,-1,33,35,37,-1,39,41,-1,43,-1,45,47,49,51,-1,53,55,-1,-1,-1,-1,-1,-1,-1,-1,-1,-1,-1,-1,-1,-1,-1,-1,-1,-1],"loss_changes":[1.4737793E1,1.157547E0,6.4387794E1,9.0953064E-1,1.5699916E0,2.2453568E1,3.858982E0,9.146576E-1,0E0,2.0910835E-1,3.4360953E-2,6.2094593E0,2.5291836E1,2.9177094E0,0E0,4.484558E-1,7.516721E-2,0E0,8.013439E-2,0E0,0E0,0E0,0E0,4.4033184E0,3.9320564E-1,5.928917E-1,0E0,1.0122375E0,8.074722E-1,0E0,5.5811554E-4,0E0,1.5834153E-1,5.025909E0,9.9608135E-1,1.9449997E-1,0E0,4.4773102E-1,5.3910804E0,0E0,0E0,0E0,0E0,0E0,0E0,0E0,0E0,0E0,0E0,0E0,0E0,0E0,0E0,0E0,0E0,0E0,0E0],"parents":[2147483647,0,0,1,1,2,2,3,3,4,4,5,5,6,6,7,7,9,9,10,10,11,11,12,12,13,13,15,15,16,16,18,18,23,23,24,24,25,25,27,27,28,28,30,30,32,32,33,33,34,34,35,35,37,37,38,38],"right_children":[2,4,6,8,10,12,14,16,-1,18,20,22,24,26,-1,28,30,-1,32,-1,-1,-1,-1,34,36,38,-1,40,42,-1,44,-1,46,48,50,52,-1,54,56,-1,-1,-1,-1,-1,-1,-1,-1,-1,-1,-1,-1,-1,-1,-1,-1,-1,-1],"split_conditions":[2.626087E-1,2.6563566E0,1.5800095E0,2.549154E-1,-7.4064486E-2,-8.417714E-1,6.088294E0,2.1508761E-1,-7.160241E-2,-3.3709416E-1,1.2406129E-1,5.758464E-1,2.3107011E0,2.6563566E0,5.5862017E-2,1.5800095E0,-5.7268465E-1,-3.0423352E-2,-3.240892E-1,9.330709E-3,-6.6081964E-5,5.236737E-2,1.9576976E-1,1.1360599E0,5.036624E-1,4.8166027E0,4.035604E-2,-1.8649913E-1,-6.1170608E-2,-9.3479045E-3,-3.035979E-1,-8.695955E-3,-2.879014E-1,-3.4511127E-2,5.036624E-1,3.160057E0,4.9271982E-2,1.8047018E0,5.563554E0,-3.393298E-2,-2.6136374E-2,-3.605149E-2,-5.9968747E-2,2.9482166E-3,8.361352E-3,-3.5282858E-2,-1.4548528E-2,1.6860573E-2,-1.8217644E-2,2.874421E-2,7.6702654E-2,1.709626E-1,9.9394456E-2,-5.9860464E-2,-7.7421166E-2,1.7983165E-2,-8.1762254E-2],"split_indices":[1,0,0,1,1,0,1,1,0,1,1,1,1,0,0,0,0,0,1,0,0,0,0,1,0,1,0,1,1,0,0,0,1,0,0,1,0,1,1,0,0,0,0,0,0,0,0,0,0,0,0,0,0,0,0,0,0],"split_type":[0,0,0,0,0,0,0,0,0,0,0,0,0,0,0,0,0,0,0,0,0,0,0,0,0,0,0,0,0,0,0,0,0,0,0,0,0,0,0,0,0,0,0,0,0,0,0,0,0,0,0,0,0,0,0,0,0],"sum_hessian":[2.232E3,1.872E3,3.6E2,1.756E3,1.16E2,2.16E2,1.44E2,1.75E3,6E0,1E2,1.6E1,1.4E1,2.02E2,1.42E2,2E0,1.74E3,1E1,7.2E1,2.8E1,1E1,6E0,6E0,8E0,1.86E2,1.6E1,1.4E2,2E0,1.58E3,1.6E2,6E0,4E0,8E0,2E1,1.62E2,2.4E1,1.4E1,2E0,1.18E2,2.2E1,1.368E3,2.12E2,1.42E2,1.8E1,2E0,2E0,6E0,1.4E1,7.6E1,8.6E1,1.8E1,6E0,6E0,8E0,5.8E1,6E1,8E0,1.4E1],"tree_param":{"num_deleted":"0","num_feature":"2","num_nodes":"57","size_leaf_vector":"1"}},{"base_weights":[-2.6313213E-1,-2.9641896E-1,-9.381989E-2,-3.0232033E-1,-2.0546576E-1,2.0781693E-1,-5.6123E-1,-3.0073553E-1,-6.5465055E-2,-2.4721125E-1,5.4637756E-2,-1.9068949E-2,4.967734E-1,-5.800174E-1,5.2137878E-2,-3.0230477E-1,-2.559981E-2,-2.6424983E-1,-1.3190664E-1,8.4824655E-3,-6.0418675E-5,1.4001691E-1,-2.4383067E-1,1.78368E-1,3.6403787E-1,-5.962585E-1,3.766564E-2,-2.9699078E-1,-3.5247788E-1,-8.546655E-3,6.3333586E-2,-2.9051637E-2,-2.2447267E-1,-4.4258926E-3,-2.2575276E-2,2.0919928E-1,-2.0602196E-1,2.9816747E-2,-4.7132567E-1,1.8213694E-1,9.6170105E-2,-6.607804E-1,-4.8958108E-1,-3.039504E-2,-2.2825051E-2,-3.1995256E-2,-5.166176E-2,2.7516684E-3,7.803929E-3,-1.9685853E-2,-3.225861E-2,1.1794133E-2,9.224141E-2,-2.7013674E-2,-1.124755E-2,-1.0104266E-2,1.0231333E-1,-6.0325067E-2,-3.4271676E-2,1.6491307E-3,7.994479E-2,-5.583443E-2,-1.18516915E-1,-3.9038267E-2,-7.413111E-2],"categories":[],"categories_nodes":[],"categories_segments":[],"categories_sizes":[],"default_left":[0,0,0,0,0,0,0,0,0,0,0,0,0,0,0,0,0,0,0,0,0,0,0,0,0,0,0,0,0,0,0,0,0,0,0,0,0,0,0,0,0,0,0,0,0,0,0,0,0,0,0,0,0,0,0,0,0,0,0,0,0,0,0,0,0],"id":10,"left_children":[1,3,5,7,9,11,13,15,-1,17,19,21,23,25,-1,27,29,31,33,-1,-1,35,37,-1,39,41,-1,43,45,-1,47,-1,49,-1,-1,51,53,55,57,59,-1,61,63,-1,-1,-1,-1,-1,-1,-1,-1,-1,-1,-1,-1,-1,-1,-1,-1,-1,-1,-1,-1,-1,-1],"loss_changes":[1.2579636E1,9.4104004E-1,5.2141243E1,7.8196716E-1,1.2839103E0,1.4760506E1,3.2516174E0,7.46521E-1,0E0,1.6357136E-1,2.8400153E-2,4.575205E0,1.6261675E1,2.4464455E0,0E0,3.5842896E-1,6.3978575E-2,2.568531E-2,1.1338943E-1,0E0,0E0,1.8385837E0,3.313484E0,0E0,9.717948E0,6.4699936E-1,0E0,6.850891E-1,6.9423676E-1,0E0,4.861802E-4,0E0,4.2159557E-2,0E0,0E0,3.9916599E0,4.758644E-2,3.3530004E0,2.8529167E-1,7.246912E0,0E0,3.9041557E0,1.1339636E0,0E0,0E0,0E0,0E0,0E0,0E0,0E0,0E0,0E0,0E0,0E0,0E0,0E0,0E0,0E0,0E0,0E0,0E0,0E0,0E0,0E0,0E0],"parents":[2147483647,0,0,1,1,2,2,3,3,4,4,5,5,6,6,7,7,9,9,10,10,11,11,12,12,13,13,15,15,16,16,17,17,18,18,21,21,22,22,24,24,25,25,27,27,28,28,30,30,32,32,35,35,36,36,37,37,38,38,39,39,41,41,42,42],"right_children":[2,4,6,8,10,12,14,16,-1,18,20,22,24,26,-1,28,30,32,34,-1,-1,36,38,-1,40,42,-1,44,46,-1,48,-1,50,-1,-1,52,54,56,58,60,-1,62,64,-1,-1,-1,-1,-1,-1,-1,-1,-1,-1,-1,-1,-1,-1,-1,-1,-1,-1,-1,-1,-1,-1],"split_conditions":[2.626087E-1,2.6563566E0,1.5800095E0,2.549154E-1,-7.4064486E-2,7.505366E-1,6.088294E0,2.1508761E-1,-6.5465055E-2,-2.879014E-1,1.2406129E-1,-3.4511127E-2,-8.417714E-1,2.6563566E0,5.2137878E-2,1.5800095E0,-5.7268465E-1,-4.7213012E-1,-2.0894623E-1,8.4824655E-3,-6.0418675E-5,6.041248E-1,4.6607932E-1,1.78368E-1,2.3107011E0,2.3107011E0,3.766564E-2,-8.007865E-2,-1.5236427E-1,-8.546655E-3,-3.035979E-1,-2.9051637E-2,-3.240892E-1,-4.4258926E-3,-2.2575276E-2,5.758464E-1,-5.7268465E-1,4.1320375E-1,5.036624E-1,5.036624E-1,9.6170105E-2,1.8175697E0,5.563554E0,-3.039504E-2,-2.2825051E-2,-3.1995256E-2,-5.166176E-2,2.7516684E-3,7.803929E-3,-1.9685853E-2,-3.225861E-2,1.1794133E-2,9.224141E-2,-2.7013674E-2,-1.124755E-2,-1.0104266E-2,1.0231333E-1,-6.0325067E-2,-3.4271676E-2,1.6491307E-3,7.994479E-2,-5.583443E-2,-1.18516915E-1,-3.9038267E-2,-7.413111E-2],"split_indices":[1,0,0,1,1,1,1,1,0,1,1,0,0,0,0,0,0,1,1,0,0,1,1,0,1,1,0,1,1,0,0,0,1,0,0,1,0,1,0,0,0,1,1,0,0,0,0,0,0,0,0,0,0,0,0,0,0,0,0,0,0,0,0,0,0],"split_type":[0,0,0,0,0,0,0,0,0,0,0,0,0,0,0,0,0,0,0,0,0,0,0,0,0,0,0,0,0,0,0,0,0,0,0,0,0,0,0,0,0,0,0,0,0,0,0,0,0,0,0,0,0,0,0,0,0,0,0,0,0,0,0,0,0],"sum_hessian":[2.236E3,1.868E3,3.68E2,1.752E3,1.16E2,2.24E2,1.44E2,1.746E3,6E0,1E2,1.6E1,1.26E2,9.8E1,1.42E2,2E0,1.736E3,1E1,8.6E1,1.4E1,1E1,6E0,7.4E1,5.2E1,8E0,9E1,1.4E2,2E0,1.576E3,1.6E2,6E0,4E0,4.8E1,3.8E1,8E0,6E0,6.2E1,1.2E1,2.4E1,2.8E1,7E1,2E1,8.4E1,5.6E1,1.428E3,1.48E2,1.36E2,2.4E1,2E0,2E0,3.2E1,6E0,5.6E1,6E0,6E0,6E0,2.2E1,2E0,1.2E1,1.6E1,5.6E1,1.4E1,7.2E1,1.2E1,4.2E1,1.4E1],"tree_param":{"num_deleted":"0","num_feature":"2","num_nodes":"65","size_leaf_vector":"1"}},{"base_weights":[-2.3820451E-1,-2.6817173E-1,-8.476012E-2,-2.7354297E-1,-1.8577026E-1,1.8889976E-1,-5.2085024E-1,-2.7207747E-1,-5.9853774E-2,-2.2355941E-1,4.9669396E-2,-1.6662948E-2,4.506933E-1,-5.388471E-1,4.8662018E-2,-2.7350566E-1,-2.2857195E-2,-2.4865242E-2,-1.526853E-1,7.7113323E-3,-5.5240736E-5,1.2689222E-1,-2.1949266E-1,1.6251305E0,3.2958752E-1,-5.544116E-1,3.5154596E-2,-2.6879132E-1,-3.177497E-1,-7.814085E-3,5.9111357E-2,-6.173128E-3,-1.8439487E-1,1.899307E-1,-1.8836294E-1,3.0523404E-2,-4.2745504E-1,6.811997E-2,1.7975108E-1,1.19922385E-1,7.7370185E-1,-6.262433E-1,-4.426084E-1,-2.7440472E-2,-2.1177145E-2,-2.9211883E-2,-4.9393218E-2,2.5682251E-3,7.2836676E-3,-2.9493589E-2,-1.20516075E-2,1.0635412E-2,8.4335E-2,-2.4698218E-2,-1.0283472E-2,-9.137774E-3,9.549244E-2,-5.4756608E-2,-3.1046106E-2,-6.770166E-3,7.248328E-2,4.8657358E-2,8.992129E-2,-5.324741E-2,-1.07576884E-1,-3.5225227E-2,-6.72122E-2],"categories":[],"categories_nodes":[],"categories_segments":[],"categories_sizes":[],"default_left":[0,0,0,0,0,0,0,0,0,0,0,0,0,0,0,0,0,0,0,0,0,0,0,0,0,0,0,0,0,0,0,0,0,0,0,0,0,0,0,0,0,0,0,0,0,0,0,0,0,0,0,0,0,0,0,0,0,0,0,0,0,0,0,0,0,0,0],"id":11,"left_children":[1,3,5,7,9,11,13,15,-1,17,19,21,23,25,-1,27,29,-1,31,-1,-1,33,35,37,39,41,-1,43,45,-1,47,-1,49,51,53,55,57,-1,-1,59,61,63,65,-1,-1,-1,-1,-1,-1,-1,-1,-1,-1,-1,-1,-1,-1,-1,-1,-1,-1,-1,-1,-1,-1,-1,-1],"loss_changes":[1.0208504E1,7.7285767E-1,4.3657623E1,6.6825867E-1,1.0520601E0,1.2115882E1,2.8187256E0,6.1273193E-1,0E0,1.4165783E-1,2.3473423E-2,3.7257428E0,1.3545265E1,2.121235E0,0E0,2.7522278E-1,5.446574E-2,0E0,7.225633E-2,0E0,0E0,1.5262665E0,2.7687263E0,2.3997116E-1,8.380707E0,8.230667E-1,0E0,4.440918E-1,5.827427E-1,0E0,4.2351708E-4,0E0,1.1274123E-1,3.3507717E0,3.977841E-2,2.904397E0,2.3751736E-1,0E0,0E0,7.1993036E0,6.075611E-1,2.841467E0,9.4530773E-1,0E0,0E0,0E0,0E0,0E0,0E0,0E0,0E0,0E0,0E0,0E0,0E0,0E0,0E0,0E0,0E0,0E0,0E0,0E0,0E0,0E0,0E0,0E0,0E0],"parents":[2147483647,0,0,1,1,2,2,3,3,4,4,5,5,6,6,7,7,9,9,10,10,11,11,12,12,13,13,15,15,16,16,18,18,21,21,22,22,23,23,24,24,25,25,27,27,28,28,30,30,32,32,33,33,34,34,35,35,36,36,39,39,40,40,41,41,42,42],"right_children":[2,4,6,8,10,12,14,16,-1,18,20,22,24,26,-1,28,30,-1,32,-1,-1,34,36,38,40,42,-1,44,46,-1,48,-1,50,52,54,56,58,-1,-1,60,62,64,66,-1,-1,-1,-1,-1,-1,-1,-1,-1,-1,-1,-1,-1,-1,-1,-1,-1,-1,-1,-1,-1,-1,-1,-1],"split_conditions":[2.626087E-1,2.6563566E0,1.5800095E0,2.549154E-1,-7.4064486E-2,7.505366E-1,6.088294E0,2.1508761E-1,-5.9853774E-2,-3.3709416E-1,1.2406129E-1,-3.4511127E-2,-8.417714E-1,2.6563566E0,4.8662018E-2,1.5800095E0,-5.7268465E-1,-2.4865242E-2,-3.240892E-1,7.7113323E-3,-5.5240736E-5,6.041248E-1,4.6607932E-1,9.0531486E-1,1.8175697E0,2.3107011E0,3.5154596E-2,-8.007865E-2,-6.1170608E-2,-7.814085E-3,-3.035979E-1,-6.173128E-3,-2.879014E-1,5.758464E-1,-5.7268465E-1,4.1320375E-1,5.036624E-1,6.811997E-2,1.7975108E-1,5.036624E-1,2.8648908E0,1.8175697E0,5.563554E0,-2.7440472E-2,-2.1177145E-2,-2.9211883E-2,-4.9393218E-2,2.5682251E-3,7.2836676E-3,-2.9493589E-2,-1.20516075E-2,1.0635412E-2,8.4335E-2,-2.4698218E-2,-1.0283472E-2,-9.137774E-3,9.549244E-2,-5.4756608E-2,-3.1046106E-2,-6.770166E-3,7.248328E-2,4.8657358E-2,8.992129E-2,-5.324741E-2,-1.07576884E-1,-3.5225227E-2,-6.72122E-2],"split_indices":[1,0,0,1,1,1,1,1,0,1,1,0,0,0,0,0,0,0,1,0,0,1,1,1,1,1,0,1,1,0,0,0,1,1,0,1,0,0,0,0,1,1,1,0,0,0,0,0,0,0,0,0,0,0,0,0,0,0,0,0,0,0,0,0,0,0,0],"split_type":[0,0,0,0,0,0,0,0,0,0,0,0,0,0,0,0,0,0,0,0,0,0,0,0,0,0,0,0,0,0,0,0,0,0,0,0,0,0,0,0,0,0,0,0,0,0,0,0,0,0,0,0,0,0,0,0,0,0,0,0,0,0,0,0,0,0,0],"sum_hessian":[2.224E3,1.86E3,3.64E2,1.744E3,1.16E2,2.24E2,1.4E2,1.738E3,6E0,1E2,1.6E1,1.26E2,9.8E1,1.38E2,2E0,1.728E3,1E1,7.2E1,2.8E1,1E1,6E0,7.4E1,5.2E1,8E0,9E1,1.36E2,2E0,1.568E3,1.6E2,6E0,4E0,8E0,2E1,6.2E1,1.2E1,2.4E1,2.8E1,2E0,6E0,6.2E1,2.8E1,8E1,5.6E1,1.424E3,1.44E2,1.42E2,1.8E1,2E0,2E0,6E0,1.4E1,5.6E1,6E0,6E0,6E0,2.2E1,2E0,1.2E1,1.6E1,4.8E1,1.4E1,1E1,1.8E1,6.8E1,1.2E1,4.2E1,1.4E1],"tree_param":{"num_deleted":"0","num_feature":"2","num_nodes":"67","size_leaf_vector":"1"}},{"base_weights":[-2.1489313E-1,-2.425505E-1,-7.542424E-2,-2.4744937E-1,-1.6774817E-1,1.6528626E-1,-4.8425725E-1,-2.4609412E-1,-5.472345E-2,-2.019221E-1,4.515281E-2,8.6450106E-1,1.02726415E-1,-5.0152427E-1,4.5417883E-2,-2.4739376E-1,-2.0386213E-2,-2.2412779E-2,-1.3906223E-1,7.0103006E-3,-5.050472E-5,1.2997702E-2,1.3868843E0,9.379582E-3,7.0111024E-1,-5.16467E-1,3.281096E-2,-2.445115E-1,-3.170632E-1,-7.1443035E-3,5.5170584E-2,-5.624404E-3,-1.6793372E-1,7.5033166E-2,1.6434385E-1,1.3131078E-1,-7.528782E-2,4.4233963E-2,8.140243E-2,-5.551169E-1,-3.0748397E-1,-2.482132E-2,-1.8242015E-2,1.639897E-3,-4.6563305E-2,2.397009E-3,6.7980886E-3,-2.6965568E-2,-1.092679E-2,-8.958899E-3,3.2745667E-2,-2.5365153E-2,1.5557344E-2,-2.8402677E-2,-5.8510732E-2,2.298586E-2,-6.0939062E-2],"categories":[],"categories_nodes":[],"categories_segments":[],"categories_sizes":[],"default_left":[0,0,0,0,0,0,0,0,0,0,0,0,0,0,0,0,0,0,0,0,0,0,0,0,0,0,0,0,0,0,0,0,0,0,0,0,0,0,0,0,0,0,0,0,0,0,0,0,0,0,0,0,0,0,0,0,0],"id":12,"left_children":[1,3,5,7,9,11,13,15,-1,17,19,21,23,25,-1,27,29,-1,31,-1,-1,-1,33,35,37,39,-1,41,43,-1,45,-1,47,-1,-1,49,51,-1,-1,53,55,-1,-1,-1,-1,-1,-1,-1,-1,-1,-1,-1,-1,-1,-1,-1,-1],"loss_changes":[8.548874E0,6.375046E-1,3.639348E1,5.7105255E-1,8.603704E-1,1.0103256E1,2.4477272E0,5.027237E-1,0E0,1.0981321E-1,1.9401338E-2,7.110096E0,1.2002728E1,1.8430519E0,0E0,2.6805878E-1,4.6376143E-2,0E0,5.989617E-2,0E0,0E0,0E0,5.6328773E-1,1.9403989E0,4.8727226E-1,9.035759E-1,0E0,3.3557892E-1,3.2278938E0,0E0,3.6892947E-4,0E0,9.5855E-2,0E0,0E0,3.3656373E0,4.610139E0,0E0,0E0,7.3625565E-1,3.8713012E0,0E0,0E0,0E0,0E0,0E0,0E0,0E0,0E0,0E0,0E0,0E0,0E0,0E0,0E0,0E0,0E0],"parents":[2147483647,0,0,1,1,2,2,3,3,4,4,5,5,6,6,7,7,9,9,10,10,11,11,12,12,13,13,15,15,16,16,18,18,22,22,23,23,24,24,25,25,27,27,28,28,30,30,32,32,35,35,36,36,39,39,40,40],"right_children":[2,4,6,8,10,12,14,16,-1,18,20,22,24,26,-1,28,30,-1,32,-1,-1,-1,34,36,38,40,-1,42,44,-1,46,-1,48,-1,-1,50,52,-1,-1,54,56,-1,-1,-1,-1,-1,-1,-1,-1,-1,-1,-1,-1,-1,-1,-1,-1],"split_conditions":[2.626087E-1,2.6563566E0,1.5800095E0,2.549154E-1,-7.4064486E-2,-8.417714E-1,6.088294E0,2.1508761E-1,-5.472345E-2,-3.3709416E-1,1.2406129E-1,3.3640027E-1,1.8175697E0,2.6563566E0,4.5417883E-2,8.055605E-2,-5.7268465E-1,-2.2412779E-2,-3.240892E-1,7.0103006E-3,-5.050472E-5,1.2997702E-2,9.0531486E-1,-3.4511127E-2,2.8648908E0,4.8166027E0,3.281096E-2,-8.007865E-2,-3.4511127E-2,-7.1443035E-3,-3.035979E-1,-5.624404E-3,-2.879014E-1,7.5033166E-2,1.6434385E-1,-5.7268465E-1,5.036624E-1,4.4233963E-2,8.140243E-2,3.3640027E-1,5.563554E0,-2.482132E-2,-1.8242015E-2,1.639897E-3,-4.6563305E-2,2.397009E-3,6.7980886E-3,-2.6965568E-2,-1.092679E-2,-8.958899E-3,3.2745667E-2,-2.5365153E-2,1.5557344E-2,-2.8402677E-2,-5.8510732E-2,2.298586E-2,-6.0939062E-2],"split_indices":[1,0,0,1,1,0,1,1,0,1,1,1,1,0,0,1,0,0,1,0,0,0,1,0,1,1,0,1,0,0,0,0,1,0,0,0,0,0,0,1,1,0,0,0,0,0,0,0,0,0,0,0,0,0,0,0,0],"split_type":[0,0,0,0,0,0,0,0,0,0,0,0,0,0,0,0,0,0,0,0,0,0,0,0,0,0,0,0,0,0,0,0,0,0,0,0,0,0,0,0,0,0,0,0,0,0,0,0,0,0,0,0,0,0,0,0,0],"sum_hessian":[2.22E3,1.852E3,3.68E2,1.736E3,1.16E2,2.32E2,1.36E2,1.73E3,6E0,1E2,1.6E1,1.8E1,2.14E2,1.34E2,2E0,1.72E3,1E1,7.2E1,2.8E1,1E1,6E0,8E0,1E1,1.86E2,2.8E1,1.32E2,2E0,1.656E3,6.4E1,6E0,4E0,8E0,2E1,4E0,6E0,7.6E1,1.1E2,1E1,1.8E1,1.1E2,2.2E1,1.56E3,9.6E1,2E1,4.4E1,2E0,2E0,6E0,1.4E1,3.6E1,4E1,6.2E1,4.8E1,1.2E1,9.8E1,8E0,1.4E1],"tree_param":{"num_deleted":"0","num_feature":"2","num_nodes":"57","size_leaf_vector":"1"}},{"base_weights":[-1.9345048E-1,-2.1890327E-1,-6.6759735E-2,-2.2332908E-1,-1.5147737E-1,1.4706405E-1,-4.3617195E-1,-2.2207701E-1,-5.0032865E-2,-1.8238267E-1,4.1046944E-2,7.9133373E-1,9.049697E-2,-4.5205376E-1,4.2390022E-2,-2.2325407E-1,-1.816114E-2,-2.1262124E-2,-1.4311664E-1,6.3730027E-3,-4.6174868E-5,1.1842347E-2,1.2699573E0,-1.9761011E-2,4.7342795E-1,-4.6575913E-1,3.0623564E-2,-2.206498E-1,-2.86048E-1,-6.5319324E-3,5.149255E-2,-1.055462E-3,-1.6225852E-1,6.9030516E-2,1.5025721E-1,1.1848862E-1,-1.3160796E-1,3.3574396E-1,5.921748E-1,-5.003882E-1,-2.7838573E-1,-2.2530802E-2,-1.784124E-2,1.4837151E-3,-4.2010445E-2,2.237209E-3,6.3448823E-3,-2.291968E-2,-1.2665659E-2,-8.087222E-3,2.9550968E-2,-2.920386E-2,6.9192783E-3,2.364496E-2,5.5729385E-2,6.917166E-2,4.470811E-2,-4.2757187E-2,-6.055962E-2,2.0942671E-2,-5.5251416E-2],"categories":[],"categories_nodes":[],"categories_segments":[],"categories_sizes":[],"default_left":[0,0,0,0,0,0,0,0,0,0,0,0,0,0,0,0,0,0,0,0,0,0,0,0,0,0,0,0,0,0,0,0,0,0,0,0,0,0,0,0,0,0,0,0,0,0,0,0,0,0,0,0,0,0,0,0,0,0,0,0,0],"id":13,"left_children":[1,3,5,7,9,11,13,15,-1,17,19,21,23,25,-1,27,29,-1,31,-1,-1,-1,33,35,37,39,-1,41,43,-1,45,-1,47,-1,-1,49,51,53,55,57,59,-1,-1,-1,-1,-1,-1,-1,-1,-1,-1,-1,-1,-1,-1,-1,-1,-1,-1,-1,-1],"loss_changes":[7.147293E0,5.179291E-1,2.9527086E1,4.8993683E-1,7.036388E-1,8.565721E0,2.0629768E0,4.1046906E-1,0E0,8.949256E-2,1.6035696E-2,5.9689503E0,9.255797E0,1.545639E0,0E0,2.1767426E-1,3.9495613E-2,0E0,1.175493E-1,0E0,0E0,0E0,4.459591E-1,2.6597326E0,6.023083E-1,7.236805E-1,0E0,2.8502655E-1,2.6280465E0,0E0,3.2137893E-4,0E0,6.8679094E-2,0E0,0E0,2.7413104E0,3.0805936E0,4.1819453E-1,5.1818848E-2,5.914192E-1,3.191346E0,0E0,0E0,0E0,0E0,0E0,0E0,0E0,0E0,0E0,0E0,0E0,0E0,0E0,0E0,0E0,0E0,0E0,0E0,0E0,0E0],"parents":[2147483647,0,0,1,1,2,2,3,3,4,4,5,5,6,6,7,7,9,9,10,10,11,11,12,12,13,13,15,15,16,16,18,18,22,22,23,23,24,24,25,25,27,27,28,28,30,30,32,32,35,35,36,36,37,37,38,38,39,39,40,40],"right_children":[2,4,6,8,10,12,14,16,-1,18,20,22,24,26,-1,28,30,-1,32,-1,-1,-1,34,36,38,40,-1,42,44,-1,46,-1,48,-1,-1,50,52,54,56,58,60,-1,-1,-1,-1,-1,-1,-1,-1,-1,-1,-1,-1,-1,-1,-1,-1,-1,-1,-1,-1],"split_conditions":[2.626087E-1,2.6563566E0,1.5800095E0,2.549154E-1,-7.4064486E-2,-8.417714E-1,6.088294E0,2.1508761E-1,-5.0032865E-2,-4.4690832E-1,1.2406129E-1,3.3640027E-1,1.1360599E0,2.6563566E0,4.2390022E-2,8.055605E-2,-5.7268465E-1,-2.1262124E-2,-4.1949335E-1,6.3730027E-3,-4.6174868E-5,1.1842347E-2,9.0531486E-1,-3.4511127E-2,2.3107011E0,4.8166027E0,3.0623564E-2,-1.8649913E-1,-3.4511127E-2,-6.5319324E-3,-3.035979E-1,-1.055462E-3,-3.3709416E-1,6.9030516E-2,1.5025721E-1,-5.7268465E-1,5.036624E-1,5.036624E-1,3.160057E0,1.8175697E0,5.563554E0,-2.2530802E-2,-1.784124E-2,1.4837151E-3,-4.2010445E-2,2.237209E-3,6.3448823E-3,-2.291968E-2,-1.2665659E-2,-8.087222E-3,2.9550968E-2,-2.920386E-2,6.9192783E-3,2.364496E-2,5.5729385E-2,6.917166E-2,4.470811E-2,-4.2757187E-2,-6.055962E-2,2.0942671E-2,-5.5251416E-2],"split_indices":[1,0,0,1,1,0,1,1,0,1,1,1,1,0,0,1,0,0,1,0,0,0,1,0,1,1,0,1,0,0,0,0,1,0,0,0,0,0,1,1,1,0,0,0,0,0,0,0,0,0,0,0,0,0,0,0,0,0,0,0,0],"split_type":[0,0,0,0,0,0,0,0,0,0,0,0,0,0,0,0,0,0,0,0,0,0,0,0,0,0,0,0,0,0,0,0,0,0,0,0,0,0,0,0,0,0,0,0,0,0,0,0,0,0,0,0,0,0,0,0,0,0,0,0,0],"sum_hessian":[2.22E3,1.848E3,3.72E2,1.732E3,1.16E2,2.36E2,1.36E2,1.726E3,6E0,1E2,1.6E1,1.8E1,2.18E2,1.34E2,2E0,1.716E3,1E1,5.4E1,4.6E1,1E1,6E0,8E0,1E1,1.7E2,4.8E1,1.32E2,2E0,1.652E3,6.4E1,6E0,4E0,6E0,4E1,4E0,6E0,7.6E1,9.4E1,2.4E1,2.4E1,1.1E2,2.2E1,1.484E3,1.68E2,2E1,4.4E1,2E0,2E0,1.2E1,2.8E1,3.6E1,4E1,5.2E1,4.2E1,1.8E1,6E0,1.2E1,1.2E1,6.8E1,4.2E1,8E0,1.4E1],"tree_param":{"num_deleted":"0","num_feature":"2","num_nodes":"61","size_leaf_vector":"1"}},{"base_weights":[-1.750969E-1,-1.9894688E-1,-5.8672205E-2,-2.0306784E-1,-1.3677044E-1,1.316398E-1,-3.9302635E-1,-2.0190847E-1,-4.5744333E-2,-1.6471769E-1,3.731442E-2,7.243651E-1,8.054822E-2,-4.0764096E-1,3.9564025E-2,-2.0299096E-1,-1.615863E-2,-1.7618118E-1,-8.724829E-2,5.79364E-3,-4.221797E-5,1.07896915E-2,1.1628969E0,-1.7789708E-2,3.963074E-1,-4.20218E-1,2.8581992E-2,-2.0092897E-1,-3.2339314E-1,-5.972051E-3,4.8059724E-2,-1.9491626E-2,-1.481248E-1,-8.641203E-4,-1.758505E-2,6.350807E-2,1.3737802E-1,1.069185E-1,-1.1868173E-1,2.6091304E-1,5.375126E-1,-4.5128015E-1,-2.5203887E-1,-2.028959E-2,2.9674444E-2,-3.6987502E-2,-1.8933212E-2,2.088062E-3,5.9218924E-3,-8.174356E-3,-1.7460002E-2,-7.3003597E-3,2.6667947E-2,-2.6338575E-2,6.2434427E-3,1.7390428E-2,5.095258E-2,6.2786594E-2,4.0581215E-2,-2.1834074E-2,-4.773098E-2,1.9081099E-2,-5.0094616E-2],"categories":[],"categories_nodes":[],"categories_segments":[],"categories_sizes":[],"default_left":[0,0,0,0,0,0,0,0,0,0,0,0,0,0,0,0,0,0,0,0,0,0,0,0,0,0,0,0,0,0,0,0,0,0,0,0,0,0,0,0,0,0,0,0,0,0,0,0,0,0,0,0,0,0,0,0,0,0,0,0,0,0,0],"id":14,"left_children":[1,3,5,7,9,11,13,15,-1,17,19,21,23,25,-1,27,29,31,33,-1,-1,-1,35,37,39,41,-1,43,45,-1,47,-1,49,-1,-1,-1,-1,51,53,55,57,59,61,-1,-1,-1,-1,-1,-1,-1,-1,-1,-1,-1,-1,-1,-1,-1,-1,-1,-1,-1,-1],"loss_changes":[6.122116E0,4.4189453E-1,2.4040855E1,4.1401672E-1,5.753739E-1,7.239922E0,1.7403488E0,3.4075165E-1,0E0,7.4323654E-2,1.3253916E-2,5.0110025E0,6.9314466E0,1.2975311E0,0E0,3.5733032E-1,3.3642348E-2,1.685834E-2,1.02951854E-1,0E0,0E0,0E0,3.5192394E-1,2.1642222E0,8.7303066E-1,5.810528E-1,0E0,1.6998367E0,9.821892E-2,0E0,2.799565E-4,0E0,5.426848E-2,0E0,0E0,0E0,0E0,2.232797E0,2.5062268E0,5.3870463E-1,4.2693615E-2,5.688133E-1,2.6308427E0,0E0,0E0,0E0,0E0,0E0,0E0,0E0,0E0,0E0,0E0,0E0,0E0,0E0,0E0,0E0,0E0,0E0,0E0,0E0,0E0],"parents":[2147483647,0,0,1,1,2,2,3,3,4,4,5,5,6,6,7,7,9,9,10,10,11,11,12,12,13,13,15,15,16,16,17,17,18,18,22,22,23,23,24,24,25,25,27,27,28,28,30,30,32,32,37,37,38,38,39,39,40,40,41,41,42,42],"right_children":[2,4,6,8,10,12,14,16,-1,18,20,22,24,26,-1,28,30,32,34,-1,-1,-1,36,38,40,42,-1,44,46,-1,48,-1,50,-1,-1,-1,-1,52,54,56,58,60,62,-1,-1,-1,-1,-1,-1,-1,-1,-1,-1,-1,-1,-1,-1,-1,-1,-1,-1,-1,-1],"split_conditions":[2.626087E-1,2.6563566E0,1.5800095E0,2.549154E-1,-7.4064486E-2,-8.417714E-1,6.088294E0,2.1508761E-1,-4.5744333E-2,-2.879014E-1,1.2406129E-1,3.3640027E-1,1.1360599E0,2.6563566E0,3.9564025E-2,1.2406129E-1,-5.7268465E-1,-4.7213012E-1,-2.0894623E-1,5.79364E-3,-4.221797E-5,1.07896915E-2,9.0531486E-1,-3.4511127E-2,2.3107011E0,4.8166027E0,2.8581992E-2,1.0214134E-1,1.6890514E-1,-5.972051E-3,-3.035979E-1,-1.9491626E-2,-4.1949335E-1,-8.641203E-4,-1.758505E-2,6.350807E-2,1.3737802E-1,-5.7268465E-1,5.036624E-1,5.036624E-1,3.160057E0,3.3640027E-1,5.563554E0,-2.028959E-2,2.9674444E-2,-3.6987502E-2,-1.8933212E-2,2.088062E-3,5.9218924E-3,-8.174356E-3,-1.7460002E-2,-7.3003597E-3,2.6667947E-2,-2.6338575E-2,6.2434427E-3,1.7390428E-2,5.095258E-2,6.2786594E-2,4.0581215E-2,-2.1834074E-2,-4.773098E-2,1.9081099E-2,-5.0094616E-2],"split_indices":[1,0,0,1,1,0,1,1,0,1,1,1,1,0,0,1,0,1,1,0,0,0,1,0,1,1,0,1,1,0,0,0,1,0,0,0,0,0,0,0,1,1,1,0,0,0,0,0,0,0,0,0,0,0,0,0,0,0,0,0,0,0,0],"split_type":[0,0,0,0,0,0,0,0,0,0,0,0,0,0,0,0,0,0,0,0,0,0,0,0,0,0,0,0,0,0,0,0,0,0,0,0,0,0,0,0,0,0,0,0,0,0,0,0,0,0,0,0,0,0,0,0,0,0,0,0,0,0,0],"sum_hessian":[2.208E3,1.832E3,3.76E2,1.716E3,1.16E2,2.4E2,1.36E2,1.71E3,6E0,1E2,1.6E1,1.8E1,2.22E2,1.34E2,2E0,1.7E3,1E1,8.6E1,1.4E1,1E1,6E0,8E0,1E1,1.7E2,5.2E1,1.32E2,2E0,1.674E3,2.6E1,6E0,4E0,4.8E1,3.8E1,8E0,6E0,4E0,6E0,7.6E1,9.4E1,2.8E1,2.4E1,1.1E2,2.2E1,1.668E3,6E0,1.8E1,8E0,2E0,2E0,1.2E1,2.6E1,3.6E1,4E1,5.2E1,4.2E1,2.2E1,6E0,1.2E1,1.2E1,1.2E1,9.8E1,8E0,1.4E1],"tree_param":{"num_deleted":"0","num_feature":"2","num_nodes":"63","size_leaf_vector":"1"}},{"base_weights":[-1.5721136E-1,-1.7913297E-1,-5.1333345E-2,-1.7811882E-1,-4.182339E-2,1.1810032E-1,-3.5396045E-1,-1.7960379E-1,-9.449093E-3,6.6306937E-1,7.196591E-2,-3.6741018E-1,3.6926422E-2,-1.7778605E-1,-2.9312494E-1,-5.460163E-3,2.0143347E-2,9.830613E-3,1.0648694E0,-1.6014995E-2,3.3464605E-1,-3.789524E-1,2.6676526E-2,-1.7974332E-1,2.2842123E-1,-3.3483422E-1,-1.725026E-1,4.4855736E-2,-3.8598268E-5,5.842742E-2,1.2560275E-1,9.647818E-2,-1.07025094E-1,2.0840684E-1,4.87896E-1,-4.0677887E-1,-2.281834E-1,-1.7711455E-2,-3.320875E-2,2.713092E-2,5.220886E-3,-1.4143148E-2,-4.132177E-2,-2.32821E-2,2.574113E-3,1.9488573E-3,5.527099E-3,-6.590053E-3,2.4066193E-2,-2.3754414E-2,5.633617E-3,1.3394298E-2,4.6585217E-2,5.69909E-2,3.6835257E-2,-3.4289893E-2,-4.9982395E-2,1.7384999E-2,-4.5419123E-2],"categories":[],"categories_nodes":[],"categories_segments":[],"categories_sizes":[],"default_left":[0,0,0,0,0,0,0,0,0,0,0,0,0,0,0,0,0,0,0,0,0,0,0,0,0,0,0,0,0,0,0,0,0,0,0,0,0,0,0,0,0,0,0,0,0,0,0,0,0,0,0,0,0,0,0,0,0,0,0],"id":15,"left_children":[1,3,5,7,-1,9,11,13,15,17,19,21,-1,23,25,-1,27,-1,29,31,33,35,-1,37,39,41,43,45,-1,-1,-1,47,49,51,53,55,57,-1,-1,-1,-1,-1,-1,-1,-1,-1,-1,-1,-1,-1,-1,-1,-1,-1,-1,-1,-1,-1,-1],"loss_changes":[5.1272163E0,3.6997604E-1,1.9577663E1,4.5590973E-1,0E0,6.112029E0,1.468296E0,3.2159042E-1,2.381481E-2,4.206834E0,5.251519E0,1.0892639E0,0E0,1.4602356E0,7.807922E-2,0E0,5.5979304E-3,0E0,2.7670193E-1,1.7610261E0,1.00105E0,4.6516228E-1,0E0,6.5283203E-1,5.3851783E-2,2.2958994E-1,1.1361274E-1,2.438752E-4,0E0,0E0,0E0,1.8186123E0,2.038949E0,5.7022476E-1,3.5175323E-2,4.8836327E-1,2.1688027E0,0E0,0E0,0E0,0E0,0E0,0E0,0E0,0E0,0E0,0E0,0E0,0E0,0E0,0E0,0E0,0E0,0E0,0E0,0E0,0E0,0E0,0E0],"parents":[2147483647,0,0,1,1,2,2,3,3,5,5,6,6,7,7,8,8,9,9,10,10,11,11,13,13,14,14,16,16,18,18,19,19,20,20,21,21,23,23,24,24,25,25,26,26,27,27,31,31,32,32,33,33,34,34,35,35,36,36],"right_children":[2,4,6,8,-1,10,12,14,16,18,20,22,-1,24,26,-1,28,-1,30,32,34,36,-1,38,40,42,44,46,-1,-1,-1,48,50,52,54,56,58,-1,-1,-1,-1,-1,-1,-1,-1,-1,-1,-1,-1,-1,-1,-1,-1,-1,-1,-1,-1,-1,-1],"split_conditions":[2.626087E-1,2.549154E-1,1.5800095E0,2.1508761E-1,-4.182339E-2,-8.417714E-1,6.088294E0,1.2406129E-1,-5.7268465E-1,3.3640027E-1,1.1360599E0,2.6563566E0,3.6926422E-2,1.0214134E-1,1.6890514E-1,-5.460163E-3,-3.4511127E-2,9.830613E-3,9.0531486E-1,-3.4511127E-2,2.3107011E0,4.8166027E0,2.6676526E-2,8.055605E-2,-3.4511127E-2,-3.035979E-1,-3.035979E-1,-3.035979E-1,-3.8598268E-5,5.842742E-2,1.2560275E-1,-5.7268465E-1,5.036624E-1,5.036624E-1,3.160057E0,1.8175697E0,5.563554E0,-1.7711455E-2,-3.320875E-2,2.713092E-2,5.220886E-3,-1.4143148E-2,-4.132177E-2,-2.32821E-2,2.574113E-3,1.9488573E-3,5.527099E-3,-6.590053E-3,2.4066193E-2,-2.3754414E-2,5.633617E-3,1.3394298E-2,4.6585217E-2,5.69909E-2,3.6835257E-2,-3.4289893E-2,-4.9982395E-2,1.7384999E-2,-4.5419123E-2],"split_indices":[1,1,0,1,0,0,1,1,0,1,1,0,0,1,1,0,0,0,1,0,1,1,0,1,0,0,0,0,0,0,0,0,0,0,1,1,1,0,0,0,0,0,0,0,0,0,0,0,0,0,0,0,0,0,0,0,0,0,0],"split_type":[0,0,0,0,0,0,0,0,0,0,0,0,0,0,0,0,0,0,0,0,0,0,0,0,0,0,0,0,0,0,0,0,0,0,0,0,0,0,0,0,0,0,0,0,0,0,0,0,0,0,0,0,0,0,0,0,0,0,0],"sum_hessian":[2.212E3,1.832E3,3.8E2,1.826E3,6E0,2.44E2,1.36E2,1.81E3,1.6E1,1.8E1,2.26E2,1.34E2,2E0,1.784E3,2.6E1,6E0,1E1,8E0,1E1,1.7E2,5.6E1,1.32E2,2E0,1.776E3,8E0,1.8E1,8E0,4E0,6E0,4E0,6E0,7.6E1,9.4E1,3.2E1,2.4E1,1.1E2,2.2E1,1.748E3,2.8E1,6E0,2E0,6E0,1.2E1,6E0,2E0,2E0,2E0,3.6E1,4E1,5.2E1,4.2E1,2.6E1,6E0,1.2E1,1.2E1,6.8E1,4.2E1,8E0,1.4E1],"tree_param":{"num_deleted":"0","num_feature":"2","num_nodes":"59","size_leaf_vector":"1"}},{"base_weights":[-1.4223714E-1,-1.624163E-1,-4.5417015E-2,-1.6147843E-1,-3.823853E-2,1.0770672E-1,-3.1891993E-1,-1.6283533E-1,-8.387881E-3,6.0696566E-1,6.5444045E-2,-3.3130348E-1,3.446466E-2,-1.6116281E-1,-2.666337E-1,-4.9921507E-3,1.880514E-2,8.956782E-3,9.751125E-1,-1.4417264E-2,3.0387983E-1,-3.4190157E-1,2.4898093E-2,-1.629599E-1,2.0917374E-1,-3.0427E-1,-1.5755324E-1,4.186537E-2,-3.529021E-5,5.3753223E-2,1.14836805E-1,8.705732E-2,-9.651332E-2,1.9637877E-1,4.5425624E-1,-3.6686018E-1,-2.0658395E-1,-1.6057774E-2,-3.000239E-2,2.4805412E-2,4.872827E-3,-1.29308775E-2,-3.7507452E-2,-2.1286491E-2,2.4025056E-3,1.818935E-3,5.158627E-3,-5.9488565E-3,2.171827E-2,-2.1423792E-2,5.083358E-3,1.2104476E-2,4.0056095E-2,5.546666E-2,3.3435088E-2,-1.6653398E-2,-3.8946E-2,1.5839664E-2,-4.1180003E-2],"categories":[],"categories_nodes":[],"categories_segments":[],"categories_sizes":[],"default_left":[0,0,0,0,0,0,0,0,0,0,0,0,0,0,0,0,0,0,0,0,0,0,0,0,0,0,0,0,0,0,0,0,0,0,0,0,0,0,0,0,0,0,0,0,0,0,0,0,0,0,0,0,0,0,0,0,0,0,0],"id":16,"left_children":[1,3,5,7,-1,9,11,13,15,17,19,21,-1,23,25,-1,27,-1,29,31,33,35,-1,37,39,41,43,45,-1,-1,-1,47,49,51,53,55,57,-1,-1,-1,-1,-1,-1,-1,-1,-1,-1,-1,-1,-1,-1,-1,-1,-1,-1,-1,-1,-1,-1],"loss_changes":[4.292824E0,3.1392288E-1,1.5990547E1,3.7566376E-1,0E0,5.1297827E0,1.239955E0,2.6934433E-1,2.0139001E-2,3.5317512E0,4.326868E0,9.153662E-1,0E0,1.2140694E0,6.290686E-2,0E0,4.874452E-3,0E0,2.166605E-1,1.4329457E0,8.322334E-1,3.7339783E-1,0E0,5.281105E-1,4.4056386E-2,1.8687224E-1,9.55047E-2,2.1244027E-4,0E0,0E0,0E0,1.4812591E0,1.658794E0,4.898795E-1,9.1460705E-2,4.3767738E-1,1.7879252E0,0E0,0E0,0E0,0E0,0E0,0E0,0E0,0E0,0E0,0E0,0E0,0E0,0E0,0E0,0E0,0E0,0E0,0E0,0E0,0E0,0E0,0E0],"parents":[2147483647,0,0,1,1,2,2,3,3,5,5,6,6,7,7,8,8,9,9,10,10,11,11,13,13,14,14,16,16,18,18,19,19,20,20,21,21,23,23,24,24,25,25,26,26,27,27,31,31,32,32,33,33,34,34,35,35,36,36],"right_children":[2,4,6,8,-1,10,12,14,16,18,20,22,-1,24,26,-1,28,-1,30,32,34,36,-1,38,40,42,44,46,-1,-1,-1,48,50,52,54,56,58,-1,-1,-1,-1,-1,-1,-1,-1,-1,-1,-1,-1,-1,-1,-1,-1,-1,-1,-1,-1,-1,-1],"split_conditions":[2.626087E-1,2.549154E-1,1.5800095E0,2.1508761E-1,-3.823853E-2,-8.417714E-1,6.088294E0,1.2406129E-1,-5.7268465E-1,3.3640027E-1,1.1360599E0,2.6563566E0,3.446466E-2,1.0214134E-1,1.6890514E-1,-4.9921507E-3,-3.4511127E-2,8.956782E-3,9.0531486E-1,-3.4511127E-2,2.8648908E0,4.8166027E0,2.4898093E-2,8.055605E-2,-3.4511127E-2,-3.035979E-1,-3.035979E-1,-3.035979E-1,-3.529021E-5,5.3753223E-2,1.14836805E-1,-5.7268465E-1,5.036624E-1,5.036624E-1,3.160057E0,3.3640027E-1,5.563554E0,-1.6057774E-2,-3.000239E-2,2.4805412E-2,4.872827E-3,-1.29308775E-2,-3.7507452E-2,-2.1286491E-2,2.4025056E-3,1.818935E-3,5.158627E-3,-5.9488565E-3,2.171827E-2,-2.1423792E-2,5.083358E-3,1.2104476E-2,4.0056095E-2,5.546666E-2,3.3435088E-2,-1.6653398E-2,-3.8946E-2,1.5839664E-2,-4.1180003E-2],"split_indices":[1,1,0,1,0,0,1,1,0,1,1,0,0,1,1,0,0,0,1,0,1,1,0,1,0,0,0,0,0,0,0,0,0,0,1,1,1,0,0,0,0,0,0,0,0,0,0,0,0,0,0,0,0,0,0,0,0,0,0],"split_type":[0,0,0,0,0,0,0,0,0,0,0,0,0,0,0,0,0,0,0,0,0,0,0,0,0,0,0,0,0,0,0,0,0,0,0,0,0,0,0,0,0,0,0,0,0,0,0,0,0,0,0,0,0,0,0,0,0,0,0],"sum_hessian":[2.2E3,1.82E3,3.8E2,1.814E3,6E0,2.44E2,1.36E2,1.798E3,1.6E1,1.8E1,2.26E2,1.34E2,2E0,1.772E3,2.6E1,6E0,1E1,8E0,1E1,1.7E2,5.6E1,1.32E2,2E0,1.764E3,8E0,1.8E1,8E0,4E0,6E0,4E0,6E0,7.6E1,9.4E1,3.4E1,2.2E1,1.1E2,2.2E1,1.736E3,2.8E1,6E0,2E0,6E0,1.2E1,6E0,2E0,2E0,2E0,3.6E1,4E1,5.2E1,4.2E1,2.6E1,8E0,1E1,1.2E1,1.2E1,9.8E1,8E0,1.4E1],"tree_param":{"num_deleted":"0","num_feature":"2","num_nodes":"59","size_leaf_vector":"1"}},{"base_weights":[-1.2816727E-1,-1.4656381E-1,-4.0097203E-2,-1.4976616E-1,-9.694831E-2,9.8234154E-2,-2.8718543E-1,-1.4885464E-1,-3.4960937E-2,-1.3323735E-1,3.3400098E-3,-3.530854E-2,2.3992902E-1,-2.9858825E-1,3.2167014E-2,-1.266587E-1,-1.552834E-1,-1.4153957E-2,-8.61646E-2,-4.8235454E-2,4.86513E-2,8.943394E-2,-1.6345064E-1,9.5748997E-1,1.7958687E-1,-3.0832002E-1,2.3238223E-2,-1.4312141E-2,-9.486813E-2,-1.4993224E-1,-2.0494159E-1,5.5508944E-4,-1.917753E-2,2.2143999E-3,-1.3183254E-2,7.53937E-3,-3.2265696E-5,-3.666575E-2,8.781282E-2,1.7986093E-3,-3.5725318E-2,4.226179E-2,1.0499366E-1,1.1377765E-1,4.0141952E-1,-3.5275075E-1,-2.3459905E-1,-1.1096383E-2,4.1295006E-3,-1.6058436E-2,-1.31631885E-2,-1.7548298E-2,-2.8860694E-2,7.62267E-3,-2.338255E-2,1.2560703E-2,-2.1738542E-2,3.3514008E-3,3.3566285E-2,3.403469E-2,5.7764053E-2,-2.7460137E-2,-7.404089E-2,-1.7521206E-2,-3.7336536E-2],"categories":[],"categories_nodes":[],"categories_segments":[],"categories_sizes":[],"default_left":[0,0,0,0,0,0,0,0,0,0,0,0,0,0,0,0,0,0,0,0,0,0,0,0,0,0,0,0,0,0,0,0,0,0,0,0,0,0,0,0,0,0,0,0,0,0,0,0,0,0,0,0,0,0,0,0,0,0,0,0,0,0,0,0,0],"id":17,"left_children":[1,3,5,7,9,11,13,15,-1,17,19,21,23,25,-1,27,29,-1,31,33,35,37,39,41,43,45,-1,-1,47,49,51,-1,-1,-1,-1,-1,-1,53,-1,55,-1,-1,-1,57,59,61,63,-1,-1,-1,-1,-1,-1,-1,-1,-1,-1,-1,-1,-1,-1,-1,-1,-1,-1],"loss_changes":[3.553669E0,2.7417374E-1,1.3050811E1,2.5854492E-1,4.1169345E-1,4.6444387E0,1.0471935E0,2.2276688E-1,0E0,2.0241499E-2,7.479219E-2,2.044683E0,4.9806476E0,7.692299E-1,0E0,1.8896198E-1,3.1817627E-1,0E0,1.4635655E-1,9.117206E-2,2.2288907E-2,6.4967136E0,2.0182633E0,1.3017654E-3,1.5747752E0,3.5288334E-1,0E0,0E0,3.0045378E-1,2.1064377E-1,2.574377E-1,0E0,0E0,0E0,0E0,0E0,0E0,1.2865211E0,0E0,9.7709405E-1,0E0,0E0,0E0,1.538161E0,7.2458744E-2,2.250598E0,3.713503E-1,0E0,0E0,0E0,0E0,0E0,0E0,0E0,0E0,0E0,0E0,0E0,0E0,0E0,0E0,0E0,0E0,0E0,0E0],"parents":[2147483647,0,0,1,1,2,2,3,3,4,4,5,5,6,6,7,7,9,9,10,10,11,11,12,12,13,13,15,15,16,16,18,18,19,19,20,20,21,21,22,22,23,23,24,24,25,25,28,28,29,29,30,30,37,37,39,39,43,43,44,44,45,45,46,46],"right_children":[2,4,6,8,10,12,14,16,-1,18,20,22,24,26,-1,28,30,-1,32,34,36,38,40,42,44,46,-1,-1,48,50,52,-1,-1,-1,-1,-1,-1,54,-1,56,-1,-1,-1,58,60,62,64,-1,-1,-1,-1,-1,-1,-1,-1,-1,-1,-1,-1,-1,-1,-1,-1,-1,-1],"split_conditions":[2.626087E-1,2.6563566E0,1.5800095E0,2.549154E-1,-2.879014E-1,7.505366E-1,6.088294E0,-5.765403E-1,-3.4960937E-2,-3.3709416E-1,-7.4064486E-2,4.6607932E-1,-8.417714E-1,2.6563566E0,3.2167014E-2,-3.4511127E-2,1.5800095E0,-1.4153957E-2,-3.240892E-1,-2.0894623E-1,1.2406129E-1,4.1320375E-1,-3.4511127E-2,9.0531486E-1,2.3107011E0,2.3107011E0,2.3238223E-2,-1.4312141E-2,-5.7740366E-1,-3.5808378E-1,-1.6959903E-1,5.5508944E-4,-1.917753E-2,2.2143999E-3,-1.3183254E-2,7.53937E-3,-3.2265696E-5,3.3640027E-1,8.781282E-2,6.041248E-1,-3.5725318E-2,4.226179E-2,1.0499366E-1,5.036624E-1,3.6787734E0,1.8175697E0,5.563554E0,-1.1096383E-2,4.1295006E-3,-1.6058436E-2,-1.31631885E-2,-1.7548298E-2,-2.8860694E-2,7.62267E-3,-2.338255E-2,1.2560703E-2,-2.1738542E-2,3.3514008E-3,3.3566285E-2,3.403469E-2,5.7764053E-2,-2.7460137E-2,-7.404089E-2,-1.7521206E-2,-3.7336536E-2],"split_indices":[1,0,0,1,1,1,1,1,0,1,1,1,0,0,0,0,0,0,1,1,1,1,0,1,1,1,0,0,1,1,1,0,0,0,0,0,0,1,0,1,0,0,0,0,1,1,1,0,0,0,0,0,0,0,0,0,0,0,0,0,0,0,0,0,0],"split_type":[0,0,0,0,0,0,0,0,0,0,0,0,0,0,0,0,0,0,0,0,0,0,0,0,0,0,0,0,0,0,0,0,0,0,0,0,0,0,0,0,0,0,0,0,0,0,0,0,0,0,0,0,0,0,0,0,0,0,0,0,0,0,0,0,0],"sum_hessian":[2.196E3,1.816E3,3.8E2,1.704E3,1.12E2,2.44E2,1.36E2,1.698E3,6E0,8.2E1,3E1,1.26E2,1.18E2,1.34E2,2E0,3.86E2,1.312E3,6.8E1,1.4E1,1.4E1,1.6E1,6.4E1,6.2E1,8E0,1.1E2,1.32E2,2E0,2.52E2,1.34E2,1.188E3,1.24E2,8E0,6E0,8E0,6E0,1E1,6E0,5.6E1,8E0,3.4E1,2.8E1,2E0,6E0,8.6E1,2.4E1,8E1,5.2E1,1.2E2,1.4E1,7.46E2,4.42E2,9.4E1,3E1,3.6E1,2E1,2.2E1,1.2E1,6.4E1,2.2E1,2E1,4E0,6.8E1,1.2E1,3.8E1,1.4E1],"tree_param":{"num_deleted":"0","num_feature":"2","num_nodes":"65","size_leaf_vector":"1"}},{"base_weights":[-1.16258E-1,-1.3326572E-1,-3.5556857E-2,-1.3624373E-1,-8.757418E-2,8.964797E-2,-2.5920376E-1,-1.14047796E-1,-1.4273152E-1,-1.09770656E-1,4.4227753E-2,-3.156391E-2,2.182552E-1,-2.697155E-1,3.002255E-2,-1.2886583E-2,-8.5432924E-2,-1.381483E-1,-1.848187E-1,-1.2759075E-2,-6.358594E-2,6.853971E-3,-2.9499191E-5,7.711369E-3,-3.7657112E-1,8.781026E-2,1.627878E-1,-2.786636E-1,2.168901E-2,-9.995914E-2,3.744081E-2,-1.3694742E-1,-3.1964287E-2,-1.5811941E-1,-2.6067724E-2,5.057481E-4,-8.997664E-2,8.159905E-2,-8.661041E-2,-1.531979E-2,-5.4614842E-2,8.446649E-2,3.1714755E-1,-3.0111274E-1,-1.5820636E-1,-1.0414177E-2,-5.720032E-3,1.3769171E-2,-9.680189E-3,-1.3813141E-2,6.823702E-5,-1.7858325E-2,1.438466E-3,-1.753374E-2,-4.4143177E-3,-3.3275676E-3,8.000724E-2,-2.4409764E-2,1.4999504E-2,-1.2203793E-3,3.0355597E-2,2.7507007E-2,5.314293E-2,-2.4753919E-2,-3.80077E-2,1.5989138E-2,-3.385179E-2],"categories":[],"categories_nodes":[],"categories_segments":[],"categories_sizes":[],"default_left":[0,0,0,0,0,0,0,0,0,0,0,0,0,0,0,0,0,0,0,0,0,0,0,0,0,0,0,0,0,0,0,0,0,0,0,0,0,0,0,0,0,0,0,0,0,0,0,0,0,0,0,0,0,0,0,0,0,0,0,0,0,0,0,0,0,0,0],"id":18,"left_children":[1,3,5,7,9,11,13,15,17,19,21,23,25,27,-1,-1,29,31,33,-1,35,-1,-1,37,39,-1,41,43,-1,45,47,49,-1,51,-1,-1,53,55,57,-1,-1,59,61,63,65,-1,-1,-1,-1,-1,-1,-1,-1,-1,-1,-1,-1,-1,-1,-1,-1,-1,-1,-1,-1,-1,-1],"loss_changes":[2.9887733E0,2.3313141E-1,1.0691874E1,2.2694206E-1,3.3544075E-1,3.826127E0,8.8661385E-1,1.5308475E-1,2.258091E-1,7.171965E-2,1.8421613E-2,1.7237861E0,4.2124577E0,6.4825726E-1,0E0,0E0,2.4470282E-1,2.1318817E-1,2.1195316E-1,0E0,5.298996E-2,0E0,0E0,8.085273E-1,4.087584E-1,0E0,1.3151639E0,3.1201553E-1,0E0,1.5683174E-2,2.151981E-1,1.912384E-1,0E0,3.3792782E-1,0E0,0E0,7.442002E-2,5.3913603E0,1.9369924E0,0E0,0E0,1.5921626E0,1.8742752E-1,3.7548923E-1,1.3733301E0,0E0,0E0,0E0,0E0,0E0,0E0,0E0,0E0,0E0,0E0,0E0,0E0,0E0,0E0,0E0,0E0,0E0,0E0,0E0,0E0,0E0,0E0],"parents":[2147483647,0,0,1,1,2,2,3,3,4,4,5,5,6,6,7,7,8,8,9,9,10,10,11,11,12,12,13,13,16,16,17,17,18,18,20,20,23,23,24,24,26,26,27,27,29,29,30,30,31,31,33,33,36,36,37,37,38,38,41,41,42,42,43,43,44,44],"right_children":[2,4,6,8,10,12,14,16,18,20,22,24,26,28,-1,-1,30,32,34,-1,36,-1,-1,38,40,-1,42,44,-1,46,48,50,-1,52,-1,-1,54,56,58,-1,-1,60,62,64,66,-1,-1,-1,-1,-1,-1,-1,-1,-1,-1,-1,-1,-1,-1,-1,-1,-1,-1,-1,-1,-1,-1],"split_conditions":[2.626087E-1,2.6563566E0,1.5800095E0,-5.765403E-1,-7.4064486E-2,7.505366E-1,6.088294E0,-3.4511127E-2,1.5800095E0,-3.3709416E-1,1.2406129E-1,6.909679E-1,-8.417714E-1,2.6563566E0,3.002255E-2,-1.2886583E-2,-5.7740366E-1,2.549154E-1,-1.6959903E-1,-1.2759075E-2,-3.240892E-1,6.853971E-3,-2.9499191E-5,4.6607932E-1,5.036624E-1,8.781026E-2,1.8175697E0,4.8166027E0,2.168901E-2,-5.8007663E-1,5.036624E-1,2.1508761E-1,-3.1964287E-2,-1.8649913E-1,-2.6067724E-2,5.057481E-4,-2.879014E-1,4.1320375E-1,5.758464E-1,-1.531979E-2,-5.4614842E-2,5.036624E-1,3.6787734E0,1.8175697E0,5.563554E0,-1.0414177E-2,-5.720032E-3,1.3769171E-2,-9.680189E-3,-1.3813141E-2,6.823702E-5,-1.7858325E-2,1.438466E-3,-1.753374E-2,-4.4143177E-3,-3.3275676E-3,8.000724E-2,-2.4409764E-2,1.4999504E-2,-1.2203793E-3,3.0355597E-2,2.7507007E-2,5.314293E-2,-2.4753919E-2,-3.80077E-2,1.5989138E-2,-3.385179E-2],"split_indices":[1,0,0,1,1,1,1,0,0,1,1,1,0,0,0,0,1,1,1,0,1,0,0,1,0,0,1,1,0,1,0,1,0,1,0,0,1,1,1,0,0,0,1,1,1,0,0,0,0,0,0,0,0,0,0,0,0,0,0,0,0,0,0,0,0,0,0],"split_type":[0,0,0,0,0,0,0,0,0,0,0,0,0,0,0,0,0,0,0,0,0,0,0,0,0,0,0,0,0,0,0,0,0,0,0,0,0,0,0,0,0,0,0,0,0,0,0,0,0,0,0,0,0,0,0,0,0,0,0,0,0,0,0,0,0,0,0],"sum_hessian":[2.18E3,1.8E3,3.8E2,1.688E3,1.12E2,2.44E2,1.36E2,3.86E2,1.302E3,9.6E1,1.6E1,1.26E2,1.18E2,1.34E2,2E0,2.52E2,1.34E2,1.178E3,1.24E2,6.8E1,2.8E1,1E1,6E0,1.14E2,1.2E1,8E0,1.1E2,1.32E2,2E0,1.2E2,1.4E1,1.172E3,6E0,9.4E1,3E1,8E0,2E1,6.4E1,5E1,6E0,6E0,7.4E1,3.6E1,1.1E2,2.2E1,1.08E2,1.2E1,8E0,6E0,1.162E3,1E1,8.4E1,1E1,6E0,1.4E1,5.6E1,8E0,3E1,2E1,5.2E1,2.2E1,3.2E1,4E0,6.8E1,4.2E1,8E0,1.4E1],"tree_param":{"num_deleted":"0","num_feature":"2","num_nodes":"67","size_leaf_vector":"1"}},{"base_weights":[-1.05888456E-1,-1.217642E-1,-3.156542E-2,-1.24589376E-1,-7.9059035E-2,8.147881E-2,-2.334944E-1,-1.0270744E-1,-1.3111301E-1,-9.914618E-2,4.0206403E-2,4.804753E-1,4.772369E-2,-2.4318048E-1,2.802105E-2,-1.1603017E-2,-7.697885E-2,-1.3012397E-1,-2.922449E-2,-1.1501659E-1,-5.796673E-2,6.23088E-3,-2.6970249E-5,7.7788355E-3,7.662669E-1,-1.4261346E-2,2.3284154E-1,-4.8749305E-2,-2.6527378E-1,-9.009656E-2,3.3969328E-2,-1.3115965E-1,6.203272E-4,-1.085718E-1,-1.565888E-2,4.607929E-4,-8.202412E-2,4.4724055E-2,8.846761E-2,7.0391454E-2,-8.272455E-2,1.5232407E-1,3.452446E-1,-1.0296398E-2,2.0243073E-2,-4.308827E-1,-2.1541362E-1,-9.382313E-3,-5.1920298E-3,1.2545246E-2,-8.85046E-3,-1.2918957E-2,-2.1656059E-2,-3.4418285E-3,4.955032E-3,-1.1426411E-2,-6.172189E-3,-1.6030848E-2,-4.0023145E-3,-5.8142585E-3,1.8466873E-2,-1.8281188E-2,4.2562718E-3,4.038008E-2,1.0684963E-2,4.482953E-2,2.3149054E-2,-2.3379482E-2,-4.7606044E-2,6.58449E-3,-2.7321085E-2],"categories":[],"categories_nodes":[],"categories_segments":[],"categories_sizes":[],"default_left":[0,0,0,0,0,0,0,0,0,0,0,0,0,0,0,0,0,0,0,0,0,0,0,0,0,0,0,0,0,0,0,0,0,0,0,0,0,0,0,0,0,0,0,0,0,0,0,0,0,0,0,0,0,0,0,0,0,0,0,0,0,0,0,0,0,0,0,0,0,0,0],"id":19,"left_children":[1,3,5,7,9,11,13,15,17,19,21,23,25,27,-1,-1,29,31,-1,33,35,-1,-1,-1,37,39,41,43,45,47,49,51,53,55,-1,-1,57,-1,-1,59,61,63,65,-1,-1,67,69,-1,-1,-1,-1,-1,-1,-1,-1,-1,-1,-1,-1,-1,-1,-1,-1,-1,-1,-1,-1,-1,-1,-1,-1],"loss_changes":[2.5412712E0,2.0454597E-1,8.716076E0,2.2421074E-1,2.7470064E-1,3.2767727E0,7.49825E-1,1.2372255E-1,1.6579819E-1,5.672568E-2,1.52253285E-2,2.126999E0,2.6080403E0,5.66977E-1,0E0,0E0,1.9953775E-1,1.7245674E-1,0E0,1.4856458E-3,4.4034056E-2,0E0,0E0,0E0,1.9869804E-2,9.9687105E-1,4.6328425E-1,2.2510773E-1,9.063139E-1,1.234287E-2,1.7916758E-1,1.845169E-1,2.0564266E-2,9.748459E-3,0E0,0E0,6.263237E-2,0E0,0E0,1.1417531E0,1.1990492E0,3.5710567E-1,1.6583991E-1,0E0,0E0,1.2910748E-1,1.5623055E0,0E0,0E0,0E0,0E0,0E0,0E0,0E0,0E0,0E0,0E0,0E0,0E0,0E0,0E0,0E0,0E0,0E0,0E0,0E0,0E0,0E0,0E0,0E0,0E0],"parents":[2147483647,0,0,1,1,2,2,3,3,4,4,5,5,6,6,7,7,8,8,9,9,10,10,11,11,12,12,13,13,16,16,17,17,19,19,20,20,24,24,25,25,26,26,27,27,28,28,29,29,30,30,31,31,32,32,33,33,36,36,39,39,40,40,41,41,42,42,45,45,46,46],"right_children":[2,4,6,8,10,12,14,16,18,20,22,24,26,28,-1,-1,30,32,-1,34,36,-1,-1,-1,38,40,42,44,46,48,50,52,54,56,-1,-1,58,-1,-1,60,62,64,66,-1,-1,68,70,-1,-1,-1,-1,-1,-1,-1,-1,-1,-1,-1,-1,-1,-1,-1,-1,-1,-1,-1,-1,-1,-1,-1,-1],"split_conditions":[2.626087E-1,2.6563566E0,1.5800095E0,-5.765403E-1,-7.4064486E-2,-8.417714E-1,6.088294E0,-3.4511127E-2,2.549154E-1,-3.3709416E-1,1.2406129E-1,3.3640027E-1,1.1360599E0,4.6607932E-1,2.802105E-2,-1.1603017E-2,-5.7740366E-1,2.1508761E-1,-2.922449E-2,-3.631973E-1,-3.240892E-1,6.23088E-3,-2.6970249E-5,7.7788355E-3,9.0531486E-1,-3.4511127E-2,2.8648908E0,2.6563566E0,1.0684595E0,-5.8007663E-1,5.036624E-1,1.2406129E-1,-5.7268465E-1,-4.4690832E-1,-1.565888E-2,4.607929E-4,-2.879014E-1,4.4724055E-2,8.846761E-2,-5.7268465E-1,5.036624E-1,-3.4511127E-2,3.160057E0,-1.0296398E-2,2.0243073E-2,5.758464E-1,1.8047018E0,-9.382313E-3,-5.1920298E-3,1.2545246E-2,-8.85046E-3,-1.2918957E-2,-2.1656059E-2,-3.4418285E-3,4.955032E-3,-1.1426411E-2,-6.172189E-3,-1.6030848E-2,-4.0023145E-3,-5.8142585E-3,1.8466873E-2,-1.8281188E-2,4.2562718E-3,4.038008E-2,1.0684963E-2,4.482953E-2,2.3149054E-2,-2.3379482E-2,-4.7606044E-2,6.58449E-3,-2.7321085E-2],"split_indices":[1,0,0,1,1,0,1,0,1,1,1,1,1,1,0,0,1,1,0,1,1,0,0,0,1,0,1,0,1,1,0,1,0,1,0,0,1,0,0,0,0,0,1,0,0,1,1,0,0,0,0,0,0,0,0,0,0,0,0,0,0,0,0,0,0,0,0,0,0,0,0],"split_type":[0,0,0,0,0,0,0,0,0,0,0,0,0,0,0,0,0,0,0,0,0,0,0,0,0,0,0,0,0,0,0,0,0,0,0,0,0,0,0,0,0,0,0,0,0,0,0,0,0,0,0,0,0,0,0,0,0,0,0,0,0,0,0,0,0,0,0,0,0,0,0],"sum_hessian":[2.156E3,1.776E3,3.8E2,1.664E3,1.12E2,2.44E2,1.36E2,3.86E2,1.278E3,9.6E1,1.6E1,1.8E1,2.26E2,1.34E2,2E0,2.52E2,1.34E2,1.272E3,6E0,6.8E1,2.8E1,1E1,6E0,8E0,1E1,1.7E2,5.6E1,1.4E1,1.2E2,1.2E2,1.4E1,1.262E3,1E1,6.2E1,6E0,8E0,2E1,4E0,6E0,7.6E1,9.4E1,3.4E1,2.2E1,1.2E1,2E0,2.6E1,9.4E1,1.08E2,1.2E1,8E0,6E0,1.236E3,2.6E1,6E0,4E0,5.4E1,8E0,6E0,1.4E1,3.6E1,4E1,5.2E1,4.2E1,4E0,3E1,1E1,1.2E1,6E0,2E1,1.6E1,7.8E1],"tree_param":{"num_deleted":"0","num_feature":"2","num_nodes":"71","size_leaf_vector":"1"}},{"base_weights":[-9.5402285E-2,-1.1017262E-1,-2.7988048E-2,-1.1273895E-1,-7.1565755E-2,7.097337E-2,-2.1053733E-1,-9.444177E-2,-1.1952391E-1,-8.97762E-2,3.6550693E-2,-3.0704403E-2,1.720923E-1,-2.1946818E-1,2.6152978E-2,-1.0555725E-2,-7.195683E-2,-1.1514865E-1,-1.5848516E-1,-1.03996925E-1,-5.2844968E-2,5.6644357E-3,-2.4658442E-5,7.4576735E-2,-1.3884042E-1,4.2898574E-1,9.510237E-2,-4.3211255E-2,-2.3950441E-1,-8.45269E-2,-3.99103E-2,-1.2645468E-1,-9.804254E-2,-1.3708906E-1,-2.3345089E-2,-9.799396E-2,-1.4316688E-2,4.198326E-4,-7.4775666E-2,-2.8813241E-2,7.2109364E-2,1.5665089E-1,-2.1143939E-1,3.01547E-1,6.786778E-1,2.6337523E-2,2.601783E-1,-9.345961E-3,1.8893536E-2,-3.904235E-1,-1.9409053E-1,-8.935416E-3,-6.4733126E-3,6.0719475E-3,-8.73147E-3,-1.4508684E-2,-1.1462872E-2,-1.1604108E-3,-1.0530631E-2,-1.5470095E-2,-4.7181505E-3,-1.0304546E-2,-5.6235497E-3,-1.4656775E-2,-3.6287648E-3,7.6313615E-3,-2.126647E-2,4.7435936E-2,-1.834363E-2,-3.2434054E-2,-8.104859E-3,-1.20510785E-2,5.7054497E-2,8.501233E-2,3.7149668E-2,-8.7995725E-3,2.6877195E-2,2.077277E-2,4.7039565E-2,-2.7050758E-2,-4.6832237E-2,1.3597217E-2,-2.345211E-2],"categories":[],"categories_nodes":[],"categories_segments":[],"categories_sizes":[],"default_left":[0,0,0,0,0,0,0,0,0,0,0,0,0,0,0,0,0,0,0,0,0,0,0,0,0,0,0,0,0,0,0,0,0,0,0,0,0,0,0,0,0,0,0,0,0,0,0,0,0,0,0,0,0,0,0,0,0,0,0,0,0,0,0,0,0,0,0,0,0,0,0,0,0,0,0,0,0,0,0,0,0,0,0],"id":20,"left_children":[1,3,5,7,9,11,13,15,17,19,21,23,25,27,-1,-1,29,31,33,35,37,-1,-1,39,41,43,45,47,49,51,53,55,57,59,-1,61,-1,-1,63,65,-1,67,69,71,73,75,77,-1,-1,79,81,-1,-1,-1,-1,-1,-1,-1,-1,-1,-1,-1,-1,-1,-1,-1,-1,-1,-1,-1,-1,-1,-1,-1,-1,-1,-1,-1,-1,-1,-1,-1,-1],"loss_changes":[2.1447105E0,1.6720009E-1,7.042358E0,1.9442177E-1,2.2576141E-1,2.6065154E0,6.3498354E-1,1.0562277E-1,1.8716049E-1,4.5447588E-2,1.258363E-2,1.4562091E0,2.4710345E0,4.664073E-1,0E0,0E0,5.825907E-2,1.978302E-1,1.5886927E-1,2.194941E-3,3.65929E-2,0E0,0E0,4.365596E0,1.3846209E0,7.1813965E-1,1.1169384E0,1.9263259E-1,7.535343E-1,4.630685E-3,2.1996495E-1,1.2681198E-1,2.7315712E-1,1.4312792E-1,0E0,7.494569E-3,0E0,0E0,5.2707247E-2,1.1179094E0,0E0,1.4916463E0,7.244973E-1,2.4529433E0,1.5816545E-1,1.9916509E0,2.220403E-1,0E0,0E0,1.2553072E-1,1.299628E0,0E0,0E0,0E0,0E0,0E0,0E0,0E0,0E0,0E0,0E0,0E0,0E0,0E0,0E0,0E0,0E0,0E0,0E0,0E0,0E0,0E0,0E0,0E0,0E0,0E0,0E0,0E0,0E0,0E0,0E0,0E0,0E0],"parents":[2147483647,0,0,1,1,2,2,3,3,4,4,5,5,6,6,7,7,8,8,9,9,10,10,11,11,12,12,13,13,16,16,17,17,18,18,19,19,20,20,23,23,24,24,25,25,26,26,27,27,28,28,29,29,30,30,31,31,32,32,33,33,35,35,38,38,39,39,41,41,42,42,43,43,44,44,45,45,46,46,49,49,50,50],"right_children":[2,4,6,8,10,12,14,16,18,20,22,24,26,28,-1,-1,30,32,34,36,38,-1,-1,40,42,44,46,48,50,52,54,56,58,60,-1,62,-1,-1,64,66,-1,68,70,72,74,76,78,-1,-1,80,82,-1,-1,-1,-1,-1,-1,-1,-1,-1,-1,-1,-1,-1,-1,-1,-1,-1,-1,-1,-1,-1,-1,-1,-1,-1,-1,-1,-1,-1,-1,-1,-1],"split_conditions":[2.626087E-1,2.6563566E0,1.5800095E0,-5.671699E-1,-7.4064486E-2,7.505366E-1,6.088294E0,-3.4511127E-2,1.5800095E0,-3.3709416E-1,1.2406129E-1,4.6607932E-1,-3.4511127E-2,4.6607932E-1,2.6152978E-2,-1.0555725E-2,-5.8007663E-1,-3.5808378E-1,-1.5236427E-1,-3.631973E-1,-3.240892E-1,5.6644357E-3,-2.4658442E-5,4.1320375E-1,-5.7268465E-1,-5.7268465E-1,2.3107011E0,2.6563566E0,1.0684595E0,1.5800095E0,5.036624E-1,-5.7268465E-1,-8.417714E-1,-1.8649913E-1,-2.3345089E-2,-4.4690832E-1,-1.4316688E-2,4.198326E-4,-2.879014E-1,3.3640027E-1,7.2109364E-2,6.041248E-1,5.758464E-1,9.0531486E-1,9.0531486E-1,5.036624E-1,3.6787734E0,-9.345961E-3,1.8893536E-2,9.0531486E-1,1.1360599E0,-8.935416E-3,-6.4733126E-3,6.0719475E-3,-8.73147E-3,-1.4508684E-2,-1.1462872E-2,-1.1604108E-3,-1.0530631E-2,-1.5470095E-2,-4.7181505E-3,-1.0304546E-2,-5.6235497E-3,-1.4656775E-2,-3.6287648E-3,7.6313615E-3,-2.126647E-2,4.7435936E-2,-1.834363E-2,-3.2434054E-2,-8.104859E-3,-1.20510785E-2,5.7054497E-2,8.501233E-2,3.7149668E-2,-8.7995725E-3,2.6877195E-2,2.077277E-2,4.7039565E-2,-2.7050758E-2,-4.6832237E-2,1.3597217E-2,-2.345211E-2],"split_indices":[1,0,0,1,1,1,1,0,0,1,1,1,0,1,0,0,1,1,1,1,1,0,0,1,0,0,1,0,1,0,0,0,0,1,0,1,0,0,1,1,0,1,1,1,1,0,1,0,0,1,1,0,0,0,0,0,0,0,0,0,0,0,0,0,0,0,0,0,0,0,0,0,0,0,0,0,0,0,0,0,0,0,0],"split_type":[0,0,0,0,0,0,0,0,0,0,0,0,0,0,0,0,0,0,0,0,0,0,0,0,0,0,0,0,0,0,0,0,0,0,0,0,0,0,0,0,0,0,0,0,0,0,0,0,0,0,0,0,0,0,0,0,0,0,0,0,0,0,0,0,0,0,0,0,0,0,0,0,0,0,0,0,0,0,0,0,0,0,0],"sum_hessian":[2.156E3,1.768E3,3.88E2,1.656E3,1.12E2,2.52E2,1.36E2,4.52E2,1.204E3,9.6E1,1.6E1,1.26E2,1.26E2,1.34E2,2E0,3E2,1.52E2,1.086E3,1.18E2,6.8E1,2.8E1,1E1,6E0,6.4E1,6.2E1,2.8E1,9.8E1,1.4E1,1.2E2,1.08E2,4.4E1,6.5E2,4.36E2,9.4E1,2.4E1,6.2E1,6E0,8E0,2E1,5.6E1,8E0,1.2E1,5E1,2E1,8E0,7E1,2.8E1,1.2E1,2E0,2.6E1,9.4E1,8.4E1,2.4E1,1.4E1,3E1,2.48E2,4.02E2,3.4E1,4.02E2,7.8E1,1.6E1,5.4E1,8E0,6E0,1.4E1,3.6E1,2E1,6E0,6E0,2.6E1,2.4E1,8E0,1.2E1,4E0,4E0,4.8E1,2.2E1,2.4E1,4E0,1.2E1,1.4E1,1E1,8.4E1],"tree_param":{"num_deleted":"0","num_feature":"2","num_nodes":"83","size_leaf_vector":"1"}},{"base_weights":[-8.682604E-2,-1.00429095E-1,-2.4803817E-2,-9.973798E-2,-2.5816912E-2,6.5062135E-2,-1.9556534E-1,-1.0072651E-1,6.5519037E-3,-2.7263679E-2,1.5687564E-1,-2.0414102E-1,2.4409445E-2,-9.9320635E-2,-1.8556601E-1,-2.2441915E-3,2.4406888E-2,2.632076E-2,-2.266994E-1,3.918515E-1,8.6459726E-2,-2.1140692E-1,1.763397E-2,-1.0095591E-1,2.193293E-1,-1.1384271E-1,-2.3535514E-1,5.40108E-3,-2.2545884E-5,-2.0881739E-2,6.63166E-2,-1.2176502E-1,-3.3033913E-1,2.735353E-1,6.2438357E-1,2.395838E-2,2.364989E-1,-2.6172352E-1,-1.3431661E-1,-9.906313E-3,-2.0614628E-2,2.7001455E-2,2.7953943E-3,-6.7513995E-3,-1.4390818E-2,-2.8584024E-2,6.1865393E-3,6.8018637E-3,-2.0661216E-2,-2.0479746E-2,2.786306E-2,-1.1745004E-2,-4.9603693E-2,-1.097987E-2,5.1787924E-2,7.8211345E-2,3.4177694E-2,-7.937575E-3,2.4306333E-2,1.8778592E-2,4.3276407E-2,-1.9201936E-2,-5.901118E-2,-8.271184E-3,-2.5953457E-2],"categories":[],"categories_nodes":[],"categories_segments":[],"categories_sizes":[],"default_left":[0,0,0,0,0,0,0,0,0,0,0,0,0,0,0,0,0,0,0,0,0,0,0,0,0,0,0,0,0,0,0,0,0,0,0,0,0,0,0,0,0,0,0,0,0,0,0,0,0,0,0,0,0,0,0,0,0,0,0,0,0,0,0,0,0],"id":21,"left_children":[1,3,5,7,-1,9,11,13,15,17,19,21,-1,23,25,-1,27,29,31,33,35,37,-1,39,41,43,45,-1,-1,47,-1,49,51,53,55,57,59,61,63,-1,-1,-1,-1,-1,-1,-1,-1,-1,-1,-1,-1,-1,-1,-1,-1,-1,-1,-1,-1,-1,-1,-1,-1,-1,-1],"loss_changes":[1.7971039E0,1.649189E-1,5.920798E0,1.8379784E-1,0E0,2.1488965E0,5.512905E-1,1.8755722E-1,9.348369E-3,1.3631715E0,2.0674677E0,3.9943314E-1,0E0,9.085007E-1,6.96246E-2,0E0,8.033527E-3,3.0499773E0,2.5341117E-1,6.2706614E-1,9.227214E-1,4.652276E-1,0E0,3.1665802E-1,7.975116E-2,8.391798E-3,2.4276179E-1,0E0,0E0,1.5826461E0,0E0,5.557502E-1,4.0031874E-1,2.0238342E0,1.3387132E-1,1.6268054E0,1.9599223E-1,1.6492195E0,3.210112E-1,0E0,0E0,0E0,0E0,0E0,0E0,0E0,0E0,0E0,0E0,0E0,0E0,0E0,0E0,0E0,0E0,0E0,0E0,0E0,0E0,0E0,0E0,0E0,0E0,0E0,0E0],"parents":[2147483647,0,0,1,1,2,2,3,3,5,5,6,6,7,7,8,8,9,9,10,10,11,11,13,13,14,14,16,16,17,17,18,18,19,19,20,20,21,21,23,23,24,24,25,25,26,26,29,29,31,31,32,32,33,33,34,34,35,35,36,36,37,37,38,38],"right_children":[2,4,6,8,-1,10,12,14,16,18,20,22,-1,24,26,-1,28,30,32,34,36,38,-1,40,42,44,46,-1,-1,48,-1,50,52,54,56,58,60,62,64,-1,-1,-1,-1,-1,-1,-1,-1,-1,-1,-1,-1,-1,-1,-1,-1,-1,-1,-1,-1,-1,-1,-1,-1,-1,-1],"split_conditions":[2.626087E-1,2.549154E-1,1.5800095E0,2.1508761E-1,-2.5816912E-2,7.505366E-1,6.088294E0,1.2406129E-1,-5.7268465E-1,6.041248E-1,-3.4511127E-2,2.6563566E0,2.4409445E-2,1.0214134E-1,-3.035979E-1,-2.2441915E-3,-3.4511127E-2,5.758464E-1,6.909679E-1,-5.7268465E-1,2.3107011E0,2.3107011E0,1.763397E-2,8.055605E-2,-3.4511127E-2,1.6890514E-1,1.6890514E-1,5.40108E-3,-2.2545884E-5,4.6607932E-1,6.63166E-2,-3.4511127E-2,5.036624E-1,9.0531486E-1,9.0531486E-1,5.036624E-1,3.6787734E0,1.8175697E0,5.563554E0,-9.906313E-3,-2.0614628E-2,2.7001455E-2,2.7953943E-3,-6.7513995E-3,-1.4390818E-2,-2.8584024E-2,6.1865393E-3,6.8018637E-3,-2.0661216E-2,-2.0479746E-2,2.786306E-2,-1.1745004E-2,-4.9603693E-2,-1.097987E-2,5.1787924E-2,7.8211345E-2,3.4177694E-2,-7.937575E-3,2.4306333E-2,1.8778592E-2,4.3276407E-2,-1.9201936E-2,-5.901118E-2,-8.271184E-3,-2.5953457E-2],"split_indices":[1,1,0,1,0,1,1,1,0,1,0,0,0,1,0,0,0,1,1,0,1,1,0,1,0,1,1,0,0,1,0,0,0,1,1,0,1,1,1,0,0,0,0,0,0,0,0,0,0,0,0,0,0,0,0,0,0,0,0,0,0,0,0,0,0],"split_type":[0,0,0,0,0,0,0,0,0,0,0,0,0,0,0,0,0,0,0,0,0,0,0,0,0,0,0,0,0,0,0,0,0,0,0,0,0,0,0,0,0,0,0,0,0,0,0,0,0,0,0,0,0,0,0,0,0,0,0,0,0,0,0,0,0],"sum_hessian":[2.132E3,1.748E3,3.84E2,1.742E3,6E0,2.52E2,1.32E2,1.726E3,1.6E1,1.26E2,1.26E2,1.3E2,2E0,1.7E3,2.6E1,6E0,1E1,1E2,2.6E1,2.8E1,9.8E1,1.28E2,2E0,1.692E3,8E0,1.2E1,1.4E1,4E0,6E0,9.4E1,6E0,1.4E1,1.2E1,2E1,8E0,7E1,2.8E1,7.6E1,5.2E1,1.664E3,2.8E1,6E0,2E0,6E0,6E0,1.2E1,2E0,6.4E1,3E1,1.2E1,2E0,6E0,6E0,8E0,1.2E1,4E0,4E0,4.8E1,2.2E1,2.4E1,4E0,6.4E1,1.2E1,3.8E1,1.4E1],"tree_param":{"num_deleted":"0","num_feature":"2","num_nodes":"65","size_leaf_vector":"1"}},{"base_weights":[-7.825058E-2,-9.06365E-2,-2.1908572E-2,-8.999908E-2,-2.3604034E-2,5.9465464E-2,-1.7653807E-1,-9.0894826E-2,6.0810973E-3,-2.454918E-2,1.4301187E-1,-2.056589E-1,-4.250968E-2,-8.960459E-2,-1.6862199E-1,-2.0518312E-3,2.2455167E-2,2.4208069E-2,-2.0602818E-1,3.5794905E-1,7.860592E-2,-2.141175E-1,1.6458375E-2,1.9816272E-2,-1.674239E-1,-9.1098495E-2,2.0070714E-1,-2.002634E-1,-8.30877E-2,4.968994E-3,-2.0612139E-5,-1.8939447E-2,6.063232E-2,-1.09096296E-1,-3.0202433E-1,2.4812505E-1,5.744329E-1,-2.5734128E-2,1.5593953E-1,-2.8611526E-1,-1.766649E-1,-2.353114E-2,2.2782153E-2,-8.938249E-3,-1.862425E-2,2.4687044E-2,2.6090345E-3,-6.1727087E-3,-2.59455E-2,-1.315732E-2,5.7741036E-3,6.1321426E-3,-1.8661743E-2,-1.8589308E-2,2.6005521E-2,-1.073829E-2,-4.5351945E-2,-1.0003885E-2,4.7007505E-2,7.1954444E-2,3.1443484E-2,-1.5466328E-2,1.805495E-2,1.3014789E-2,3.98143E-2,-1.4472551E-2,-3.734834E-2,7.7999025E-3,-2.4951791E-2],"categories":[],"categories_nodes":[],"categories_segments":[],"categories_sizes":[],"default_left":[0,0,0,0,0,0,0,0,0,0,0,0,0,0,0,0,0,0,0,0,0,0,0,0,0,0,0,0,0,0,0,0,0,0,0,0,0,0,0,0,0,0,0,0,0,0,0,0,0,0,0,0,0,0,0,0,0,0,0,0,0,0,0,0,0,0,0,0,0],"id":22,"left_children":[1,3,5,7,-1,9,11,13,15,17,19,21,23,25,27,-1,29,31,33,35,37,39,-1,-1,41,43,45,47,49,-1,-1,51,-1,53,55,57,59,61,63,65,67,-1,-1,-1,-1,-1,-1,-1,-1,-1,-1,-1,-1,-1,-1,-1,-1,-1,-1,-1,-1,-1,-1,-1,-1,-1,-1,-1,-1],"loss_changes":[1.4837313E0,1.4048767E-1,4.854886E0,1.5021515E-1,0E0,1.7793484E0,5.103593E-1,1.5768433E-1,7.864932E-3,1.1287365E0,1.7299538E0,3.7659883E-1,7.847623E-1,7.5426865E-1,5.6434155E-2,0E0,6.7991666E-3,2.5482821E0,2.1828759E-1,5.46947E-1,8.028433E-1,2.3797941E-1,0E0,0E0,5.097567E-1,2.5911045E-1,6.6107094E-2,1.3978809E-1,6.9050536E-2,0E0,0E0,1.2899519E0,0E0,4.735872E-1,3.346337E-1,1.6698003E0,1.1330891E-1,1.1715511E0,3.0425155E-1,3.783009E-1,1.3738339E0,0E0,0E0,0E0,0E0,0E0,0E0,0E0,0E0,0E0,0E0,0E0,0E0,0E0,0E0,0E0,0E0,0E0,0E0,0E0,0E0,0E0,0E0,0E0,0E0,0E0,0E0,0E0,0E0],"parents":[2147483647,0,0,1,1,2,2,3,3,5,5,6,6,7,7,8,8,9,9,10,10,11,11,12,12,13,13,14,14,16,16,17,17,18,18,19,19,20,20,21,21,24,24,25,25,26,26,27,27,28,28,31,31,33,33,34,34,35,35,36,36,37,37,38,38,39,39,40,40],"right_children":[2,4,6,8,-1,10,12,14,16,18,20,22,24,26,28,-1,30,32,34,36,38,40,-1,-1,42,44,46,48,50,-1,-1,52,-1,54,56,58,60,62,64,66,68,-1,-1,-1,-1,-1,-1,-1,-1,-1,-1,-1,-1,-1,-1,-1,-1,-1,-1,-1,-1,-1,-1,-1,-1,-1,-1,-1,-1],"split_conditions":[2.626087E-1,2.549154E-1,1.5800095E0,2.1508761E-1,-2.3604034E-2,7.505366E-1,4.8166027E0,1.2406129E-1,-5.7268465E-1,6.041248E-1,-3.4511127E-2,2.6563566E0,5.563554E0,1.0214134E-1,1.6890514E-1,-2.0518312E-3,-3.4511127E-2,5.758464E-1,6.909679E-1,-5.7268465E-1,1.1360599E0,1.0684595E0,1.6458375E-2,1.9816272E-2,6.088294E0,8.055605E-2,-3.4511127E-2,-3.035979E-1,-3.035979E-1,4.968994E-3,-2.0612139E-5,4.6607932E-1,6.063232E-2,-3.4511127E-2,5.036624E-1,9.0531486E-1,9.0531486E-1,5.036624E-1,3.6787734E0,5.758464E-1,1.8047018E0,-2.353114E-2,2.2782153E-2,-8.938249E-3,-1.862425E-2,2.4687044E-2,2.6090345E-3,-6.1727087E-3,-2.59455E-2,-1.315732E-2,5.7741036E-3,6.1321426E-3,-1.8661743E-2,-1.8589308E-2,2.6005521E-2,-1.073829E-2,-4.5351945E-2,-1.0003885E-2,4.7007505E-2,7.1954444E-2,3.1443484E-2,-1.5466328E-2,1.805495E-2,1.3014789E-2,3.98143E-2,-1.4472551E-2,-3.734834E-2,7.7999025E-3,-2.4951791E-2],"split_indices":[1,1,0,1,0,1,1,1,0,1,0,0,1,1,1,0,0,1,1,0,1,1,0,0,1,1,0,0,0,0,0,1,0,0,0,1,1,0,1,1,1,0,0,0,0,0,0,0,0,0,0,0,0,0,0,0,0,0,0,0,0,0,0,0,0,0,0,0,0],"split_type":[0,0,0,0,0,0,0,0,0,0,0,0,0,0,0,0,0,0,0,0,0,0,0,0,0,0,0,0,0,0,0,0,0,0,0,0,0,0,0,0,0,0,0,0,0,0,0,0,0,0,0,0,0,0,0,0,0,0,0,0,0,0,0,0,0,0,0,0,0],"sum_hessian":[2.128E3,1.744E3,3.84E2,1.738E3,6E0,2.52E2,1.32E2,1.722E3,1.6E1,1.26E2,1.26E2,1.08E2,2.4E1,1.696E3,2.6E1,6E0,1E1,1E2,2.6E1,2.8E1,9.8E1,1.06E2,2E0,8E0,1.6E1,1.688E3,8E0,1.8E1,8E0,4E0,6E0,9.4E1,6E0,1.4E1,1.2E1,2E1,8E0,4.2E1,5.6E1,3.4E1,7.2E1,1.4E1,2E0,1.66E3,2.8E1,6E0,2E0,6E0,1.2E1,6E0,2E0,6.4E1,3E1,1.2E1,2E0,6E0,6E0,8E0,1.2E1,4E0,4E0,2.6E1,1.6E1,5.2E1,4E0,1.4E1,2E1,1.6E1,5.6E1],"tree_param":{"num_deleted":"0","num_feature":"2","num_nodes":"69","size_leaf_vector":"1"}},{"base_weights":[-7.0526086E-2,-8.181414E-2,-1.9297445E-2,-6.497148E-2,-8.675711E-2,5.4290645E-2,-1.5913571E-1,-7.518893E-2,-4.6944354E-2,-8.9833036E-2,-4.631957E-2,-2.2098757E-2,1.3025257E-1,-2.0609221E-1,-8.879573E-2,-7.032358E-3,-8.1591625E-3,-5.737397E-2,4.866119E-2,-8.905007E-2,-2.1580828E-2,-7.4154966E-2,1.5334973E-2,6.81072E-3,-2.7613655E-1,3.2699555E-1,7.1305096E-2,-1.435431E-1,-5.1260747E-2,-1.0418236E-1,2.1263337E-2,-6.000141E-2,-2.850519E-2,1.2565455E-2,-5.728187E-3,-9.38347E-2,-6.6787355E-2,-8.1671685E-2,-4.2652223E-2,-1.5312537E-2,4.1474838E-2,5.5283636E-2,-5.510203E-2,-9.817864E-3,-4.1464638E-2,2.2507459E-1,5.2847826E-1,1.8255489E-2,1.9872639E-1,-2.3253015E-1,-3.270233E-2,-5.9523884E-2,-2.1334892E-2,-5.493426E-3,-8.431273E-3,-5.897475E-4,-4.7040735E-3,-9.227922E-3,-1.7084518E-2,1.02085145E-2,-9.1559235E-3,-7.5008473E-3,-1.14742955E-2,2.0575875E-3,-1.17852315E-2,4.7633382E-3,-9.40555E-3,6.4217397E-3,-1.8844436E-5,-3.8878233E-3,6.454995E-2,-1.6855767E-2,1.1500402E-2,-9.11465E-3,4.2668346E-2,6.619808E-2,2.8928002E-2,-6.923692E-3,2.0385865E-2,1.5726428E-2,3.6629163E-2,-8.867247E-3,-3.3791352E-2,1.3397656E-2,-1.1845307E-2,-1.2730211E-2,1.8054822E-2],"categories":[],"categories_nodes":[],"categories_segments":[],"categories_sizes":[],"default_left":[0,0,0,0,0,0,0,0,0,0,0,0,0,0,0,0,0,0,0,0,0,0,0,0,0,0,0,0,0,0,0,0,0,0,0,0,0,0,0,0,0,0,0,0,0,0,0,0,0,0,0,0,0,0,0,0,0,0,0,0,0,0,0,0,0,0,0,0,0,0,0,0,0,0,0,0,0,0,0,0,0,0,0,0,0,0,0],"id":23,"left_children":[1,3,5,7,9,11,13,15,17,19,21,23,25,27,29,-1,-1,31,33,35,-1,37,39,41,43,45,47,49,-1,51,-1,53,55,-1,-1,57,59,61,63,65,67,69,71,-1,-1,73,75,77,79,81,83,85,-1,-1,-1,-1,-1,-1,-1,-1,-1,-1,-1,-1,-1,-1,-1,-1,-1,-1,-1,-1,-1,-1,-1,-1,-1,-1,-1,-1,-1,-1,-1,-1,-1,-1,-1],"loss_changes":[1.2272482E0,1.3930607E-1,3.9704556E0,6.996262E-2,1.6288567E-1,1.4709576E0,4.2098808E-1,2.143383E-3,1.4936984E-1,1.0377979E-1,1.6760646E-1,9.3458134E-1,1.4495661E0,1.4410272E0,2.7724144E-1,0E0,0E0,8.37785E-3,1.295514E-1,1.2592316E-1,0E0,1.2381941E-2,2.546986E-2,3.481718E-1,2.797264E-1,4.7657728E-1,6.655774E-1,6.532432E-1,0E0,2.4568689E-1,0E0,1.0274202E-2,5.1701814E-3,0E0,0E0,1.0629845E-1,9.4222015E-1,3.0724406E-3,7.3746294E-2,7.88284E-2,1.6120104E-2,3.6375248E0,1.0036589E0,0E0,0E0,1.3777033E0,9.590411E-2,1.1670742E0,1.4387596E-1,5.309639E-1,4.5894796E-1,6.57579E-1,0E0,0E0,0E0,0E0,0E0,0E0,0E0,0E0,0E0,0E0,0E0,0E0,0E0,0E0,0E0,0E0,0E0,0E0,0E0,0E0,0E0,0E0,0E0,0E0,0E0,0E0,0E0,0E0,0E0,0E0,0E0,0E0,0E0,0E0,0E0],"parents":[2147483647,0,0,1,1,2,2,3,3,4,4,5,5,6,6,7,7,8,8,9,9,10,10,11,11,12,12,13,13,14,14,17,17,18,18,19,19,21,21,22,22,23,23,24,24,25,25,26,26,27,27,29,29,31,31,32,32,35,35,36,36,37,37,38,38,39,39,40,40,41,41,42,42,45,45,46,46,47,47,48,48,49,49,50,50,51,51],"right_children":[2,4,6,8,10,12,14,16,18,20,22,24,26,28,30,-1,-1,32,34,36,-1,38,40,42,44,46,48,50,-1,52,-1,54,56,-1,-1,58,60,62,64,66,68,70,72,-1,-1,74,76,78,80,82,84,86,-1,-1,-1,-1,-1,-1,-1,-1,-1,-1,-1,-1,-1,-1,-1,-1,-1,-1,-1,-1,-1,-1,-1,-1,-1,-1,-1,-1,-1,-1,-1,-1,-1,-1,-1],"split_conditions":[2.626087E-1,-5.765403E-1,1.5800095E0,-3.4511127E-2,2.6563566E0,7.505366E-1,2.3107011E0,-5.8501136E-1,-5.7740366E-1,2.549154E-1,-2.879014E-1,6.909679E-1,-3.4511127E-2,1.8175697E0,6.088294E0,-7.032358E-3,-8.1591625E-3,-5.8007663E-1,5.036624E-1,-1.8649913E-1,-2.1580828E-2,-3.3709416E-1,-7.4064486E-2,4.6607932E-1,5.036624E-1,-5.7268465E-1,2.3107011E0,1.0684595E0,-5.1260747E-2,5.563554E0,2.1263337E-2,-5.8072346E-1,5.036624E-1,1.2565455E-2,-5.728187E-3,-2.0894623E-1,-1.6959903E-1,-3.631973E-1,-3.240892E-1,-2.0894623E-1,1.2406129E-1,4.1320375E-1,5.758464E-1,-9.817864E-3,-4.1464638E-2,9.0531486E-1,9.0531486E-1,5.036624E-1,3.6787734E0,5.758464E-1,1.1360599E0,4.8166027E0,-2.1334892E-2,-5.493426E-3,-8.431273E-3,-5.897475E-4,-4.7040735E-3,-9.227922E-3,-1.7084518E-2,1.02085145E-2,-9.1559235E-3,-7.5008473E-3,-1.14742955E-2,2.0575875E-3,-1.17852315E-2,4.7633382E-3,-9.40555E-3,6.4217397E-3,-1.8844436E-5,-3.8878233E-3,6.454995E-2,-1.6855767E-2,1.1500402E-2,-9.11465E-3,4.2668346E-2,6.619808E-2,2.8928002E-2,-6.923692E-3,2.0385865E-2,1.5726428E-2,3.6629163E-2,-8.867247E-3,-3.3791352E-2,1.3397656E-2,-1.1845307E-2,-1.2730211E-2,1.8054822E-2],"split_indices":[1,1,0,0,0,1,1,1,1,1,1,1,0,1,1,0,0,1,0,1,0,1,1,1,0,0,1,1,0,1,0,1,0,0,0,1,1,1,1,1,1,1,1,0,0,1,1,0,1,1,1,1,0,0,0,0,0,0,0,0,0,0,0,0,0,0,0,0,0,0,0,0,0,0,0,0,0,0,0,0,0,0,0,0,0,0,0],"split_type":[0,0,0,0,0,0,0,0,0,0,0,0,0,0,0,0,0,0,0,0,0,0,0,0,0,0,0,0,0,0,0,0,0,0,0,0,0,0,0,0,0,0,0,0,0,0,0,0,0,0,0,0,0,0,0,0,0,0,0,0,0,0,0,0,0,0,0,0,0,0,0,0,0,0,0,0,0,0,0,0,0,0,0,0,0,0,0],"sum_hessian":[2.124E3,1.74E3,3.84E2,3.98E2,1.342E3,2.52E2,1.32E2,2.52E2,1.46E2,1.246E3,9.6E1,1.26E2,1.26E2,7.8E1,5.4E1,1.5E2,1.02E2,1.32E2,1.4E1,1.24E3,6E0,6.6E1,3E1,1.14E2,1.2E1,2.8E1,9.8E1,6.6E1,1.2E1,5.2E1,2E0,1.2E2,1.2E1,8E0,6E0,1.018E3,2.22E2,5.2E1,1.4E1,1.4E1,1.6E1,6.4E1,5E1,6E0,6E0,2E1,8E0,7E1,2.8E1,3.6E1,3E1,3.8E1,1.4E1,1.02E2,1.8E1,6E0,6E0,1E3,1.8E1,2.8E1,1.94E2,4.6E1,6E0,8E0,6E0,8E0,6E0,1E1,6E0,5.6E1,8E0,3E1,2E1,8E0,1.2E1,4E0,4E0,4.8E1,2.2E1,2.4E1,4E0,1.6E1,2E1,1E1,2E1,3E1,8E0],"tree_param":{"num_deleted":"0","num_feature":"2","num_nodes":"87","size_leaf_vector":"1"}},{"base_weights":[-6.411764E-2,-7.4603416E-2,-1.7078327E-2,-6.18398E-2,-8.070659E-2,4.964626E-2,-1.4387715E-1,-7.002527E-2,-4.6830866E-2,-8.400999E-2,-3.7901066E-2,-1.9857192E-2,1.187588E-1,-1.6798149E-1,-3.3027075E-2,-6.373384E-3,-7.482667E-2,-3.3132695E-2,-5.8088657E-2,-8.015575E-2,-1.1436463E-1,-6.6385396E-2,1.3858266E-2,2.3629764E-2,-1.8179516E-1,2.987332E-1,6.483943E-2,-1.7559394E-1,1.5952302E-2,1.6449949E-2,-1.3565719E-1,-8.6777285E-3,-7.16549E-3,-4.9129184E-2,5.332434E-2,-2.4023193E-3,-5.983982E-2,-8.5858084E-2,-5.5170823E-2,-9.4059944E-2,-1.6896956E-2,-5.9121266E-2,-1.077507E-2,-1.4090768E-2,3.7703987E-2,-1.49985235E-2,5.444951E-2,-1.0842595E-1,-2.524677E-1,2.0416494E-1,4.8619998E-1,-2.649955E-2,1.3260674E-1,-2.3612806E-1,-1.4416534E-1,-1.9343639E-2,1.984578E-2,-6.0342136E-3,-2.9820679E-3,1.1448527E-2,-3.292889E-3,-6.6969017E-3,-5.383334E-3,-9.175263E-3,-4.7980594E-3,1.1937116E-2,-7.5177737E-3,-1.1111283E-2,3.6961685E-3,-7.47723E-3,1.8746905E-3,4.339929E-3,-8.59936E-3,6.466271E-3,6.555935E-4,5.068854E-3,-1.5224564E-2,-1.7934946E-2,2.3505127E-2,-8.976334E-3,-3.791053E-2,-8.304458E-3,3.872973E-2,6.0902234E-2,2.661376E-2,6.7615113E-3,-2.4888841E-2,1.1082346E-2,3.3698827E-2,-1.50480075E-2,-3.402934E-2,6.6957655E-3,-2.0460263E-2],"categories":[],"categories_nodes":[],"categories_segments":[],"categories_sizes":[],"default_left":[0,0,0,0,0,0,0,0,0,0,0,0,0,0,0,0,0,0,0,0,0,0,0,0,0,0,0,0,0,0,0,0,0,0,0,0,0,0,0,0,0,0,0,0,0,0,0,0,0,0,0,0,0,0,0,0,0,0,0,0,0,0,0,0,0,0,0,0,0,0,0,0,0,0,0,0,0,0,0,0,0,0,0,0,0,0,0,0,0,0,0,0,0],"id":24,"left_children":[1,3,5,7,9,11,13,15,17,19,21,23,25,27,29,-1,31,33,35,37,39,41,43,45,47,49,51,53,-1,-1,55,-1,-1,57,59,-1,61,63,65,67,-1,69,-1,71,73,75,-1,77,79,81,83,85,87,89,91,-1,-1,-1,-1,-1,-1,-1,-1,-1,-1,-1,-1,-1,-1,-1,-1,-1,-1,-1,-1,-1,-1,-1,-1,-1,-1,-1,-1,-1,-1,-1,-1,-1,-1,-1,-1,-1,-1],"loss_changes":[1.0370035E0,1.2907219E-1,3.264473E0,6.564236E-2,1.6098642E-1,1.2176589E0,3.4982395E-1,6.1360598E-3,2.9071838E-2,1.16835594E-1,1.2623805E-1,8.986538E-1,1.2130519E0,2.9976058E-1,5.291199E-1,0E0,1.3250113E-3,1.3123964E-1,5.064726E-3,1.3189411E-1,1.1604631E-1,1.0156199E-2,2.119169E-2,2.0403004E0,1.12626076E-1,4.1485882E-1,6.163039E-1,1.6952634E-1,0E0,0E0,3.665722E-1,0E0,0E0,1.5304461E-2,8.2899794E-2,0E0,8.0546737E-4,1.6952562E-1,6.4103436E-1,2.0295936E-1,0E0,6.11189E-2,0E0,6.573754E-2,1.3851173E-2,8.641763E-1,0E0,4.075655E-1,2.3382854E-1,1.1367073E0,8.117342E-2,9.16821E-1,2.1642363E-1,2.6104677E-1,9.451579E-1,0E0,0E0,0E0,0E0,0E0,0E0,0E0,0E0,0E0,0E0,0E0,0E0,0E0,0E0,0E0,0E0,0E0,0E0,0E0,0E0,0E0,0E0,0E0,0E0,0E0,0E0,0E0,0E0,0E0,0E0,0E0,0E0,0E0,0E0,0E0,0E0,0E0,0E0],"parents":[2147483647,0,0,1,1,2,2,3,3,4,4,5,5,6,6,7,7,8,8,9,9,10,10,11,11,12,12,13,13,14,14,16,16,17,17,18,18,19,19,20,20,21,21,22,22,23,23,24,24,25,25,26,26,27,27,30,30,33,33,34,34,36,36,37,37,38,38,39,39,41,41,43,43,44,44,45,45,47,47,48,48,49,49,50,50,51,51,52,52,53,53,54,54],"right_children":[2,4,6,8,10,12,14,16,18,20,22,24,26,28,30,-1,32,34,36,38,40,42,44,46,48,50,52,54,-1,-1,56,-1,-1,58,60,-1,62,64,66,68,-1,70,-1,72,74,76,-1,78,80,82,84,86,88,90,92,-1,-1,-1,-1,-1,-1,-1,-1,-1,-1,-1,-1,-1,-1,-1,-1,-1,-1,-1,-1,-1,-1,-1,-1,-1,-1,-1,-1,-1,-1,-1,-1,-1,-1,-1,-1,-1,-1],"split_conditions":[2.626087E-1,-5.5848736E-1,1.5800095E0,-3.4511127E-2,2.6563566E0,7.505366E-1,4.8166027E0,-5.826125E-1,5.036624E-1,1.5800095E0,-2.879014E-1,6.041248E-1,-3.4511127E-2,2.6563566E0,5.563554E0,-6.373384E-3,-8.417714E-1,-5.7740366E-1,-5.9323585E-1,-1.8649913E-1,-1.6959903E-1,-3.240892E-1,-7.4064486E-2,5.758464E-1,6.909679E-1,-5.7268465E-1,1.1360599E0,1.0684595E0,1.5952302E-2,1.6449949E-2,6.088294E0,-8.6777285E-3,-7.16549E-3,-5.8727306E-1,-5.765403E-1,-2.4023193E-3,1.5800095E0,5.036624E-1,-1.6959903E-1,-1.8649913E-1,-1.6896956E-2,-3.3709416E-1,-1.077507E-2,-2.0894623E-1,8.055605E-2,4.6607932E-1,5.444951E-2,-3.4511127E-2,5.036624E-1,9.0531486E-1,9.0531486E-1,1.0684595E0,3.6787734E0,9.0531486E-1,1.8047018E0,-1.9343639E-2,1.984578E-2,-6.0342136E-3,-2.9820679E-3,1.1448527E-2,-3.292889E-3,-6.6969017E-3,-5.383334E-3,-9.175263E-3,-4.7980594E-3,1.1937116E-2,-7.5177737E-3,-1.1111283E-2,3.6961685E-3,-7.47723E-3,1.8746905E-3,4.339929E-3,-8.59936E-3,6.466271E-3,6.555935E-4,5.068854E-3,-1.5224564E-2,-1.7934946E-2,2.3505127E-2,-8.976334E-3,-3.791053E-2,-8.304458E-3,3.872973E-2,6.0902234E-2,2.661376E-2,6.7615113E-3,-2.4888841E-2,1.1082346E-2,3.3698827E-2,-1.50480075E-2,-3.402934E-2,6.6957655E-3,-2.0460263E-2],"split_indices":[1,1,0,0,0,1,1,1,0,0,1,1,0,0,1,0,0,1,1,1,1,1,1,1,1,0,1,1,0,0,1,0,0,1,1,0,0,0,1,1,0,1,0,1,1,1,0,0,0,1,1,1,1,1,1,0,0,0,0,0,0,0,0,0,0,0,0,0,0,0,0,0,0,0,0,0,0,0,0,0,0,0,0,0,0,0,0,0,0,0,0,0,0],"split_type":[0,0,0,0,0,0,0,0,0,0,0,0,0,0,0,0,0,0,0,0,0,0,0,0,0,0,0,0,0,0,0,0,0,0,0,0,0,0,0,0,0,0,0,0,0,0,0,0,0,0,0,0,0,0,0,0,0,0,0,0,0,0,0,0,0,0,0,0,0,0,0,0,0,0,0,0,0,0,0,0,0,0,0,0,0,0,0,0,0,0,0,0,0],"sum_hessian":[2.104E3,1.72E3,3.84E2,5.6E2,1.16E3,2.52E2,1.32E2,3.6E2,2E2,1.076E3,8.4E1,1.26E2,1.26E2,1.08E2,2.4E1,1.62E2,1.98E2,9.2E1,1.08E2,9.58E2,1.18E2,5.4E1,3E1,1E2,2.6E1,2.8E1,9.8E1,1.06E2,2E0,8E0,1.6E1,3.6E1,1.62E2,7.8E1,1.4E1,6E0,1.02E2,7.78E2,1.8E2,8.8E1,3E1,4.8E1,6E0,1.4E1,1.6E1,9.4E1,6E0,1.4E1,1.2E1,2E1,8E0,4.2E1,5.6E1,3.4E1,7.2E1,1.4E1,2E0,4.8E1,3E1,8E0,6E0,4.2E1,6E1,6.72E2,1.06E2,1.8E1,1.62E2,7.8E1,1E1,4E1,8E0,8E0,6E0,8E0,8E0,6.4E1,3E1,1.2E1,2E0,6E0,6E0,8E0,1.2E1,4E0,4E0,3E1,1.2E1,5.2E1,4E0,2E1,1.4E1,1.6E1,5.6E1],"tree_param":{"num_deleted":"0","num_feature":"2","num_nodes":"93","size_leaf_vector":"1"}},{"base_weights":[-5.8153823E-2,-6.704948E-2,-8.949531E-3,-6.534454E-2,-2.0585378E-1,5.1811E-1,-2.756273E-2,-6.784946E-2,3.101606E-2,-8.885868E-2,-4.2714987E-2,5.8361616E-2,1.4888811E-2,4.4876598E-2,-1.3864785E-1,-5.572277E-2,-7.373175E-2,-2.1468964E-1,1.7398092E-1,-1.4649893E-2,1.9053532E-2,3.5303596E-2,1.82065E-2,-1.9386779E-1,-6.6851065E-2,-6.308429E-2,-4.2224105E-2,-7.682366E-2,-3.4269966E-2,5.1543554E-3,-4.5706846E-2,6.285932E-2,7.609922E-2,-1.879261E-1,5.874826E-2,-1.3287073E-1,-4.4640347E-2,-7.985831E-2,1.8522732E-2,-5.7006623E-3,-6.7134737E-3,-2.982867E-3,-5.241265E-3,-7.3422207E-3,-1.0313246E-2,-6.004464E-3,1.2564774E-3,-2.4665904E-3,2.065881E-2,2.025221E-2,-2.2434901E-2,4.978241E-2,3.6533517E-3,-2.5341118E-2,-2.359776E-3,-4.1070664E-3,-1.7538233E-2],"categories":[],"categories_nodes":[],"categories_segments":[],"categories_sizes":[],"default_left":[0,0,0,0,0,0,0,0,0,0,0,0,0,0,0,0,0,0,0,0,0,0,0,0,0,0,0,0,0,0,0,0,0,0,0,0,0,0,0,0,0,0,0,0,0,0,0,0,0,0,0,0,0,0,0,0,0],"id":25,"left_children":[1,3,5,7,9,11,13,15,17,19,-1,-1,-1,21,23,25,27,29,31,-1,-1,-1,33,35,37,39,41,43,45,-1,-1,-1,47,49,51,53,-1,55,-1,-1,-1,-1,-1,-1,-1,-1,-1,-1,-1,-1,-1,-1,-1,-1,-1,-1,-1],"loss_changes":[9.1376495E-1,4.051876E-1,3.1633754E0,4.2426968E-1,5.057457E-1,1.7915606E-1,2.508818E0,1.1751413E-1,1.6180795E0,2.694783E-1,0E0,0E0,0E0,1.5468955E0,4.746871E-1,5.30833E-2,1.3707161E-1,1.1205566E0,1.2426131E0,0E0,0E0,0E0,1.4735115E0,1.0035572E0,1.9512846E-1,5.0596E-3,2.3821205E-2,8.737469E-2,1.0336221E-1,0E0,0E0,0E0,3.3381385E-1,4.5785213E-1,1.4156446E0,7.448132E-1,0E0,1.8916997E-1,0E0,0E0,0E0,0E0,0E0,0E0,0E0,0E0,0E0,0E0,0E0,0E0,0E0,0E0,0E0,0E0,0E0,0E0,0E0],"parents":[2147483647,0,0,1,1,2,2,3,3,4,4,5,5,6,6,7,7,8,8,9,9,13,13,14,14,15,15,16,16,17,17,18,18,22,22,23,23,24,24,25,25,26,26,27,27,28,28,32,32,33,33,34,34,35,35,37,37],"right_children":[2,4,6,8,10,12,14,16,18,20,-1,-1,-1,22,24,26,28,30,32,-1,-1,-1,34,36,38,40,42,44,46,-1,-1,-1,48,50,52,54,-1,56,-1,-1,-1,-1,-1,-1,-1,-1,-1,-1,-1,-1,-1,-1,-1,-1,-1,-1,-1],"split_conditions":[4.1320375E-1,3.3640027E-1,4.6607932E-1,2.626087E-1,-3.035979E-1,1.5800095E0,1.5800095E0,-5.5848736E-1,-5.7268465E-1,3.6166677E-1,-4.2714987E-2,5.8361616E-2,1.4888811E-2,-8.417714E-1,2.3107011E0,-3.4511127E-2,2.6563566E0,-8.417714E-1,-3.4511127E-2,-1.4649893E-2,1.9053532E-2,3.5303596E-2,5.758464E-1,1.8175697E0,6.088294E0,-5.8501136E-1,5.036624E-1,1.5800095E0,-2.879014E-1,5.1543554E-3,-4.5706846E-2,6.285932E-2,5.036624E-1,-5.7268465E-1,6.041248E-1,1.0684595E0,-4.4640347E-2,5.563554E0,1.8522732E-2,-5.7006623E-3,-6.7134737E-3,-2.982867E-3,-5.241265E-3,-7.3422207E-3,-1.0313246E-2,-6.004464E-3,1.2564774E-3,-2.4665904E-3,2.065881E-2,2.025221E-2,-2.2434901E-2,4.978241E-2,3.6533517E-3,-2.5341118E-2,-2.359776E-3,-4.1070664E-3,-1.7538233E-2],"split_indices":[1,1,1,1,0,0,0,1,0,1,0,0,0,0,1,0,0,0,0,0,0,0,1,1,1,1,0,0,1,0,0,0,0,0,1,1,0,1,0,0,0,0,0,0,0,0,0,0,0,0,0,0,0,0,0,0,0],"split_type":[0,0,0,0,0,0,0,0,0,0,0,0,0,0,0,0,0,0,0,0,0,0,0,0,0,0,0,0,0,0,0,0,0,0,0,0,0,0,0,0,0,0,0,0,0,0,0,0,0,0,0,0,0,0,0,0,0],"sum_hessian":[2.088E3,1.768E3,3.2E2,1.748E3,2E1,1E1,3.1E2,1.704E3,4.4E1,1.4E1,6E0,8E0,2E0,1.88E2,1.22E2,5.6E2,1.144E3,1.6E1,2.8E1,1.2E1,2E0,1.4E1,1.74E2,6.8E1,5.4E1,3.6E2,2E2,1.06E3,8.4E1,8E0,8E0,4E0,2.4E1,2.8E1,1.46E2,5.6E1,1.2E1,5.2E1,2E0,1.5E2,2.1E2,9.2E1,1.08E2,9.42E2,1.18E2,5.4E1,3E1,1.4E1,1E1,2E0,2.6E1,6E0,1.4E2,2.6E1,3E1,3.8E1,1.4E1],"tree_param":{"num_deleted":"0","num_feature":"2","num_nodes":"57","size_leaf_vector":"1"}},{"base_weights":[-5.2758817E-2,-6.065618E-2,-8.1581315E-3,-5.9096258E-2,-1.8709277E-1,6.34808E-2,-1.2871122E-1,-6.1392594E-2,2.881444E-2,-7.967925E-2,-3.9053705E-2,5.317392E-2,4.084691E-2,-1.3545957E-1,1.7287882E-2,-6.0846377E-2,-1.845733E-2,-1.956061E-1,1.5937771E-1,-1.3297597E-2,1.7783297E-2,-8.188149E-2,1.014063E-1,-1.4154634E-1,1.3896227E-2,-6.146959E-2,2.4324473E-2,4.696189E-3,-4.1644007E-2,5.783058E-2,6.921699E-2,1.386268E-1,-1.3648397E-1,2.5630283E-1,5.5008262E-2,-2.2900857E-1,-1.1277592E-1,-6.031146E-3,-1.3009635E-2,4.698525E-3,-1.8112319E-4,1.4945318E-2,-9.003105E-3,3.892913E-2,-1.3184153E-2,-2.0274503E-2,-5.946269E-3,1.636321E-2,4.440565E-2,-2.7839553E-3,